{
  "id": "lora_legal_bert_classification_1754066934703_i7nq8",
  "name": "legal-bert_classification",
  "description": "LoRA adapter for classification task",
  "base_model": "legal-bert",
  "config": {
    "rank": 16,
    "alpha": 32,
    "dropout": 0.1,
    "gate_threshold": 0.5,
    "num_gates": 8,
    "target_modules": [
      "q_proj",
      "v_proj"
    ],
    "gate_type": "hybrid",
    "scaling_factor": 1,
    "enable_bias": true,
    "gate_init_strategy": "xavier"
  },
  "layers": [
    {
      "id": "layer_0_q_proj",
      "name": "LoRA_q_proj",
      "rank": 16,
      "alpha": 32,
      "target_module": "q_proj",
      "weight_a": [
        [
          0.025279928092519048,
          0.007302734847829305,
          -0.018370105355601227,
          -0.024471491074749645,
          -0.0510877074970954,
          0.04907836758853052,
          0.05317470349276678,
          0.040224040029880365,
          0.0508820956887614,
          -0.005582548825587274,
          0.024661722708397886,
          -0.045505982301990225,
          0.018820423822362514,
          -0.014986216360800364,
          0.04546013229308451,
          -0.02005923893525492,
          0.03934811455028233,
          0.0454136140008137,
          0.0024624538945794065,
          -0.02127830454746263,
          -0.029917596677542832,
          0.05092004944975918,
          -0.009424505871536159,
          0.0015031500879421579,
          -0.004571377458610513,
          0.03968848760982691,
          0.015173858334047417,
          -0.003454246203614155,
          0.04944345417078963,
          0.03859061657176113,
          0.029587714444311845,
          0.00038174860784614007,
          0.05248755293125371,
          0.01585844775707226,
          -0.006764283299730718,
          0.021204454991068288,
          0.04847115876559028,
          0.022870472637110676,
          0.053140909499286036,
          -0.016465752364294078,
          -0.03747264090772352,
          -0.04276881431135383,
          0.016719026243190303,
          0.01869187342578158,
          0.031406738864806015,
          -0.0036071456735098316,
          0.023790629348642234,
          0.01789383006345926,
          0.027586064092742453,
          0.03517315070073834,
          0.030901364873853386,
          -0.045107172367439635,
          -0.0030525086300553007,
          0.002919262142419491,
          -0.011772568968183206,
          -0.015752003802040303,
          -0.03894680892879584,
          -0.05046699198800432,
          -0.024918195928051768,
          0.051501520224544635,
          -0.04440562036770718,
          0.028600198001653216,
          -0.017741821057448794,
          -0.022719863072660784,
          0.007000974958466833,
          0.003995931486302667,
          0.035888750614703036,
          -0.03224988254368649,
          0.012451443606535226,
          -0.05186876925158238,
          -0.01622649443547565,
          -0.045784378325603725,
          -0.007712676472404253,
          0.02511896749210247,
          -0.015848861256643393,
          0.0446220553114348,
          -0.021946315103678744,
          0.014879813122814311,
          -0.05246408623544519,
          -0.05147885757562189,
          0.005300588564991015,
          -0.013533771619849443,
          0.03961727192583374,
          -0.035775454956223834,
          -0.010833796985316963,
          0.03688058795845801,
          -0.03937249950712415,
          -0.030307345165159674,
          0.025438019863485605,
          -0.021935770454730122,
          0.022169529814977256,
          -0.02108474565404018,
          0.05163799251107825,
          -0.03293630351051457,
          0.03947213694164771,
          0.021777128248317727,
          0.021120130960060372,
          -0.0068020736987258355,
          -0.048475085470817574,
          0.032392464683010436,
          0.0010185043690708216,
          0.010219483954134315,
          0.027587462284321292,
          0.05192705110608915,
          -0.013625120800761474,
          -0.03625089166995151,
          -0.008600173706362247,
          0.04157225267573121,
          -0.027701049805662393,
          0.050317938241165705,
          -0.0020209426187482167,
          -0.049545221806067935,
          0.005683161256653147,
          -0.029574642461575398,
          -0.022971538292754633,
          0.0512848507397638,
          0.0021315884989631904,
          -0.004498683787615766,
          0.04936990016625075,
          -0.011493512312457082,
          -0.04874418457634249,
          0.03929042394802336,
          -0.043512213296446806,
          -0.033466478670143726,
          -0.02780713019887143,
          0.04737277337420043,
          0.03605742434371037,
          0.02599336047714032,
          -0.031299661161900645,
          0.0192776249574448,
          0.0443650585573141,
          -0.029000877772761866,
          -0.022795274013908958,
          -0.032702534829060874,
          -0.0044790247938074085,
          -0.024803780108855724,
          0.03351585820149108,
          -0.020216778716467352,
          0.020924207041507742,
          -0.028268386872653622,
          -0.04896366453110975,
          -0.03370989314630122,
          0.030598654265562058,
          -0.003923892768052559,
          -0.01155359852056887,
          -0.018488519254252687,
          -0.004715487959303338,
          -0.04178228814924518,
          0.009168618000998701,
          0.013729674584584912,
          -0.007534790734725594,
          0.014295198281407712,
          0.015163480747188013,
          -0.025655996759697403,
          -0.031916362399774814,
          -0.0036803682815269275,
          -0.005982235575229189,
          0.03842148259320879,
          0.015365109756705776,
          0.006191115109985649,
          -0.05306349507220313,
          -0.0030051171833673806,
          -0.04736039158224464,
          -0.004568627630801394,
          -0.012297596278593285,
          -0.0002649896011194919,
          -0.025012487546740316,
          -0.03138414647880077,
          -0.05198189643409119,
          0.02059102692335256,
          -0.000692219297871948,
          -0.04160737116280704,
          -0.003720816301772903,
          0.04216950345227138,
          0.03891017771588252,
          -0.02188308799142566,
          -0.047723640849057274,
          -0.0411874748476661,
          0.028102697847350314,
          0.03393665230393365,
          0.011654808111557856,
          -0.0216788800517426,
          -0.012402961369728504,
          -0.042582271091608316,
          0.04887787090051352,
          0.02697957835190501,
          -0.040579995800091466,
          0.03081365890331889,
          0.02631103916806213,
          -0.01818123460715709,
          0.012114967580329662,
          0.05159888034376163,
          0.015224177276193483,
          0.046728373346377916,
          0.01633707388332265,
          0.04918253201441203,
          -0.0525331732254177,
          0.040201269934891655,
          0.04399964200216523,
          0.027132180790641024,
          -0.014266581784711371,
          -0.0006952299085752326,
          -0.004039320229082178,
          -0.0322656553778434,
          -0.012004732674491304,
          -0.018720515102686356,
          0.01981449549072246,
          0.030399349517671304,
          -0.011742497198979282,
          0.0032052914962941376,
          -0.025766218943450426,
          -0.031096926991641943,
          -0.035820202705864626,
          -0.048912063814161015,
          -0.005311468228044476,
          0.03631565323465603,
          0.051913411823426826,
          0.01468259540027729,
          -0.019363272654417184,
          -0.00774976440315203,
          0.0022406910413956932,
          -0.005796023893552295,
          0.028465318349561824,
          0.04025182453539201,
          -0.0445582465762696,
          0.0530470920362916,
          -0.0314433793092959,
          -0.05023085266728126,
          0.02431056091399775,
          -0.0029392171951283254,
          -0.04045428191492492,
          0.03865451578726428,
          -0.05298532213170822,
          0.05142501231040132,
          -0.032064395613105624,
          0.0271798126621797,
          0.050441430800340366,
          -0.025666350904504302,
          -0.051266242884439074,
          -0.028642709808831077,
          0.011566630308043446,
          -0.028005897364772034,
          -0.01793605355154927,
          0.023995348702565075,
          0.03845725920405032,
          0.050926976019027174,
          0.02224893182637967,
          -0.040242181833112046,
          -0.0434583662267619,
          -0.010437418478270236,
          0.050705898098810695,
          0.017320924160465247,
          0.035186173340206205,
          0.020626523125517174,
          0.009349550715339092,
          -0.028146947103160066,
          -0.016206121753944876,
          -0.009530000809966382,
          0.043248751148451364,
          -0.016122137577984547,
          -0.01530242326346384,
          0.040329806253481926,
          0.00635532778932355,
          0.04718816444370931,
          -0.032000049709358255,
          -0.009454712197724181,
          -0.032224098725743194,
          0.02567133714226973,
          0.008726910943136596,
          0.008704972690501819,
          -0.0012892080429761507,
          0.053137139790226544,
          0.009362793856106449,
          -0.020649829740347028,
          -0.036390710035572,
          -0.05054926348030238,
          0.009761291736295537,
          0.03138953946141763,
          0.042772132717227934,
          0.04038712985232939,
          -0.03397308269071359,
          -0.03673070632305624,
          -0.01846653361435446,
          0.02289387804389368,
          -0.04089765401133025,
          0.03230798019959899,
          -0.0463947892655912,
          -0.03560706068932974,
          -0.018771455451939763,
          -0.019557204330512015,
          -0.01978993203415092,
          -0.02119628670387957,
          -0.029686833976941836,
          -0.049453447128891354,
          0.04695238650722962,
          -0.019398135083715788,
          0.010540867880551167,
          -0.04644410688813158,
          -0.014250870255097635,
          0.03496733442456732,
          0.013384646422380022,
          0.017321707453023055,
          -0.024674322413976095,
          -0.01989578237840066,
          -0.015608636815204352,
          -0.040736086251151826,
          0.03640708419039889,
          -0.0292035607735547,
          -0.013947754044630152,
          -0.038144718950262585,
          0.039870938950688106,
          0.019598762075298266,
          -0.04661138338035652,
          0.035063656656293435,
          0.010558253899348299,
          -0.008282212795148772,
          0.038409185393290295,
          0.0039454805714890144,
          0.04223506443298487,
          0.0333817768665603,
          -0.046042118772724266,
          0.0012792419529251767,
          0.012961832440285322,
          -0.003451369536860748,
          0.007817841110784788,
          -0.04188930324046491,
          -0.04383928723267374,
          0.050353898735941274,
          -0.023328643021728646,
          0.024873075725589017,
          -0.016758937972208964,
          -0.005602408328597974,
          0.029852098741735052,
          -0.0382789979072009,
          0.01738908952430205,
          0.03184845330943314,
          0.050020620860646604,
          0.0420147263099225,
          -0.03409761813534969,
          0.042180046193603896,
          0.002877394947368801,
          -0.040012450817407196,
          0.04109034744037095,
          -0.031217855990969802,
          0.04495886387075999,
          0.020077352932056557,
          0.02121951913813518,
          -0.043811680188160215,
          0.027464026174205652,
          -0.03019599896862334,
          0.027038987608929754,
          -0.018748044723220447,
          0.0012946921342138534,
          0.03553704078206198,
          0.02613095125625038,
          -0.03549854552095726,
          -0.03320095345891236,
          0.035726358234901535,
          -0.031376638922581516,
          -0.03302568586644185,
          0.03402930168163242,
          -0.015547837483446432,
          -0.03983096906450765,
          -0.04790866758837187,
          -0.030393715948288304,
          0.0008134960399308417,
          0.004217401242815771,
          -0.015003391849575281,
          -0.02597455094260106,
          -0.008958756950815239,
          0.04173098756811094,
          -0.015900196668941678,
          -0.03205020394799502,
          -0.0022758306685891523,
          -0.045475451916059464,
          -0.03187594071390503,
          -0.006231045748748257,
          0.04948110164398695,
          0.02626217549696179,
          0.019150938155156096,
          -0.03627562497634849,
          -0.03556084616425746,
          0.03293254594459357,
          -0.022491684858296286,
          0.02291499114827793,
          -0.01944924531362161,
          -0.012013204103099839,
          -0.05255120698187859,
          -0.02846847560743786,
          0.05187861076488179,
          -0.043166497476359915,
          0.035266393230242644,
          0.05132896791870695,
          -0.005666484064114355,
          -0.006156169654068269,
          -0.004100671681079077,
          0.027785981855500637,
          -0.010596082518738047,
          0.022721755504332992,
          0.04705218523714581,
          -0.003418459329667631,
          0.028523533365650035,
          0.031930472196773654,
          0.009538370982661205,
          0.002392194782393612,
          -0.022584112409540027,
          0.04878532063072664,
          0.04433875224218865,
          -0.02431223972376787,
          0.022023731756931987,
          -0.042101078861023135,
          -0.01457384900776026,
          -0.023099720510830625,
          0.009268215549565095,
          -0.04187767844760423,
          -0.016011351531540676,
          -0.008405591984164809,
          0.021837301632660108,
          -0.012123962105872223,
          0.027128651990156332,
          -0.04055998653928159,
          -0.01646375135217722,
          -0.010625700393326495,
          -0.012312689753918681,
          0.03524050278513352,
          0.010201087470912827,
          0.024135821958970533,
          -0.020571304985393155,
          -0.016738936509015586,
          0.003091918520048535,
          -0.05065909070421429,
          0.04668754024972811,
          -0.030417979562294636,
          -0.021669685414267743,
          0.008242756028968465,
          0.02276715216064955,
          0.01573821532413386,
          0.004358245846846247,
          -0.02670503705485879,
          0.02245384557339316,
          -0.030270214257608327,
          0.022390720363898664,
          0.02676983801463573,
          0.02666572909122833,
          -0.031108576623409583,
          0.04814182293110868,
          0.00668873008047107,
          -0.016111229400369968,
          -0.030468807456110605,
          -0.018768661858590566,
          -0.04916962019838961,
          -0.03219060105027441,
          -0.03011084209900023,
          0.02270678104912388,
          0.01915207274747001,
          0.00679771437038771,
          0.004389978599772817,
          0.043804411748819556,
          0.012696010889919136,
          -0.00954566857933084,
          0.04713195048040289,
          -0.04584692263925599,
          -0.046911776455065064,
          -0.010424989789843823,
          0.032262985134616895,
          0.02069907554857038,
          0.0018180470168382725,
          0.03713191342157926,
          -0.019529858696048303,
          0.041872216615361314,
          0.020940966714876122,
          -0.039621217533356706,
          0.03997943522428544,
          -0.033538505757330916,
          -0.01488285548518495,
          0.05264893918140353,
          -0.00856022467943832,
          -0.010016645475307836,
          -0.012015314670855875,
          -0.04731608498710309,
          0.016498650945868745,
          -0.016816042501404786,
          -0.011782443307384557,
          0.0023275100252501063,
          -0.026786521888523398,
          -0.025787754525304667,
          0.003045730440100375,
          0.03556159272824023,
          0.008963677620859173,
          -0.02345218314836003,
          -0.04014957613676654,
          -0.041058898876859914,
          -0.004856414398428316,
          -0.0047572348057550486,
          -0.03334163409690605,
          -0.03590616966153252,
          0.03136235057530869,
          0.023463078562486618,
          -0.03545429590984316,
          0.009595370382927567,
          0.006896792058224441,
          -0.0478795340416348,
          0.005819846686964593,
          0.034036987973706564,
          -0.04963684330521521,
          -0.015553660404232925,
          0.04672988492345378,
          0.04985544228596983,
          -0.016690180843030235,
          -0.04416896334402134,
          -0.03129659727114239,
          -0.025064157062165502
        ],
        [
          0.031200503863198118,
          -0.05105031529448758,
          -0.02536793382874856,
          -0.011879612280151221,
          0.02756324178597796,
          0.013600371041186051,
          0.03017560993449837,
          -0.03400941264663563,
          -0.004954224603328911,
          0.0022761348385153058,
          -0.045348418507707815,
          0.04627057387138241,
          0.026624715535499784,
          0.0037132796780076447,
          0.03815385820529259,
          -0.011281813242407955,
          0.04833298905851118,
          -0.014483333531129553,
          0.03683876484828714,
          0.024932182360846475,
          0.028531391715019467,
          -0.0002463397811326866,
          0.02104757213100257,
          0.008027339752464068,
          0.03976313080902069,
          0.026961385636597685,
          0.027326127624748932,
          -0.046536946911034,
          0.04718376131322289,
          -0.04459893970364803,
          0.035439777824059396,
          0.0022986961254293455,
          0.01610001088585712,
          0.004278340308050759,
          0.015490567090501948,
          0.011773703893536042,
          0.035142959481023674,
          0.04125097579714348,
          0.03807077488487073,
          0.005302255359241072,
          0.05069517463538137,
          -0.029660056759736944,
          0.011880800603792962,
          0.029144054451803975,
          -0.0310164553462967,
          0.025946998869868725,
          0.004526311042809244,
          -0.0019048246598659614,
          -0.02470753531364183,
          0.009362724992300306,
          -0.03297163899071429,
          0.05087715830032104,
          -0.017163426508253626,
          -0.03468336545724657,
          -0.031190311582286898,
          -0.042126523457697955,
          0.03810360181913258,
          0.040737423199463184,
          -0.03834150056514641,
          0.008859989495108281,
          0.04581742648184843,
          0.01830406711342972,
          -0.018902654294817432,
          0.03430078165262994,
          -0.03412119757484865,
          -0.03739969400849139,
          0.0381902900850872,
          -0.04972899606380823,
          -0.019666956712433622,
          -0.03100280717547257,
          -0.008475740084769503,
          -0.02122935511817746,
          0.05323977722698594,
          -0.045171517110357794,
          0.05036331674328667,
          -0.008377516219761636,
          -0.016366838659924037,
          0.008182860525468703,
          -0.02877856261666545,
          -0.03724927604412156,
          -0.0027856360904690994,
          0.04811940195861835,
          0.025856785273599213,
          -0.017014078716978895,
          -0.05212520853827892,
          -0.04563682865001289,
          0.018756119068704592,
          0.008966567205428365,
          -0.035701452524921046,
          -0.04469407362611541,
          0.018750233303303193,
          -0.00700687913564943,
          -0.034916178752557876,
          0.01126383254934797,
          -0.0026474975835793784,
          -0.007067346238976291,
          0.011044632751818214,
          0.02786135718443347,
          -0.024417983994634008,
          -0.0011555924940254622,
          0.05232292457949612,
          -0.0068392118245569275,
          0.008370203243956776,
          -0.02608919817813931,
          -0.03568276039801807,
          0.04627771616270356,
          0.042429562170230875,
          -0.0003526851242164958,
          -0.024380041697663366,
          0.0442895157290543,
          0.010297158524787735,
          -0.013695003301949817,
          -0.01936138517759264,
          0.03686896347130009,
          -0.02588179424698482,
          -0.04834266134313095,
          -0.04652361283653028,
          -0.05305682426923028,
          -0.0006882464131486644,
          -0.05138943588022693,
          -0.0012205137876181214,
          -0.03713860663211132,
          0.020016463586394296,
          0.040927916590513286,
          -0.05072268678064,
          0.04522214054083621,
          0.04132881548538936,
          -0.004131602136919299,
          -0.039932109573772245,
          0.01210753775052608,
          0.011659492062140427,
          0.015388194824576294,
          0.045032868683851285,
          -0.031220985792954823,
          0.030892955050527218,
          -0.03657044975741341,
          0.009371122180136823,
          -0.02472828364421451,
          0.007913642020911264,
          -0.05270239571931556,
          -0.02555678036078134,
          0.027632176541296592,
          0.050763743022833395,
          0.035120835423602045,
          -0.016906299491167044,
          0.018337023008671915,
          -0.0467886889028278,
          0.052203034535310215,
          0.008431980425214773,
          0.033600362805082516,
          0.027512088526042946,
          0.04870708758416075,
          -0.04823588246113995,
          0.03547910818020122,
          0.014902146550879007,
          -0.036909893171135785,
          0.04172573374626584,
          0.038328592323240554,
          0.051574082020215614,
          6.564257710730216e-7,
          -0.0466338898544203,
          0.006365772492445842,
          0.04908334529780051,
          -0.046990875562042386,
          0.007404685895761057,
          0.0364142476815072,
          -0.0434311053745914,
          -0.04021749818613772,
          0.021341841704064807,
          -0.025083326064670772,
          -0.01593539944723578,
          -0.023535745077487083,
          -0.00739256447712318,
          -0.018431979598009678,
          0.03296840907276141,
          0.04218271850319212,
          -0.0033879204104946084,
          0.004837525103423244,
          -0.015577816105352471,
          -0.005402032324951839,
          0.009067105459026259,
          -0.01385824022171172,
          0.04247224820588548,
          0.01520958552188168,
          0.04408788521784924,
          -0.02813925467195417,
          0.028295414268610895,
          0.017315321597326537,
          -0.034396198500776076,
          0.0015806160881248349,
          0.027648784542752883,
          -0.024211649437818023,
          0.017046677777429835,
          -0.05315874272248335,
          -0.01494382244714409,
          -0.03135910739495838,
          -0.003792843400781931,
          0.012896054694105884,
          -0.04415798026296756,
          -0.04337659805906539,
          -0.031186144638734613,
          -0.03205258651026133,
          0.03146389823386976,
          0.0213933533905851,
          0.043980205914856164,
          -0.022884209501531517,
          0.02745483825548713,
          -0.012036848141949523,
          0.011658031861293841,
          -0.03082926537208036,
          0.015710112675921536,
          0.006806933294770035,
          -0.034776912326153646,
          -0.02336761362573725,
          0.03729449350002056,
          0.02120704346501461,
          -0.04646862477385245,
          0.0492379340268334,
          0.019399150979327772,
          0.03799919964864587,
          -0.023295277815010704,
          -0.017906726236733218,
          0.05221896383379858,
          -0.05204212849172468,
          0.039825197215088814,
          -0.05263400228036033,
          -0.005953039823622075,
          0.008195431796727232,
          -0.03226838009873548,
          -0.0035793948481972386,
          0.03135786162017862,
          -0.024439817690993956,
          0.023077117032608126,
          -0.015452187163913412,
          -0.029908791570824524,
          0.03872485336037052,
          -0.01792341268476856,
          0.01021169694913572,
          0.0417292255809406,
          0.04412368934372243,
          0.011256598599270601,
          -0.007473682236242434,
          -0.007952072102674918,
          -0.049078612287033946,
          0.0520970930208,
          -0.028287384473835667,
          -0.017165587045744283,
          0.03823501068542371,
          -0.03454905833225692,
          -0.025717191711453105,
          0.04644224326836904,
          0.05061624230467703,
          0.047061331948406705,
          0.010054178002842359,
          0.03729961465547267,
          -0.048474838284666436,
          -0.051126202273889934,
          -0.014468255477929726,
          0.005684595165543508,
          -0.014649643150154924,
          0.028946140098005033,
          -0.0074980704135595416,
          0.03989640302095656,
          0.019056344606885958,
          0.025516669932030157,
          -0.015618663383058614,
          0.04282526736833215,
          0.042979759973196405,
          -0.05055356311580702,
          -0.042794857990008046,
          -0.01394092278535724,
          -0.05290723911984281,
          -0.006010358126699245,
          -0.016831798099851202,
          -0.0018426703648945092,
          -0.012051952741376491,
          -0.009110385739869102,
          0.017948171467733857,
          0.0008996868288142154,
          -0.037250044867414296,
          0.04031179150481396,
          0.02051128498143612,
          0.019263136275321287,
          -0.03965906392022316,
          -0.029854467457411174,
          -0.01668236562575492,
          -0.037861081533375175,
          -0.048260976890420304,
          -0.0473947445575896,
          0.044191158919175924,
          -0.03644163180147327,
          -0.008791469291250931,
          0.004681203091816269,
          0.021507672661685406,
          0.00986807447413618,
          -0.025972227537214634,
          -0.01517480367963293,
          0.03595896080344786,
          0.01155866820662513,
          0.023299575828941644,
          0.04451468394625331,
          -0.01952692322354658,
          -0.043172854316263616,
          -0.007791070723702891,
          0.05122128671209512,
          -0.02702709475406647,
          -0.049054051110187284,
          -0.02132399736445776,
          0.028136445784783512,
          -0.000960465326291422,
          -0.015914911437878407,
          0.013114689020671687,
          -0.04675176265018054,
          -0.041854769244639545,
          -0.027775663993574576,
          0.017233791497897694,
          0.013677928993588042,
          0.008557980499038139,
          -0.003561242772735267,
          -0.006468709122156122,
          0.030370396207651515,
          0.021712302146034028,
          0.002275869290682209,
          -0.031779205355132935,
          0.040659997590029306,
          0.03170115598237417,
          -0.02355758901477983,
          -0.04696549744536324,
          0.011001417160863815,
          0.0034462423868442415,
          -0.031318687313424666,
          -0.03327939959239947,
          -0.048522520676960806,
          0.015732917678973373,
          0.024262214848067808,
          0.02910664882041967,
          0.04847650091237414,
          0.03485563664831194,
          -0.03567583395324798,
          0.032959605978980844,
          0.04026691731923243,
          0.0025178971766600857,
          0.008696791510881083,
          0.026440356698586184,
          -0.041521042401214826,
          0.003820753219425575,
          0.017678228466096454,
          -0.014716944018944425,
          -0.014844184635513725,
          -0.005119312559317601,
          -0.04763292620499501,
          0.00845048944766569,
          0.0029099371908183217,
          -0.013276190477983596,
          -0.005289670987734392,
          -0.032483759729433834,
          -0.014646065015595448,
          0.05166832020113833,
          0.01303481555650051,
          0.011922540907147238,
          -0.03911709244649454,
          -0.05250330452864296,
          -0.031008034401467245,
          0.030932411585893396,
          0.011645084805019995,
          -0.030816511993470845,
          -0.04783246966060841,
          -0.04428594497400128,
          0.010780920929086727,
          0.03165750654286259,
          0.031658616566808705,
          -0.0029240352438840472,
          -0.042566910057749895,
          0.023702854750531115,
          0.012912427118998222,
          0.045617424107906625,
          0.02175151807236572,
          -0.028406575686575102,
          -0.018291884518039946,
          -0.03000522422865694,
          -0.04056701709845691,
          -0.019107828706892767,
          -0.004601372882502897,
          0.03835864434991674,
          0.010659672289362992,
          -0.0001110628700160471,
          0.023471707310374977,
          -0.01012835072609755,
          0.027033229840456148,
          0.008262126107801082,
          0.026739877118499584,
          0.04065502065658425,
          -0.007900787449841478,
          0.03426309302606133,
          -0.0025584166311267155,
          0.02493238338541572,
          -0.04114804883742311,
          0.00889975027636966,
          0.016435307768465638,
          -0.0003336636431488442,
          0.010376226612892735,
          -0.03784892696164205,
          0.012039860526996862,
          0.023546869052540876,
          0.05246286333980981,
          0.038151846518379585,
          -0.0526109340093796,
          -0.05136116826252051,
          -0.03793597034602702,
          0.03884219986984031,
          0.053293761989850454,
          0.017040519035611833,
          -0.0038448306420720228,
          0.039418039159610015,
          0.0015004955293336432,
          -0.017353160449881475,
          0.008756254981520831,
          -0.034605232663772016,
          0.009259570112389745,
          0.009511132600855345,
          -0.05131480851231281,
          -0.007365972939900238,
          0.04039384899582451,
          -0.04093515963295695,
          -0.03190261288428026,
          0.004942904740453137,
          0.0026285382868095294,
          0.02462011132371024,
          0.04458375136189053,
          0.018796799729255985,
          -0.046692550525987093,
          -0.023173287516864798,
          -0.008537879505321139,
          -0.04958368019092921,
          -0.04057091840124683,
          -0.004259900706331623,
          0.0254848881948067,
          -0.011522975169817913,
          -0.01909532349399166,
          0.038883551077186815,
          -0.037029753037096366,
          0.03423914890722472,
          0.03843673579765545,
          -0.02707350946335606,
          -0.03610405035932048,
          0.014746492165110243,
          -0.01817337188615615,
          0.025541723023702553,
          -0.02093188481251521,
          0.011110126828781684,
          0.03240337353467176,
          0.019904343721904194,
          -0.028296780918617086,
          0.034539192899066304,
          0.040733025455857,
          0.024984186171041124,
          -0.004829553800990025,
          -0.033118373929951116,
          -0.0014688355338765733,
          0.041553979685616464,
          0.049438145684459096,
          0.027235025233228554,
          -0.03391683891147608,
          0.035819295324975166,
          0.0160907012635738,
          0.03939747393169408,
          0.0007594150151298723,
          0.02865806202254775,
          0.018730591388726636,
          -0.04754568412901418,
          -0.017811631918004812,
          -0.04903467790921625,
          0.033251876062436306,
          -0.024535945112998874,
          0.008170336656569233,
          0.04435412730626257,
          -0.04879455057321747,
          0.04687702077035074,
          0.02608669473708095,
          0.038732730031713604,
          0.0160396720389329,
          0.01453685417913033,
          0.02135937818250171,
          -0.02872586075192452,
          -0.04728171708277581,
          -0.009305260208535109,
          0.005351513303202862,
          -0.05059602152803598,
          0.04972057652251065,
          -0.02656065629138221,
          0.01294910060828715,
          0.007740118279912481,
          0.04208974137181524,
          0.029799536948259677,
          -0.04161759557511863,
          0.027046877784530344,
          0.03639880468262584,
          0.03224656940125076,
          -0.04292666228970433,
          -0.04852337451698697,
          -0.014175303923920463,
          -0.05293408985140128,
          -0.01955660853085212,
          0.04335968127728101,
          -0.04231332183125322,
          0.040172855150137673,
          -0.007090385037635495,
          0.00797927580502677,
          0.02116593559780511,
          -0.010595314226608027,
          0.010601408618646252,
          -0.03224564608527262
        ],
        [
          0.026320273556964858,
          0.0093969780176758,
          -0.05006013184383537,
          0.034523587904382716,
          -0.02353034163618391,
          0.03119507296369551,
          0.03963782382487532,
          -0.016265602269862234,
          0.019037918887647592,
          0.03186652334376939,
          -0.045150183110428795,
          0.05060881871321441,
          0.016709910555063663,
          0.03511568352668265,
          -0.024529416881033234,
          -0.037497748906843445,
          0.024981686826289474,
          -0.05319779757787886,
          -0.017411973392005516,
          -0.043884506111031125,
          0.012951155659361472,
          0.04034860769998482,
          -0.04541397092506689,
          0.03605752650636445,
          0.03702834760660357,
          0.03708319083896155,
          0.03857607252942468,
          0.03171666794731293,
          -0.025006871280204644,
          0.0017290301714176345,
          0.0011820531907681762,
          0.009525611695747793,
          -0.04145041507133174,
          0.02837735664898199,
          0.05196683263431076,
          -0.04199565255321778,
          0.018574112956882945,
          0.03586094060184611,
          -0.014828776665066564,
          -0.0010828789025883454,
          0.03751074495496686,
          -0.03393219699430072,
          -0.024443074427389293,
          0.0000889786921567812,
          -0.0473146521577766,
          0.018935671939545762,
          0.03940274523100766,
          -0.002900887186320153,
          -0.03137055499429912,
          0.035485835878698274,
          -0.014098352854818476,
          -0.010987746761428961,
          -0.0009466224585645332,
          -0.007714718505137526,
          0.02029768242061094,
          0.01667529626419537,
          -0.02146427549630062,
          -0.001667503426220962,
          -0.026247972185887748,
          -0.027022642535857705,
          0.05285644346720303,
          0.03637543567608103,
          0.023689901951600607,
          -0.018006844873629142,
          -0.01147090060055318,
          -0.01570452808096542,
          -0.002916260591338371,
          0.04908182576974573,
          0.04707760527498646,
          0.025193231062928187,
          0.04792782078333219,
          0.005514361152852651,
          0.01592410867462453,
          0.05284215145881317,
          0.04686320225760994,
          0.03373816754414854,
          0.03146153600351061,
          -0.04888588614404356,
          0.03457289152014434,
          0.023951857128071,
          0.014963122251253022,
          -0.029984411043453067,
          -0.05113761731633949,
          0.019431852176998367,
          0.012674385083253206,
          0.044030100128626404,
          -0.04822751752126899,
          0.013842812867919413,
          0.04156844900080901,
          0.025858510753433483,
          0.02329244597138739,
          -0.0501791288239824,
          -0.0024215412175312098,
          -0.037666842826554726,
          0.008490136117534996,
          0.0041378123471334785,
          -0.03014919264980545,
          -0.043653537497929024,
          -0.041061694956551514,
          0.010497259364757133,
          -0.037277206773564914,
          -0.012870121594381388,
          0.027874894823325863,
          -0.02279828172640783,
          0.01906069098193106,
          -0.04167416091646585,
          -0.0022882367931237545,
          0.016411500933662938,
          -0.007159755158905848,
          -0.0450237485332874,
          -0.016008780594873276,
          -0.042320231775916234,
          -0.012602162536144334,
          -0.0010771977705687419,
          0.004670920050005005,
          0.011355983866440154,
          -0.045993767469874575,
          -0.038448848530516916,
          0.03999271957176111,
          0.013691679740690375,
          0.04089984296565049,
          0.012542690212394073,
          0.03945165921243967,
          0.04718703440408298,
          -0.016687065477950052,
          0.03804199906233311,
          -0.026118895247821256,
          0.0038690542587126965,
          0.04785288933495945,
          -0.0290485857051671,
          0.01956259955561924,
          -0.049325453016324204,
          0.02684240108435176,
          -0.009124666801491555,
          0.04997871966365446,
          -0.04769080381671516,
          0.04193844490942705,
          -0.033641504115618975,
          -0.04195947770328438,
          0.030812996821401793,
          -0.047358734489980375,
          -0.03005345530184792,
          -0.015254623201575848,
          0.05060582516484269,
          0.009558964986327577,
          -0.007977075710632659,
          0.010906179595763895,
          -0.050888642153064684,
          -0.023868720156572577,
          -0.0451963775103174,
          0.04428638880139574,
          -0.009350624313316593,
          0.038554336018457064,
          -0.04888350108457011,
          -0.04319075742525703,
          -0.015563918517777092,
          0.03207395626756723,
          -0.005630145831540874,
          -0.024208434864158405,
          0.006231332111628745,
          0.04680983698929081,
          0.04733242208143927,
          -0.012174454488690818,
          0.046745880849646475,
          0.03376079231629075,
          0.035333245794853474,
          0.05030831641795745,
          0.02198042997685905,
          -0.04742369148512183,
          0.03841615227499366,
          -0.014622143446794505,
          0.01911773642392001,
          -0.046806212408779635,
          -0.010644143938538055,
          -0.047363620068293665,
          0.04395645434523176,
          0.008726546757982423,
          0.04335105796857566,
          0.007835103994137092,
          -0.025806520667567275,
          0.0518952121282674,
          0.012560916494489175,
          -0.017838035274857174,
          -0.006615825676764222,
          -0.010912906281900319,
          -0.026092748720216167,
          -0.021081953593552735,
          -0.0520778831303143,
          -0.013828321752898819,
          -0.03482368525209692,
          -0.0056176909327416025,
          0.04138275611538353,
          0.01855025980889758,
          0.03656107695674032,
          -0.0066824471153108765,
          -0.04893724283000391,
          0.0019554166678478653,
          -0.011994404146231461,
          0.03252178511309157,
          -0.028737622709851706,
          -0.01627001985879611,
          -0.012469495298443288,
          -0.05044582416715256,
          -0.017632424139493157,
          0.03930072816380817,
          -0.05091474887604549,
          0.026461854580783192,
          0.046900189874080574,
          0.007955890290777319,
          0.023647360074517988,
          0.05039373583587877,
          -0.0036869993036713323,
          0.051618504449718085,
          0.018485639459555735,
          0.05055472857787163,
          -0.052201805524184595,
          0.015100614881892765,
          0.011457732475912709,
          -0.022430283703985237,
          0.01702143114348374,
          -0.035385643070819456,
          -0.024589263363436854,
          0.027041179330251238,
          0.04676461292800043,
          0.04818250978940829,
          -0.004099832949432297,
          0.0068943763868147346,
          -0.015338362790171044,
          -0.009182499863863762,
          -0.04194775674391181,
          -0.024965813957565027,
          -0.0487831786347924,
          -0.030638996376455903,
          0.029361415428668363,
          0.05146383310954184,
          0.034506809503288244,
          0.05301205412261711,
          -0.048274705899691996,
          0.012414209358899564,
          -0.03487977342610273,
          -0.03788662043171886,
          0.04422014504992983,
          -0.026205400089308238,
          0.034237767772958075,
          0.029495664687551958,
          0.04089127389789898,
          -0.04889456403141492,
          0.0456540679090102,
          -0.007112800009781537,
          0.006287898440220268,
          0.023007632492630353,
          0.019290033338298214,
          -0.04388903250398286,
          0.03908616847627753,
          0.007330103283341628,
          0.040351876930230596,
          -0.026680241142278807,
          -0.03933519736660024,
          0.04300588222697878,
          0.019039713907093435,
          -0.044435728764236314,
          0.032375319310667824,
          -0.03236572019183855,
          0.04424937539696851,
          0.02684637471239647,
          -0.029465516684839963,
          0.012266150814431914,
          0.0459190750720271,
          0.045542561247691786,
          0.02634947158341507,
          -0.03414268890188938,
          0.011494379127057523,
          0.01199167313684029,
          -0.001907897739497461,
          0.050897246135480675,
          0.023762827324637175,
          -0.002680545079527835,
          0.0007314487920901479,
          -0.03475130961646012,
          -0.03009275191631807,
          -0.009837866427803156,
          -0.039242881913337524,
          0.05209963579536635,
          0.04414006495126007,
          -0.0303989131101957,
          -0.002597875859270618,
          -0.0335596712816735,
          0.03354651749054143,
          0.00034015473843538517,
          -0.0022972419500135845,
          0.024602454449866345,
          -0.028895613232583727,
          -0.022291803047102484,
          -0.0064384973894052846,
          -0.0029706881273613268,
          0.021658887469650664,
          0.045956459318391915,
          -0.04547155156506804,
          -0.006401726920536557,
          0.011473334245213828,
          0.02768457893421199,
          -0.01341662924030919,
          -0.03706527833221399,
          0.029664289026081182,
          -0.005494583634385783,
          0.03301591740662232,
          -0.045177146016118365,
          -0.024417291601667283,
          -0.0036786894730882476,
          0.0024609544305238635,
          -0.01486581303101977,
          -0.03874526471839534,
          -0.040930273035088546,
          0.028885815062575388,
          0.03888247116087514,
          0.040440161488119894,
          0.03608342204499228,
          -0.03616517054986892,
          0.00577528545939717,
          -0.0512455308116841,
          0.01694172376572533,
          0.036574799913186025,
          0.026200956332289367,
          0.013406689357248461,
          -0.012203820844843956,
          0.02182850710963838,
          -0.0506670842000059,
          0.031166583441546054,
          -0.044080642627146456,
          0.01987970947243355,
          -0.019730503163806836,
          0.03165994578071026,
          0.035343670268867575,
          -0.04900711797889266,
          -0.044531438202856405,
          -0.020257946042264812,
          0.020057128330416507,
          -0.03533451925636593,
          -0.011462367784730799,
          -0.04333734719333442,
          -0.05002292007316562,
          -0.025861493164015207,
          -0.012550035061595665,
          0.031995731959901005,
          -0.01480262676135431,
          -0.031092991314012938,
          -0.03718659188671739,
          0.0013196183790258522,
          0.04952374403719226,
          0.01553751304050122,
          -0.013025444255477074,
          -0.050080609398182874,
          -0.020087740351899905,
          -0.04451172124253093,
          0.014358540539963206,
          0.028341980089242557,
          -0.012483384657967772,
          0.0300979752628605,
          -0.04086672656637183,
          -0.03740410234802415,
          -0.03473749298620546,
          -0.015637699308217897,
          0.04231336818307407,
          0.03249711024557361,
          0.04533054712579172,
          0.003691991909593588,
          -0.03363086116084745,
          0.010452612834190276,
          0.03494448308085364,
          0.020688463043480793,
          0.039736797091843266,
          0.0444450802912765,
          -0.047327011222466936,
          0.0056897491239409305,
          -0.033116992576973016,
          -0.011339561404342493,
          -0.02060581255530777,
          0.04007453170352985,
          0.007660338169870954,
          -0.02236348211553951,
          0.04328435072834235,
          0.036371780816969033,
          0.015095267567813948,
          -0.013686883134883088,
          -0.005606208990680911,
          -0.05292457378561137,
          -0.03203211195239259,
          -0.01725491233911245,
          -0.044056528424887234,
          -0.035991845805729054,
          0.027039277152087142,
          -0.028073067687113623,
          0.048787999583664456,
          0.049697178428382116,
          -0.01400351983459674,
          0.048537343336590016,
          -0.04707609144784205,
          -0.006532261059041372,
          -0.012569046279579721,
          0.015458520260153812,
          -0.024653733322297935,
          0.007875343341681634,
          -0.04479079119605839,
          -0.03615387886462169,
          0.03451419269944007,
          -0.04704347935031525,
          0.03228899053728253,
          -0.04641527330839089,
          0.04003115312598833,
          -0.0014287384125074042,
          -0.02136422583473154,
          -0.009005827540428482,
          -0.004807186352932539,
          0.03631991165082629,
          -0.04234837424576051,
          -0.023000797487995536,
          -0.02235346995528396,
          0.04798392804781056,
          0.017455891308813795,
          -0.02625758388154778,
          0.018468943285798487,
          0.03347194475490893,
          -0.019844793348616344,
          -0.03859374262717703,
          -0.008628791798202183,
          -0.036178942456371675,
          0.034582326990214345,
          -0.0320442157088959,
          -0.05190568253085797,
          -0.021899633091007356,
          0.006715155916660154,
          0.03205950158773115,
          -0.04042783202190665,
          -0.047641519968742975,
          -0.005402124534857753,
          0.03247454452919798,
          -0.0437083332998421,
          -0.04889728815893176,
          -0.03866113683793923,
          0.013303167502166074,
          0.05020656162374113,
          -0.010800395419323053,
          -0.007047021583866882,
          0.04281398198711395,
          0.00967839139650587,
          -0.006348704367803941,
          0.002897995172948894,
          -0.014984058888939633,
          -0.016314511781419645,
          -0.04893458232241223,
          -0.028080405207872142,
          -0.01178995668916435,
          0.02578574486293295,
          0.012523608108486088,
          -0.05168187057028537,
          -0.04949665228471102,
          0.04444729600679937,
          0.0495432346490775,
          0.03733559135820828,
          -0.019139165932423152,
          -0.003582328428689817,
          -0.004891934428383724,
          0.017553113189300446,
          0.023680737547326594,
          0.04820433049940936,
          0.02236230301258351,
          0.0184996788162164,
          -0.022827453649684828,
          0.048753460259352906,
          -0.03227286922842853,
          -0.003473083649430542,
          0.024783612829210443,
          -0.03235076218868747,
          0.04771834284457544,
          -0.020102209385620115,
          -0.0406319264223305,
          0.04417974515465351,
          0.00949935522345638,
          0.04798406298276864,
          -0.011029961027663735,
          0.02598579378699134,
          0.02450252224163861,
          -0.043386821910536694,
          -0.051312894125176554,
          -0.014555545327470816,
          0.023482337503032916,
          0.03183847650387878,
          0.04647908437552675,
          0.017716202920648506,
          0.01032579734558478,
          0.045651355570758494,
          0.016005730324223515,
          0.022543820519375743,
          -0.04370183500049381,
          0.0035887858765080846,
          -0.053023472572121644,
          0.03727152580634828,
          0.0365042537618723,
          0.035092114836416825,
          0.04778852090689283,
          -0.05242842542014143,
          -0.01367714245719733,
          0.039769592900142696,
          -0.0021775388683361293,
          0.013565143027170063,
          0.04680388891359511,
          0.007353541467598848,
          0.03379663360688692,
          0.030679000476951518,
          0.05021394720388258,
          -0.02987963743508856,
          -0.017892178344635735
        ],
        [
          -0.0075334990234803565,
          0.003390411850129975,
          0.01642609562580897,
          0.03435815490582442,
          0.03157516655267442,
          0.0116545790083415,
          0.05172206262258782,
          0.022711802087574017,
          0.05272894911899117,
          -0.02107153822254754,
          -0.045827084627625,
          -0.016104395259959166,
          -0.010184943965557308,
          -0.033019799170635585,
          0.05114909554702755,
          0.030700253929018224,
          0.024426392107485873,
          -0.029398976138228897,
          -0.05047784409034596,
          0.020283448873135507,
          -0.004492142856499798,
          -0.004192431438151868,
          -0.011645799167877313,
          0.0011118213266033438,
          -0.04710775577524334,
          -0.022278574570762016,
          0.046002900215216566,
          0.02829858254230747,
          0.03776570041263249,
          0.040092464654831496,
          0.05176464762349356,
          0.02571342181196691,
          -0.05254558952852256,
          0.008198396487353063,
          0.033582743953723765,
          -0.04965508346398198,
          0.04830598354709279,
          0.017833403979461995,
          0.028317951683255047,
          0.012956862341212887,
          0.010086763186956891,
          0.017407419094523282,
          -0.036157558891022734,
          -0.026038684525339237,
          -0.008776889021701843,
          0.019472477718922566,
          -0.04280987991745504,
          0.05067473579603886,
          -0.029757708976762564,
          0.0005915872168272946,
          0.026028324974154977,
          -0.012013498397840673,
          -0.01165368647163284,
          -0.037160416183084216,
          0.036371527988120454,
          0.03186865331764644,
          0.0034033526784513304,
          0.006830224455683381,
          -0.037958461743521014,
          0.010578444153194599,
          -0.02084506169464952,
          -0.040597880426785936,
          -0.030679916312999413,
          0.029175157326174626,
          0.026411518121136485,
          -0.030995184158078285,
          0.02251624782219272,
          0.03631857156136231,
          -0.039400270504196006,
          0.03504910266757395,
          0.0002751668269205285,
          0.01916359618467,
          -0.02079972756143341,
          0.04761267266861081,
          -0.02509596948620665,
          0.00027827682058302085,
          -0.042754093023608546,
          -0.014423048405898864,
          -0.04054464047206889,
          0.006853454167053007,
          0.027441964393907232,
          -0.033157356457815416,
          0.03795845415767612,
          -0.04539134415171319,
          -0.04146911068344531,
          -0.007158806187651192,
          0.03261342803457669,
          0.04120734487945071,
          0.004160081757169125,
          -0.03763290092775321,
          0.03814296186572778,
          0.006453523605968978,
          0.026215712044196728,
          -0.0069336502964662105,
          0.04421478676916104,
          0.04579750151300231,
          -0.036214259792863766,
          -0.008753180556853757,
          -0.049240569346379166,
          0.038498388543201555,
          -0.04921062264302597,
          -0.04676108899009394,
          -0.020610306973485336,
          -0.012625989663550823,
          -0.029180545139531434,
          -0.017478395211295853,
          0.019222049030408785,
          0.0250360558097646,
          0.03129843115586502,
          -0.010287408100633121,
          -0.010339348122260365,
          0.014327427661624377,
          -0.04277063842974096,
          -0.032948985337947254,
          -0.04485072753347594,
          0.03992544677697752,
          -0.021169521292203664,
          0.018742871337593683,
          -0.04776346287789009,
          -0.024179227915513208,
          -0.04878692692521244,
          0.0157784660492085,
          -0.010463070872452788,
          -0.027394115918988743,
          0.04139491732426003,
          0.008254922101513818,
          0.012424165826920472,
          -0.0005934845975788768,
          -0.03064911986857037,
          0.02784102888748589,
          0.04347524485650295,
          0.03174118264135559,
          0.0463082945514468,
          0.03401874298149173,
          0.03860485583506315,
          0.015042188285301242,
          -0.0061168382748182735,
          0.0196377796296119,
          -0.005434131586700544,
          -0.03849815039518014,
          -0.015970455390519903,
          0.031143991836871485,
          0.03489110867400097,
          -0.038489442594755,
          -0.04502947927061993,
          -0.029348249999111717,
          -0.014429622167987564,
          0.014638286598214412,
          -0.03358069701300549,
          -0.041785460558111755,
          -0.03496484731680131,
          -0.031221423970419857,
          0.014145695224370666,
          0.010267750637483943,
          0.02141220208163839,
          0.04192018057328684,
          -0.038335752170283253,
          0.01189847698326261,
          0.047610273821527486,
          -0.02871165134122222,
          0.03671353789170487,
          -0.04694489301937935,
          0.017938321094986952,
          0.021337728949681306,
          0.019353116226770096,
          0.031118438486576604,
          -0.030057097529030217,
          0.027717556677045854,
          -0.03249086802775439,
          -0.05158815291026326,
          0.010107158062071707,
          -0.03939696028691203,
          0.007901644847714419,
          -0.013323077274084015,
          0.025389929093985783,
          0.02180769110254126,
          -0.04495120938375005,
          -0.014389865658445246,
          0.044559349895191405,
          0.04628945599932145,
          0.010744362138436324,
          -0.017193842311460008,
          -0.021352068300261776,
          0.04055289580656209,
          0.020169867216228644,
          0.05062298159765292,
          0.030062483477017295,
          0.013341190849216557,
          -0.029231474874477557,
          -0.05137034649488677,
          0.053013107878170374,
          0.048494018737785256,
          0.022915036137291622,
          -0.025156966649559246,
          0.007776196808079539,
          -0.0032295272399760987,
          -0.0049120088321881195,
          -0.020641492121867912,
          0.005468129792426122,
          0.02826350401270529,
          0.05270925191784022,
          -0.00010015920605621407,
          0.03407121794847467,
          -0.010309688331451747,
          -0.04627864172367216,
          -0.047060475755089225,
          -0.004947567726331305,
          -0.008230823168399173,
          0.005612742328484231,
          -0.030414966684415807,
          0.017447745733813514,
          -0.03576627942529492,
          0.04056803213194165,
          0.03521997098701633,
          0.014056510390707964,
          0.0003197138390241422,
          -0.02527881645774763,
          -0.020843122261167638,
          -0.023334823773338956,
          0.01871481774026691,
          -0.015431930548485493,
          0.012338712453031057,
          -0.037166798650433534,
          0.009838281027356151,
          0.03653995422629393,
          -0.0013037489001192265,
          0.0041570889594453935,
          0.020689076647662202,
          0.039972299279870824,
          0.05106149975916588,
          -0.04879553245085221,
          0.011729058042508796,
          -0.05326044716305667,
          0.004772677351347821,
          -0.04931108185418459,
          -0.017820681239831635,
          -0.010101821960315142,
          -0.04425324823779527,
          -0.012203889729861788,
          -0.01506060390620163,
          0.01740835796678338,
          0.0023937653648949094,
          0.03962897449821566,
          -0.018802009641346394,
          0.0014665135331941401,
          -0.05302136056642084,
          -0.04635797715267366,
          -0.04001896489584785,
          -0.03494649480753642,
          0.04220010731409177,
          -0.011259378197995659,
          -0.016965983237936872,
          0.04378407808561393,
          -0.04599115374634552,
          0.03074868544173823,
          0.01562276524924766,
          -0.042218161187199815,
          -0.024241208149827605,
          0.004480116202422125,
          -0.04572376766654623,
          0.04963247297617329,
          0.04815192637734301,
          -0.02733671193430265,
          -0.024987476343265466,
          -0.049586281631365164,
          -0.05032461682706252,
          0.026641240987473374,
          0.012157903084036177,
          0.040238118207025844,
          0.04627236691072002,
          -0.036049008572305107,
          -0.005876665830514508,
          0.03687998953369451,
          0.04548772282018401,
          0.010449670082026703,
          -0.016484812640126904,
          0.03755991284918989,
          -0.028512490469439086,
          0.019882617700662863,
          -0.013640936725151974,
          0.03359602183435908,
          0.0013174642126079804,
          -0.042060015451721465,
          0.0491605832818623,
          0.04263143644315088,
          -0.013099590922924235,
          0.038361177958596525,
          -0.018630265574079867,
          0.010863452418074257,
          -0.02119024774795876,
          0.009005390570548577,
          -0.0047797839887099665,
          0.0298886241945823,
          -0.002921565832712148,
          -0.03525070209214333,
          0.02269035242358892,
          -0.037174768314056014,
          -0.04671262454837668,
          -0.0007987414697615344,
          0.003984896793880802,
          -0.012442738057515158,
          0.013664625088340166,
          0.017580342724715432,
          -0.037705590812798596,
          0.0037464111570612297,
          0.04499741944880156,
          0.014390142232322349,
          0.0414335354659007,
          0.05144959640582435,
          -0.01119662972748074,
          0.027884283806381773,
          -0.05232603163667639,
          -0.04799287728225372,
          0.04543517147866356,
          0.0398978488629875,
          0.010127185331581934,
          -0.008007610473540525,
          0.01889133730586206,
          0.04399294656887426,
          -0.029516355099257194,
          -0.026189896457332138,
          0.001846652359159824,
          0.0014821341671594629,
          0.01238612739958999,
          -0.001991274459179486,
          -0.04717217138728191,
          -0.048894750644984754,
          -0.045408066101137554,
          -0.0475626021364182,
          -0.051539391495146025,
          0.012939257592285645,
          0.03314604290886305,
          0.010510033348452479,
          0.012437596236865004,
          -0.05083277818188379,
          0.015181663180325884,
          -0.0035026654469351814,
          -0.025941434437456255,
          -0.04069327284727563,
          -0.01849446910933723,
          0.05145581028626644,
          -0.01966543868800938,
          -0.0036407984225312554,
          -0.031765886776167346,
          0.015150384848497827,
          0.04664636666714567,
          -0.027808700985357156,
          -0.026652225102318086,
          -0.05106796024228225,
          0.04463600539792815,
          0.019031629809543132,
          0.02335273256529919,
          0.05015231528383831,
          -0.04979746131625167,
          -0.05009640248772746,
          0.04486827862595579,
          0.03579747609297269,
          -0.03770786650988205,
          -0.003810146193250191,
          0.05324664988681629,
          0.028511296305973106,
          -0.0415585692020497,
          0.03973390339611439,
          -0.050691432821966816,
          0.0268124577597575,
          -0.053194923631431454,
          0.01839830281316231,
          -0.046893214228878745,
          -0.022885202775333457,
          0.019160126068992697,
          -0.02165540031795511,
          -0.00964649909919356,
          0.006842079126688722,
          0.0031049551649407034,
          -0.003149547500730993,
          0.03803440832410707,
          0.012155345304956402,
          0.007824224888064014,
          0.05307696664101019,
          0.04313835504187564,
          0.04504951742575133,
          -0.011160375230473535,
          0.02266429326861668,
          0.03642620222884228,
          0.003837257315553883,
          0.0051843669977269455,
          0.04851394301396884,
          -0.037823872282161775,
          0.0230979472935929,
          0.030527941125792952,
          0.014790590094488578,
          0.0516866577729421,
          0.030149621628034765,
          0.045202059904011355,
          -0.049019493939271075,
          -0.019835395460618275,
          -0.05306317500147277,
          0.024589666181640962,
          -0.014236611290105814,
          -0.027062559688732342,
          -0.015414870079972273,
          -0.003800544851737819,
          0.04053844108289837,
          0.03998714907557402,
          -0.05040982571150204,
          0.031570711642089876,
          0.0007489733629684064,
          0.004186413547382518,
          0.018427279440975018,
          -0.013419813160899994,
          -0.0038567201648158243,
          0.046986469911925705,
          0.005846748600449545,
          0.03244249556540157,
          0.008877316476802724,
          0.03442894405217929,
          -0.03190705241698904,
          -0.012543638679607182,
          0.02443647404241814,
          -0.01785077684260596,
          0.022692632873385313,
          0.03460176503411326,
          0.04995049892995868,
          -0.03733699195823875,
          -0.04245832079843185,
          -0.04363816736933858,
          0.024702114440755502,
          0.011821872473426956,
          0.01349111640628436,
          0.05087270312428851,
          -0.011876154770064977,
          -0.01065180377373629,
          0.03471079308771808,
          -0.027845145294240516,
          0.0010551936754172413,
          -0.037236644069987064,
          0.025540081287065492,
          -0.011297294092051557,
          0.03853277918834153,
          0.030468660859737203,
          -0.02097219548057664,
          0.0074456768483974,
          0.02582701326326775,
          -0.03136818458597869,
          -0.025535177617238405,
          0.03260864968746278,
          -0.044546016463790965,
          -0.041787123235131285,
          0.05169981484378562,
          -0.0029440353410846616,
          0.019104164338255254,
          -0.007645000431450736,
          0.0005600084894803201,
          0.05239566750008071,
          0.0014758148410247132,
          0.0009978888227126482,
          0.04651261153817207,
          -0.0031336291424307076,
          0.04332121909189015,
          0.0487023665632683,
          -0.007318490907099358,
          0.0008634803245617754,
          0.02036977013221655,
          0.030857740567574836,
          0.0020512091433189826,
          -0.016795149615095123,
          0.047013058201722295,
          0.014183593531613952,
          -0.03489866028118769,
          0.028383113032567353,
          0.04468902461139345,
          0.03223599690586109,
          -0.006530967438072762,
          -0.027658888126788194,
          -0.03793880063987834,
          -0.027271433142736185,
          0.046482380160780115,
          0.015548945445275101,
          0.042063458926608656,
          0.0231098870387866,
          0.03509109403620499,
          0.04662420618177652,
          0.04069482331343413,
          0.0018782636096270388,
          -0.04556749276250885,
          0.00875104173797971,
          -0.010233516877904747,
          -0.0061345087392140635,
          -0.021696869645531455,
          0.013265402794196416,
          -0.03068180354850966,
          -0.0030700810711450526,
          -0.035474437180883764,
          0.022028672467561728,
          -0.002552569407798861,
          -0.031285547727063136,
          -0.025409926431700078,
          0.03704998346540823,
          -0.03442042661010945,
          0.03823784700880704,
          0.04281172161877839,
          -0.008677815233912372,
          0.010577464398275168,
          0.04005780291541917,
          -0.0159977867569751,
          0.03281453748111654,
          -0.017625046419362585,
          0.04082663603886354,
          0.008705740199254864,
          0.030794084562760303,
          -0.035994717191906576,
          0.029344058813620295
        ],
        [
          0.026087292617755,
          0.0485111041644675,
          -0.005611779034583186,
          0.0265473120793128,
          -0.04721060143857493,
          0.015240358379975274,
          -0.044891487633413454,
          0.010199473295766237,
          0.003881545273681465,
          -0.024356081775802292,
          -0.014788004942846393,
          0.044229168384993994,
          -0.04885677681169605,
          -0.015420543982256733,
          0.043781928832346516,
          -0.04961628117400544,
          0.03188328425545091,
          -0.013623326163129076,
          0.0019058718224045108,
          -0.021921883310307155,
          -0.026887039068008902,
          0.0463334916440372,
          0.05261666948553927,
          0.015015108658176459,
          0.01783310666059567,
          -0.032644117444910394,
          0.048969013854653895,
          0.026415612213380006,
          0.02847482828628367,
          0.05304107457982447,
          -0.003385049295384545,
          0.03025441811518245,
          0.01873854845205224,
          0.02289093067824214,
          0.012803156681753233,
          -0.018647795343586977,
          0.045649134903811575,
          -0.013088669545751393,
          -0.029221862902304063,
          0.018241915173849214,
          -0.01403750750683516,
          0.013310550509684813,
          0.03251117285265586,
          -0.013830088244776243,
          -0.03436119546088214,
          0.03458874516482401,
          0.03255707487400062,
          -0.04508943231441007,
          -0.007411444888271477,
          0.029057226673255016,
          0.003145577714498628,
          0.044407937337998575,
          -0.008997050613182612,
          0.023490322290211862,
          -0.05059926272822483,
          0.03653055035343812,
          -0.04237250064472096,
          -0.026368072083436514,
          -0.04111509243928658,
          -0.003016640799375452,
          -0.03613625812271061,
          -0.051075085464528436,
          0.034509059514841664,
          -0.00597719772754085,
          -0.044660753282739135,
          -0.01930251499322862,
          0.015081483441432786,
          -0.020526824072955932,
          -0.004926406715897497,
          0.01636137956158328,
          -0.006840701118627476,
          -0.01613251057584848,
          0.01007144934444121,
          -0.032515620556518784,
          0.035690378473239144,
          -0.04804300824553869,
          -0.044723846195114096,
          -0.047778824560458136,
          0.005468064541647879,
          0.005272371093352408,
          -0.005502489435440378,
          0.033773931135699375,
          -0.03879338313315461,
          -0.01962740863720299,
          -0.04169602567722189,
          -0.021209811244501185,
          -0.014503027465973138,
          -0.036113969678759884,
          0.03976000055155315,
          -0.04556950788342043,
          0.0061966594904211995,
          0.013759945253624471,
          0.0011332860129909905,
          -0.01965679132447247,
          -0.03882593485276702,
          0.021733863702531043,
          -0.0269138051187773,
          0.04164905589851658,
          0.017002928371171594,
          -0.0394420386397076,
          0.02314112621162657,
          -0.0017413824542575965,
          0.014947131441718638,
          0.015053267210960673,
          0.04139397899389011,
          -0.021249446446330728,
          0.027394337282299692,
          -0.035006953765237506,
          0.029021701718989792,
          0.0317391269580263,
          0.04155681641877515,
          0.03666341724916987,
          -0.04261255048940377,
          0.022592980161779873,
          -0.024340342146694248,
          -0.02832749029024911,
          -0.002641636466418888,
          -0.026194732469427516,
          0.051986969647263306,
          0.012030285415202346,
          -0.036014719689988345,
          -0.04557831737200013,
          -0.006834886146638704,
          -0.01764137082917394,
          0.005876150160267877,
          -0.048096635818308905,
          0.012186279158665238,
          0.03289294314217643,
          0.005266307227426309,
          -0.03638848011220052,
          0.006623765914577027,
          -0.002099322502233662,
          0.04287332898475871,
          -0.03257996322349825,
          0.025467193627593702,
          0.03800163734037239,
          0.027253677981734246,
          0.033957108443516466,
          -0.03843393549069169,
          0.00651647841610623,
          -0.0019008785308270424,
          0.043612158165998,
          0.03869188394078022,
          0.05233465404562259,
          0.001116460481267772,
          0.025205621678816688,
          0.032627040593970286,
          0.012827065067236704,
          -0.05239129107493604,
          0.03628182029455221,
          0.007749902944727899,
          0.017511676715326805,
          0.01738730125233568,
          -0.025806037326756733,
          0.03437237783330792,
          -0.04296587179237409,
          0.006431143053707465,
          -0.03641499700294973,
          -0.04766008862910617,
          0.027695389964909566,
          0.019536319709690338,
          0.0015241289608229865,
          0.02816400142849836,
          -0.007987417775823197,
          0.03984161955906656,
          0.04062112434822403,
          0.04056028659316197,
          -0.04146960277309409,
          0.05260043954705098,
          0.03639975983587634,
          -0.04792839399934327,
          0.03114583924521307,
          0.04413899715001678,
          0.0444093749341825,
          0.013690642244399125,
          0.03768878800508697,
          -0.02180314677002086,
          0.004437192884298551,
          0.028244188339227285,
          0.00008447842396299187,
          0.045761935960520084,
          -0.018190586371626256,
          0.04321562872071337,
          -0.018783168511754385,
          -0.027380496071813833,
          -0.012549896610386803,
          -0.04985820360112948,
          -0.05226355149257706,
          0.0369460866461226,
          0.009708193390104813,
          -0.03652165751894312,
          -0.022392243083314688,
          0.045780589428111876,
          0.012882792394075537,
          0.026445339672865095,
          0.033435215597678765,
          0.03743169931180694,
          0.01261575637276472,
          -0.0303753236115433,
          0.020440955575620746,
          0.02474739886717197,
          0.04707034275756574,
          0.030609285482205994,
          0.02283268762090211,
          -0.050705681969846775,
          0.0347023113292631,
          0.016195045683377516,
          -0.020052958356257308,
          -0.013239679993441554,
          0.0456237147461704,
          -0.04571176189854447,
          0.003486975245015128,
          -0.05205349011725205,
          -0.033236534060557515,
          0.05266220921803521,
          0.042564684096945075,
          0.014077340248446079,
          -0.013929347992012661,
          0.010761260703955817,
          0.028448529018149652,
          0.015757435385747198,
          -0.04244706570388114,
          -0.023903944457895072,
          0.047692446959443156,
          -0.023366152621717137,
          0.008061889331659583,
          -0.0229695734126372,
          0.03845362273472489,
          -0.013444398607920592,
          -0.015026462385187978,
          0.010984945334500881,
          0.02713393726991686,
          0.04294944408227475,
          0.03708483210242134,
          -0.048153244354869375,
          0.011750989888012566,
          -0.0016631916811154475,
          0.027671515014446625,
          -0.04054567902582854,
          0.01690317254602066,
          0.008330531031019772,
          0.026795300879329947,
          -0.0441804569105563,
          -0.02222472104568541,
          -0.0352882424010463,
          0.04315789937374486,
          0.039966252546558584,
          -0.04872861740920702,
          0.042037446631610534,
          -0.023388445698105657,
          -0.04627208384937324,
          -0.04123289311087407,
          -0.02411914625014993,
          0.023775225906385276,
          -0.02703967429869575,
          0.011688033330890671,
          -0.018824770344004045,
          0.034702180768668746,
          -0.010103427356120184,
          -0.02380460830653094,
          -0.040904271370467433,
          0.027195272517219125,
          -0.0446732950177327,
          0.049285700034494465,
          0.042615513339227896,
          -0.006483262038287266,
          -0.049133438922446544,
          0.021237943802620264,
          0.04546709892549219,
          -0.018807054391136765,
          0.012181539341529487,
          -0.017602454058606568,
          0.012994761923572266,
          -0.009282001525121089,
          0.026525506367869846,
          0.05157742941894599,
          -0.013767044514186165,
          -0.018703182343754773,
          -0.01536983227777448,
          -0.014725295162777366,
          0.007905983424266138,
          -0.023128573921566895,
          0.02185098672918636,
          0.03843053396170869,
          0.03232107231424651,
          -0.028333788474442567,
          -0.04755239910016549,
          0.029927672489306136,
          -0.002801631270469622,
          0.025339437431115094,
          -0.016657493227958044,
          0.023186329205139886,
          0.029965582384591124,
          -0.0004672887613148865,
          -0.0460399264712784,
          0.030662774115886228,
          -0.05096561409689791,
          -0.03200774177724406,
          -0.048485335532310166,
          -0.01379545528708606,
          -0.007941643815084568,
          -0.043063560941284426,
          0.011125370004051227,
          0.04713010054881305,
          -0.023369098014660385,
          0.019843271884726548,
          0.009031037759546813,
          -0.009404571760810814,
          0.00160156441085321,
          -0.01866558311116444,
          0.019781491855442007,
          0.03621751101349951,
          -0.04210678156739378,
          0.03629791860714825,
          0.02928574162485093,
          0.0272093935008846,
          0.009862926320616179,
          -0.010239510937862628,
          0.02711705110911351,
          -0.004289173807135371,
          -0.04088820337437552,
          -0.02790397204250653,
          -0.023392451965165727,
          0.05030564177249155,
          -0.0229181151782224,
          -0.032968327087876656,
          0.021422371516158233,
          -0.011298972687487929,
          -0.01858778886194482,
          -0.02882915082523104,
          0.039166129752908924,
          -0.004098522610168145,
          0.0007037447157394233,
          0.00527906085253367,
          0.01830771216416372,
          -0.031828777415963565,
          -0.02972608211253117,
          0.005613745501190878,
          -0.05296105099767103,
          -0.00934356736603462,
          -0.04679009379490244,
          -0.03789140260532847,
          -0.024950282304483998,
          0.0021673440076589614,
          0.04743657013806304,
          -0.035506003529754776,
          -0.0016193533632828893,
          -0.019516020195593824,
          0.0048098673558697146,
          -0.016711094774597597,
          -0.01962207249096863,
          0.028666679879532114,
          0.03131477997278063,
          -0.042916660290110854,
          0.015189926166843578,
          0.04667882091458677,
          -0.03429049289191641,
          -0.04492244315305234,
          0.025121645789178547,
          -0.049822948699119365,
          -0.04581266114200943,
          0.0365521079770833,
          0.03518175809709727,
          0.002709807855702064,
          -0.04115721824223053,
          0.03583012330871375,
          0.006363677555871228,
          0.022791621008420717,
          0.025057306433316422,
          0.024750797617517084,
          -0.01818263005193753,
          -0.048644580808329084,
          0.017792124416783368,
          0.0008633410844483245,
          -0.0168402697932544,
          -0.048150586554848995,
          0.015261134815706498,
          0.02405117700980718,
          -0.01912784560283047,
          0.025848908100244688,
          -0.02090429642487958,
          0.019772022851231474,
          0.027280090852917355,
          0.04422048347979307,
          0.02161659428160612,
          -0.004694216276561305,
          0.01726994340898019,
          -0.04825574988549296,
          0.047191032692433,
          -0.014803939643127208,
          0.03926236218307275,
          -0.004775624856604917,
          -0.01991452324609052,
          0.038898787333210644,
          0.04077912111724592,
          -0.04102699146556351,
          0.009959376319961683,
          -0.01942790680717999,
          -0.012861368665937765,
          -0.005436220913763244,
          -0.05066865652594096,
          0.039742273272483274,
          0.042505988118624626,
          -0.04543173961695261,
          -0.03740908541620612,
          0.017712556832736794,
          0.051777834014874964,
          -0.003408662478050717,
          0.021930344273223962,
          -0.013352091805566384,
          0.046415131448980095,
          0.035797732427816586,
          -0.02656761013709525,
          -0.0005396484578924038,
          -0.001393439953020127,
          -0.02667106697305175,
          -0.012279296685587584,
          -0.05237980264375554,
          -0.03907632435010137,
          0.016074577127985396,
          -0.028357315826551294,
          0.011847539803290875,
          -0.013015270699164166,
          0.0153394058992718,
          -0.01423782233271625,
          0.014400125217403898,
          -0.04624833008400055,
          -0.04933504584607255,
          0.005449218919490177,
          -0.005773018263902342,
          0.03945537619825758,
          -0.016595766787093257,
          0.027679090539037086,
          0.008997458406620844,
          -0.0522336385577121,
          -0.03314125227536911,
          -0.020270435499285953,
          0.011237337567251947,
          0.04229915598827296,
          0.019340775014421135,
          -0.05034264375071808,
          0.021484058900118102,
          0.03575044667599729,
          0.02188628111620845,
          0.04018949513870074,
          0.034425563618021314,
          -0.02942753358557532,
          -0.017376470322636856,
          -0.02359781236092056,
          0.02829956634835696,
          0.011148030290208789,
          -0.042323447470389144,
          -0.027785073075185487,
          -0.015458352547639765,
          0.035064613330321584,
          0.028194962205603552,
          -0.036071068037477366,
          0.016778939088427047,
          0.025908341136849384,
          0.040393358752071624,
          0.05087137987635138,
          0.0281295368989574,
          -0.02183961482376179,
          0.02049056827601941,
          0.042640802965861646,
          -0.016498474919017247,
          0.044347101131805775,
          0.03915818365972753,
          0.04575276312988306,
          0.05168906236826419,
          0.024228432422029704,
          0.012390057343741118,
          0.02458126244252267,
          0.010217424059850908,
          -0.05006694370222935,
          0.018377726149259692,
          0.01670365525075066,
          0.05199056854681463,
          -0.048616528645929476,
          0.05039631849027202,
          0.03807141331221567,
          0.02339757325093433,
          0.004971487833718855,
          0.050774230945272655,
          0.04347423447098116,
          -0.012592030591639118,
          0.043940618816314905,
          0.006088793095053587,
          0.02686198693683594,
          0.019239206006871918,
          -0.012902053727252914,
          0.010822142764470105,
          -0.03495227001632847,
          -0.03435254332700674,
          0.04124406552518205,
          -0.044415796845826666,
          0.021511471657983137,
          -0.02019118460104212,
          0.00011158024785032372,
          -0.04093314865785092,
          -0.017915532641721504,
          0.0508794118853566,
          0.019218875228289977,
          0.012432558991904834,
          -0.012445942286829112,
          0.025026080207940664,
          0.003299496273941555,
          0.05296794465547707,
          0.016970134255809927,
          -0.026087694104087508,
          0.05289937768055353,
          -0.04493536849428943
        ],
        [
          0.051410918270474656,
          0.03312104418852018,
          -0.038283426570939715,
          -0.01090180900375353,
          -0.0193649245550538,
          -0.02632161376768053,
          -0.011436476245537413,
          -0.044603015961533224,
          0.03179268506381443,
          -0.00806949043665876,
          -0.03945440229378834,
          -0.045243026953789664,
          -0.026422576955804057,
          -0.004947456654862626,
          -0.001048106379136282,
          0.0032082445260852165,
          0.041800375813297756,
          0.005506497251789672,
          -0.025750086199641708,
          -0.016506080107123067,
          -0.04130498762244336,
          -0.04237589101454614,
          -0.027939173829701472,
          -0.014058822549990264,
          -0.03112431981366474,
          -0.04021397077220416,
          0.03752028793866295,
          0.0137775601304427,
          -0.029893193717909328,
          -0.008225716326078185,
          0.0037198625362782267,
          -0.018313362758399055,
          -0.04005785210119539,
          -0.031562595501320734,
          -0.003050250515752548,
          0.00941904814987419,
          -0.008567687505592975,
          0.04240835251413652,
          0.016598729191900904,
          0.017943091894214155,
          -0.03957281736963509,
          -0.04113791164113438,
          0.023290471505774873,
          0.03514243298703651,
          0.028185829443860073,
          0.046578133193837155,
          0.019116698569021512,
          -0.030781984240844835,
          -0.028656928032146547,
          -0.03697968611616888,
          -0.026924066946979665,
          0.03912804531124182,
          -0.05202031925341392,
          -0.03257380942568301,
          -0.04583313982166578,
          -0.018608960884081125,
          -0.008702144065622475,
          -0.017061703174200943,
          0.007395056728800453,
          0.011147169220929357,
          0.012077862512423331,
          0.010815271416755992,
          0.0484280258432572,
          0.02202153005562885,
          -0.007122451791034393,
          -0.00314851564063742,
          0.03880164698247846,
          -0.026919498969596552,
          -0.016936947696993613,
          -0.04199060363716851,
          0.00684823170276318,
          0.04406573947148121,
          -0.0457292249352655,
          -0.003996072967767134,
          -0.006441813099753128,
          -0.012317060816127271,
          0.025991531519062392,
          0.03067320000747079,
          0.029157579476556356,
          -0.011956376249097503,
          0.0039102031959318195,
          0.022953713820088054,
          -0.01465179282238405,
          0.01591509202072267,
          -0.05245613048786716,
          -0.03558900817361238,
          -0.03933759860961318,
          -0.0452972544257657,
          -0.02465708864332386,
          0.03383941851606555,
          -0.03433945277468089,
          0.03975043760314663,
          0.03586084863262219,
          -0.009638876604927816,
          -0.03503606810977192,
          -0.04257117124897279,
          0.031406944263315424,
          0.047835059036052584,
          -0.0234450609026847,
          0.008324126545310187,
          -0.018126383294520786,
          0.026420441037544765,
          -0.02360929361668006,
          0.013340450947719427,
          -0.04787858256687228,
          0.016055954163404718,
          0.028130001495183885,
          -0.028963073754793418,
          -0.04554707836685561,
          -0.020571940800247,
          -0.0508021989146945,
          -0.020230119837931583,
          0.0484294212210967,
          0.016826311243043676,
          0.044290708988772375,
          -0.000025958872981312328,
          -0.04470753323720376,
          -0.008932495497514925,
          0.0066978363496055775,
          -0.03360680405804862,
          0.052650774636201936,
          0.0343300710426783,
          -0.009623717685619865,
          0.012740299308707981,
          -0.03452631852363103,
          -0.008084064096576195,
          -0.01119929003965307,
          -0.04456594839799406,
          -0.000729144662180498,
          0.05149995519155943,
          -0.01652408349507918,
          0.01703929277464862,
          0.0007242839908379267,
          0.025249181593659346,
          -0.008848759856386614,
          0.03303111104337144,
          -0.034592987487295765,
          -0.0075199328300185695,
          -0.03259192425242598,
          0.05138238414151811,
          0.006884162790157424,
          -0.0340919241240749,
          -0.03544857451022969,
          0.03459820247677991,
          0.00026292943565754353,
          0.050800038808137576,
          0.04556374456441682,
          -0.03251876944969774,
          -0.03801111335967007,
          -0.02300046907724461,
          0.003986446224753635,
          -0.02498277490692424,
          -0.02245807468544984,
          -0.024819241755478894,
          -0.038012864520046465,
          -0.017693205129455047,
          0.02603484128670142,
          -0.045041906396168514,
          -0.013555068496985316,
          -0.026186903974991,
          0.046047241046824644,
          0.0497043214731718,
          -0.011607280723033027,
          0.049185705990287924,
          0.018526165950486447,
          0.037440274531492464,
          -0.0017082389751753714,
          0.024983011552218437,
          -0.024605596109372838,
          0.011133178464642523,
          -0.007177075953214428,
          0.001972007410380695,
          0.014803303222164851,
          0.029262535175247673,
          -0.02663290678845425,
          0.03824129314874857,
          0.042315260584761386,
          0.0016718793508397449,
          0.019512167701363516,
          0.011782434287477562,
          -0.012508097317497425,
          0.027007536267652198,
          0.040444943123316875,
          0.034958524503033106,
          -0.02602179717496145,
          0.0475966393496169,
          -0.009457785127202498,
          0.04503408397779368,
          -0.049753997332809316,
          0.0070198066425253836,
          0.03550456335936291,
          -0.020926034310047515,
          -0.02964580727608133,
          -0.016374814252841378,
          0.013055360800283652,
          -0.021179941435019434,
          -0.020451252582548374,
          -0.03247473647646416,
          -0.018517328618511585,
          -0.0489540840948321,
          -0.01508248877540303,
          0.02070202086312941,
          0.042709106344028705,
          -0.017657994456189097,
          -0.0022237323903012657,
          -0.031042446806312105,
          -0.04339116455825696,
          -0.039294532329415655,
          0.04812804450642129,
          -0.045079752828385854,
          -0.02692479465377746,
          -0.0032754191179018067,
          0.0042799559687399765,
          0.014996690424818113,
          -0.004340430128050058,
          -0.028595279052422727,
          -0.0018039518354302589,
          0.019360248064687675,
          0.028344745530836428,
          -0.031166636249825432,
          0.0476174881650639,
          -0.04640754670075945,
          -0.012379492615196082,
          0.0034513237703944076,
          -0.05122405079522015,
          -0.04187435129427147,
          -0.03617959266034669,
          -0.037106586804109686,
          0.006079789381991972,
          -0.04253398405167248,
          -0.04125463290567802,
          -0.04133396036541896,
          -0.046357043258449276,
          -0.01306508958862249,
          0.03721540001551593,
          0.031328276597624924,
          0.02929754437738485,
          0.05041961048902477,
          -0.025074715935910957,
          0.03946446552540355,
          0.04647492690618254,
          -0.025025905942834967,
          -0.03365513018559734,
          -0.0004334986712105171,
          -0.0316444728508848,
          -0.010231937313965466,
          -0.03422188348720842,
          0.010772819390826343,
          -0.012944637767887516,
          0.012245488017044738,
          0.00945257840944224,
          0.04692797779926189,
          -0.033208759892144925,
          0.00100907515184507,
          -0.012503465328249416,
          -0.010660374819458406,
          -0.025221963428237702,
          0.0018794719741412073,
          0.0508870307024122,
          0.0503415158804035,
          0.017833929064693183,
          0.046349886334682094,
          -0.037071534907804495,
          0.04126798509835548,
          -0.04827843361876716,
          -0.037262705270730744,
          0.0241129177352251,
          -0.04822236972165565,
          0.04810236851014191,
          0.027849323236185965,
          0.040481027595408316,
          0.027073307100794662,
          -0.007551921439915285,
          0.043855068903248744,
          0.0074640268422936735,
          0.004273832708130724,
          -0.008961882972225913,
          0.034276599157420616,
          0.016565167545883695,
          -0.0011018506992107606,
          -0.033888654967947816,
          0.031241954706573306,
          -0.05194723672052958,
          0.0484531019970278,
          0.03876896734481728,
          0.0009886589662348158,
          -0.029608233258625473,
          -0.010841354201974528,
          0.028901923646692893,
          -0.03229201958102149,
          -0.03420347809205999,
          -0.03331930651722465,
          -0.011020425086486069,
          0.009000353399291498,
          0.026436158465304994,
          0.0051448818494583964,
          0.020286650655317488,
          0.048148504450980865,
          -0.053111783305769496,
          0.006003224987809872,
          -0.007395990053158845,
          -0.00014341176069139654,
          0.014581278558099485,
          0.05062269550897986,
          -0.0014855089709995195,
          0.04552845297285132,
          0.014151915262951169,
          -0.03645041799352093,
          0.007998426244284634,
          0.02045105754702923,
          -0.029095250637886427,
          -0.04720930890850069,
          0.04417431241007811,
          0.05288827136020621,
          0.05090283524086443,
          -0.04186539835900345,
          -0.030433697915770264,
          -0.02733133849249028,
          -0.007478355026186251,
          -0.015440770738097334,
          0.040253126951071166,
          0.03725383748315286,
          -0.013007867542054305,
          -0.005015015713340995,
          0.027921497857368038,
          0.021630438320385782,
          0.026590780036016885,
          -0.03856016179948571,
          -0.04225844399850213,
          0.050843322689661796,
          0.014777417228047273,
          0.024835713247871417,
          -0.023962712786808733,
          0.0008582752750165465,
          -0.04352973649928014,
          -0.037426547430861455,
          -0.03513743121007667,
          0.021108311506375137,
          -0.04515361300877455,
          0.04041511803369462,
          -0.007045297500528284,
          -0.012917698600847344,
          -0.031866530174193254,
          -0.0322065242891217,
          -0.03751276393450305,
          0.004301099281452291,
          0.05254287730822917,
          -0.04018221449889619,
          0.0011814955618737848,
          0.03630780758218543,
          0.046489518964894935,
          0.05223611792546725,
          -0.03186759896150891,
          0.015246818128115017,
          0.052529446413898784,
          -0.04537551901812364,
          -0.03679850371716632,
          0.02450788716138606,
          -0.0054856709031191045,
          -0.043669495765506244,
          0.006131095836865519,
          0.013788346835421905,
          -0.028730220602447253,
          0.026232387535464932,
          -0.03650892087374878,
          -0.006331245244915669,
          -0.006279495996319773,
          0.04362959064419347,
          0.0015343862895553476,
          0.04241069662510779,
          -0.0033280064965753634,
          0.004195554775957573,
          -0.044423954656895,
          0.0078779560964371,
          0.04716737258410749,
          0.006637326296909333,
          0.03293051810774714,
          -0.009622702498964492,
          0.05270778620602812,
          0.008621498889352023,
          -0.017235674823505902,
          0.014464477528002279,
          0.049414656669064805,
          0.05235185873924741,
          -0.03855164794391009,
          -0.04344464586100922,
          0.01371559950007876,
          0.028330555813222476,
          0.0048111163278118695,
          -0.010507594106955504,
          0.03753401584636223,
          0.013370933906814847,
          -0.03264613736333467,
          0.021977984354675184,
          -0.0022473915388609186,
          0.011203337127608928,
          0.010220076540788707,
          0.013313399584945956,
          -0.03866986837583048,
          0.001304301524737169,
          -0.04237053650570196,
          0.0024988667953925667,
          0.04292360598140134,
          0.008691950027924212,
          0.029725921163230588,
          -0.03086051883692389,
          0.0012231903427257103,
          -0.045947668275844,
          0.014450483977726358,
          0.026026520781899376,
          0.03890077964774256,
          0.0078106290068684,
          0.03257190885777055,
          -0.02491132459682961,
          0.031039401456965928,
          0.03977783777126668,
          0.015144206534560497,
          0.02600148293734848,
          -0.04769787608091562,
          -0.029367432317444916,
          -0.020985488255143125,
          0.002270353720343705,
          -0.01984624936306473,
          -0.003120888431004403,
          -0.03000427397760272,
          -0.0377113191047331,
          -0.01483146871813236,
          0.025180956026308446,
          -0.050056996532199874,
          0.025857126040603945,
          0.04684154354846567,
          0.03440673182733373,
          0.003095832879080107,
          -0.03535441113396785,
          0.014211944978913538,
          0.040687358229057925,
          -0.007486363748839807,
          0.016712222042677752,
          0.03855881845317343,
          0.031523048715047276,
          0.009196774500084097,
          0.006379645569784637,
          0.029065933284549494,
          -0.014752581814545954,
          0.050887680662637554,
          0.025697657511020024,
          -0.014192296770159544,
          0.006311196672564065,
          0.03721939512534365,
          -0.017247915361544332,
          0.036414451746104276,
          -0.0024213354589124754,
          0.008029511162083336,
          0.013111179152736145,
          0.012923360010061294,
          0.04557512241245259,
          -0.021724040614148687,
          -0.034451842331643966,
          -0.028328956984463027,
          -0.03522881093135296,
          -0.02104159435831745,
          -0.01016266954045627,
          0.035477631794399174,
          0.02002762212983259,
          0.05280443196874708,
          -0.026454910440644762,
          0.020249995664762148,
          -0.004649379023918979,
          0.0525443375472364,
          -0.002469765245003905,
          0.004984591467849904,
          -0.026521592635562627,
          -0.005442479946700761,
          -0.0491112180033987,
          -0.022490826853642888,
          -0.051886412949847464,
          0.03727897579644955,
          -0.0009934711047253394,
          0.05132851241071407,
          0.047086576730945816,
          0.005303218872348554,
          -0.04585576870197898,
          -0.052815523039811935,
          0.03617365797392321,
          0.018667237737865924,
          0.012951499036824804,
          -0.0213359678108523,
          -0.010955624346136169,
          0.05129451217322419,
          0.03564305234768083,
          -0.035805008701112556,
          -0.010872364535703696,
          -0.005747497565031807,
          0.04120204191063902,
          0.03601141176975519,
          0.026279856090656528,
          0.025531487416335652,
          0.008541942996894605,
          0.03170797725574972,
          0.01627403132563845,
          0.03716764472808697,
          0.020580991385182202,
          -0.002217590927750004,
          -0.004565900506982618,
          0.05009312317046525,
          0.00015368821482039517,
          -0.013543717828433954,
          0.03170406550439854,
          -0.052983710590271,
          -0.03502189489857621,
          -0.028394837771533073,
          -0.014343923134585409
        ],
        [
          0.04264709823214721,
          0.008645861854591454,
          0.05001979391662369,
          -0.008077746696942967,
          0.022150542756267558,
          0.05104759184040661,
          -0.028248858916180977,
          -0.026058193791837148,
          -0.03648929179141175,
          -0.025465928111795898,
          -0.03622335751849271,
          -0.024656228059769702,
          -0.022196414111334484,
          -0.02523495034632583,
          -0.03040557051825498,
          -0.01966410215991319,
          0.04226924608377824,
          0.02643246978351636,
          0.050837526215045725,
          -0.0016977018624602692,
          -0.014463140170068459,
          -0.003082972440073752,
