{
  "id": "lora_legal_bert_classification_1754066738032_icghp",
  "name": "legal-bert_classification",
  "description": "LoRA adapter for classification task",
  "base_model": "legal-bert",
  "config": {
    "rank": 16,
    "alpha": 32,
    "dropout": 0.1,
    "gate_threshold": 0.5,
    "num_gates": 8,
    "target_modules": [
      "q_proj",
      "v_proj"
    ],
    "gate_type": "hybrid",
    "scaling_factor": 1,
    "enable_bias": true,
    "gate_init_strategy": "xavier"
  },
  "layers": [
    {
      "id": "layer_0_q_proj",
      "name": "LoRA_q_proj",
      "rank": 16,
      "alpha": 32,
      "target_module": "q_proj",
      "weight_a": [
        [
          0.04880943314252485,
          0.030275951395981635,
          -0.018272765023164377,
          0.04412732217532164,
          -0.02388982604993682,
          0.007398329806215768,
          -0.02346338456302142,
          0.0074571163149434825,
          0.032580671988749706,
          -0.0010200115019310368,
          -0.014973533418153552,
          -0.02531781653155532,
          0.004116188458818342,
          -0.028533836724874053,
          0.027993114057288368,
          0.03398617574698464,
          0.0010702922365408865,
          0.0012771395039473464,
          -0.004171746191939969,
          0.0005404539651909548,
          -0.02102552722653937,
          0.03799278958137937,
          0.04498846332236348,
          0.04143278767961144,
          -0.01837316963421544,
          0.041443036441877294,
          0.040024075867928055,
          -0.012377676930639547,
          0.03991712806656231,
          0.0229543196876612,
          -0.01108168092621911,
          0.023667991866614047,
          0.009050871885163536,
          -0.020691584458663762,
          -0.027892997982534584,
          -0.014274464080825945,
          0.01148034898870301,
          -0.022163038515584318,
          -0.04902107385098008,
          0.03379505629452338,
          -0.04404254544630404,
          0.007867170803387873,
          -0.0004800737878812885,
          0.02578653825314164,
          0.04043297093691675,
          0.00868029475378106,
          0.03699337033793532,
          -0.028674479506634154,
          0.04332788491429805,
          0.019430058851510803,
          0.03344414466710932,
          0.01871878469771415,
          -0.030163461812362114,
          -0.04514551825861097,
          -0.019328816824086142,
          -0.05120577163195912,
          0.014430694764063496,
          -0.015368832844354799,
          0.025346773139342107,
          0.035590225010735124,
          0.038633979780327364,
          -0.004272378514097913,
          0.04698900510613993,
          -0.040165920828711434,
          0.008320877628332422,
          0.0008529959291872215,
          0.03789064084565567,
          0.049975432255452895,
          0.0481596111294236,
          0.014529379631420706,
          -0.05227018616413989,
          0.0441564081004916,
          -0.036750811257286485,
          -0.016313443374124728,
          -0.007308227879701448,
          -0.05021183682971803,
          0.009107697220443262,
          -0.03784576328219295,
          0.03416219365849225,
          -0.005007724904185383,
          0.04859263435885938,
          0.026211039545235317,
          0.04973131772178376,
          -0.005643446577884164,
          -0.03490182240975182,
          -0.01661767408377632,
          -0.033099245346696705,
          -0.014713402313410498,
          0.007577645706468037,
          -0.010853441847802637,
          -0.015074194887625937,
          -0.03852932097370801,
          0.022076833617981392,
          -0.024134706574672208,
          0.028720325065659177,
          0.013902385170285013,
          -0.032044831366697786,
          0.041997363061307684,
          -0.03167662989959263,
          -0.03157566685827646,
          -0.044486207771019706,
          0.03135069899569876,
          0.028016949608980563,
          -0.038345235741308485,
          -0.01892879916860666,
          0.017079052816798997,
          0.03147982593740912,
          0.014725677507670917,
          0.04737229949801734,
          -0.008040090551577048,
          0.052780602142368946,
          0.01653369152610247,
          -0.028137196608714277,
          0.0410072513427979,
          0.03743082653640211,
          0.032360851577376934,
          0.017781625089809367,
          0.03285844527486702,
          0.010203232607610888,
          -0.02437210960187402,
          -0.00870927489882537,
          0.01542536368651937,
          0.024739154315782816,
          -0.00027868890461340504,
          0.0008077336588820307,
          -0.040188460862517705,
          -0.04418608278721219,
          -0.0290183802103541,
          -0.02649628205423226,
          0.014405570342713387,
          0.050789496980453236,
          0.03875377343745182,
          -0.03492619113480306,
          0.03802370845967415,
          0.0522194106157839,
          -0.040843998538294776,
          0.005986640635774333,
          0.0330843598872015,
          0.013771860485979752,
          -0.045188089819912985,
          0.011414423441647472,
          -0.005673338463322195,
          -0.03980728031661909,
          0.015735959257610923,
          -0.0007121808026919318,
          0.01448519239196248,
          -0.04666588283460367,
          -0.013221936591512252,
          -0.002626361025311206,
          -0.025243476562691144,
          0.03867995885367178,
          -0.02817962468277223,
          -0.018246684990703196,
          0.03247478528547867,
          -0.035490470451184225,
          -0.0201310674424085,
          -0.01917952936875268,
          0.018344679585361588,
          -0.007460612761243763,
          0.015139628017546411,
          0.0021327461173258184,
          -0.016946773923166413,
          -0.017465795966486796,
          0.04780571461405466,
          -0.0031707386130917546,
          0.041272258031579065,
          -0.05227304194346756,
          0.019838178726399862,
          -0.0375361793686421,
          0.02155150047428947,
          -0.04131546495957842,
          0.008046425094113217,
          0.0002849721161163108,
          0.04501091182607854,
          -0.010062239677208434,
          0.047580120525066806,
          0.04634045387583919,
          0.028216966543998908,
          -0.01235463871757922,
          -0.04806860463615696,
          -0.046585103845347677,
          -0.047469149466940974,
          -0.017067385435277138,
          -0.026784371183647432,
          0.025075463677163217,
          -0.041645471924189034,
          -0.036369848728823054,
          0.03280806318834355,
          0.023819798120460787,
          0.02460891689509557,
          -0.02458854538736838,
          -0.036022072119444346,
          0.01942782574383269,
          -0.003748330382484261,
          -0.04833951930235838,
          0.04202224659328566,
          0.005106119853133239,
          0.011346154741337407,
          -0.02904511749868613,
          -0.019855000608144505,
          0.017909325424563034,
          0.035355182263662924,
          0.017321631018814867,
          -0.010393479219881253,
          0.021503646425883316,
          -0.0006251875509631834,
          -0.009315079744188645,
          -0.051403634953994116,
          -0.029934861548469867,
          -0.04570673523463812,
          -0.023495142978284755,
          -0.04881787031109005,
          -0.01237013104517524,
          0.0012874595644646253,
          -0.004468496069965794,
          -0.015555183292610058,
          -0.012452895108180585,
          -0.02538435308481043,
          0.013807056207341085,
          -0.014962912194840503,
          -0.02508330307821909,
          -0.024121661605199858,
          0.05286037622472363,
          -0.0189536654397303,
          -0.02670416642763596,
          -0.003948767686136828,
          0.03945337422780868,
          0.026438506613049785,
          -0.0062779086819914134,
          -0.04187208628108224,
          -0.007362744702183895,
          0.0014423294818658894,
          0.04922806995222321,
          0.015937413440120136,
          -0.04406228728865201,
          -0.04417482242361054,
          -0.05127998912388344,
          0.0399373898508813,
          0.033681455047421045,
          -0.011805166707681341,
          0.018884497572625274,
          -0.015087450207512636,
          0.04639955282317186,
          -0.025785873848936353,
          0.007618593318003359,
          0.033163310128842646,
          0.011621084715148458,
          0.013946892148613676,
          -0.03584661738374951,
          0.051567660602283155,
          -0.03295749521837978,
          0.006268915821840946,
          0.011574019868921719,
          0.015490480126912077,
          -0.041543701370414896,
          0.042650197297349465,
          0.051502756484449665,
          0.01671319489587906,
          -0.005408100351538029,
          0.008246267842367332,
          -0.03273976143386308,
          0.03079263172437924,
          -0.02038673398091184,
          0.03852158790068736,
          0.02440785940426322,
          -0.02726478457272414,
          0.034705983251524346,
          -0.002120471692184302,
          0.044095905979501665,
          0.028722804666019168,
          0.0195566792186416,
          0.004972821815574055,
          0.05108918096345216,
          -0.009552531066325708,
          -0.041618049025611545,
          -0.03813437413535113,
          0.006299356611969129,
          0.006338184216701636,
          -0.011983380709050188,
          0.028017522357058643,
          0.018657777689727928,
          0.04537747349212857,
          -0.04253815654769419,
          -0.026402012477999056,
          -0.03709885517380922,
          0.043492266153951506,
          -0.02082190086448484,
          -0.03926176533228621,
          -0.05064679500371344,
          0.0012695635374984334,
          -0.021487465960344475,
          -0.02796637191237359,
          -0.024656405700099127,
          -0.041434652884932775,
          -0.017784270839379935,
          0.04885389817190728,
          0.022815386435030213,
          -0.026573232869999835,
          0.023726306328248965,
          0.051273851829244085,
          -0.021556008071558153,
          -0.022002711981497395,
          0.03430447535274335,
          -0.041278828769852255,
          -0.039563187969477186,
          -0.0001489188048214763,
          -0.036411849021051074,
          -0.02889517552330371,
          -0.03594141099032153,
          0.04707673350526139,
          0.0371755528938395,
          0.03238699932130021,
          0.020737754327271915,
          0.03227679909144311,
          -0.008744915322275327,
          0.0128314785099499,
          -0.03022916764201843,
          0.018597860256085973,
          0.04655537976115338,
          0.046279382867568684,
          0.0415487339347807,
          -0.017263223757918344,
          -0.021973725484063816,
          0.02153192359893035,
          0.003190452894175663,
          0.038886078770448466,
          0.04154564386070076,
          -0.016168856836999035,
          0.007810123427937629,
          -0.04331636017129112,
          0.030996538934060326,
          -0.02022171291866137,
          -0.01461657372065153,
          -0.03756964293815567,
          -0.019982494723470898,
          0.046048075506011706,
          0.035982757487680206,
          -0.05036102514690845,
          0.037353283870919594,
          -0.028129222608864954,
          -0.009550517456887746,
          0.026730079554038423,
          0.04791603571237949,
          -0.04593194263380594,
          -0.0009129170588177543,
          0.029752213026772955,
          0.013216179289381237,
          0.04550117324373134,
          0.02871288458117559,
          0.01649456874328186,
          -0.024902644480789965,
          0.03469098619782181,
          -0.03566724750373623,
          0.04090977818784138,
          0.004373833982639427,
          0.0211591057469651,
          0.011773448988372065,
          0.03289254288096488,
          0.011429680726463007,
          -0.012705094415589636,
          -0.02419030381583512,
          -0.03331700824683335,
          0.04995926784342638,
          -0.035278120714336725,
          -0.01609180822402164,
          -0.0358158822105291,
          0.02871859027641081,
          -0.04695369999746213,
          -0.05153465523075713,
          -0.040492859800256104,
          -0.02895265652084401,
          -0.01497178565651051,
          0.008916559427965745,
          0.04460396046197204,
          -0.030549193062996603,
          0.036532285025295194,
          0.029893013352757708,
          -0.008953037968338884,
          -0.04359570364039257,
          -0.011357972300152737,
          -0.03205362620516749,
          -0.015162775863465308,
          -0.007375465110613042,
          0.004833288915074025,
          -0.004362234026543794,
          0.048216824435325135,
          0.029105446807608907,
          -0.0006033986284757244,
          0.020692924232931363,
          0.004708645226701736,
          -0.0005169988342027141,
          -0.023789400249981017,
          0.01684680235080427,
          -0.03677843824865804,
          0.01624378891650791,
          -0.004627414453036892,
          0.012838532282677324,
          -0.028881852889488982,
          -0.026280536741620994,
          -0.017287853676462437,
          -0.024758828720064033,
          0.024230554464797983,
          -0.04119907023998126,
          0.012540877588497966,
          -0.013150314584999134,
          0.014613399529000029,
          -0.04865256265185992,
          0.028656140831970007,
          0.028681221082595396,
          -0.022712753852119422,
          0.04159901271947827,
          0.05065130294413674,
          0.019945424558294105,
          -0.04974791266022198,
          0.027164224895264856,
          -0.03025357627676033,
          0.04809767614902282,
          0.04558053892616485,
          0.032554414217336264,
          0.03674130323605147,
          -0.039190376962577225,
          0.051136455560013706,
          0.009748121085277376,
          0.052880207875433724,
          -0.017512653024160413,
          0.035793285981839104,
          -0.03239379442281973,
          -0.013225434654174256,
          0.0004322138601293973,
          -0.02675099074321872,
          0.02668758371354855,
          -0.04739057905785436,
          0.022084022110587485,
          -0.010955317368342241,
          0.02593089977499717,
          0.04664628744812299,
          -0.03308910167769093,
          0.04904570228711426,
          0.018865782723148487,
          0.035807253558697294,
          -0.05162030404129234,
          -0.04120236267676445,
          0.03674311755788831,
          -0.024917114156502107,
          0.021570498073718917,
          0.04298544933825056,
          0.05034982862696166,
          0.00018202107553756694,
          0.029696909917602394,
          -0.04143240404136068,
          0.02384251974378186,
          0.04671727504127052,
          -0.036817239492684,
          -0.04231548555031143,
          0.016170000667690317,
          -0.03135460730907323,
          -0.021136209861458404,
          0.046968268417937914,
          -0.04522000923989219,
          -0.04561008308472518,
          -0.026486550222342288,
          0.02337849017029182,
          -0.04531955875619692,
          0.014727142401056237,
          0.02651654455543283,
          -0.01218322148317614,
          0.018040808813522633,
          0.019201254688004724,
          0.009929108393350917,
          -0.044218352506999375,
          -0.02876059668245572,
          -0.026380641522638994,
          0.004708958779319444,
          0.027281741631294154,
          0.04318782807883396,
          0.04481969576797734,
          0.03714104912324067,
          -0.012254501567746027,
          0.004451642669192861,
          0.017342998064518937,
          -0.02456804623109687,
          0.020401310763260915,
          -0.050180439113329575,
          0.0460390242964149,
          0.019410092286229447,
          0.014797439867504435,
          0.03677075792026462,
          -0.0050652209764827025,
          0.0523420187924289,
          0.052029511142432025,
          -0.010134809113059275,
          0.013995877261284342,
          -0.04732978722856873,
          0.04715540068750912,
          0.012033293917437524,
          0.048616299562840644,
          0.03907868762547761,
          0.004000306939018838,
          0.04965956844939437,
          -0.017192164485714194,
          -0.0051154701035020225,
          0.017444422382597673,
          0.011329371662243189,
          0.0217162380666944,
          0.0028898706814933935,
          0.026838913382283905,
          -0.036336810217460574,
          -0.005220807373396096,
          -0.007435824600161897,
          -0.022655606516173463,
          0.02802429190196531,
          0.018771932778216715
        ],
        [
          -0.03178794377443492,
          0.03126374517244746,
          0.005791208420709351,
          0.03784409001739846,
          0.0344310279032499,
          0.0468032510429872,
          -0.031007030447776262,
          -0.0393065935076712,
          0.018509982335121095,
          0.03997437592647523,
          -0.012494312629718056,
          0.007277935803621351,
          -0.04295026190595534,
          -0.027951799209873045,
          0.032212615002915605,
          0.002770753539233288,
          -0.03299975364289937,
          0.041844232821496664,
          0.036458543413242346,
          0.011363878340404287,
          -0.022900603207113297,
          -0.03186093059104614,
          -0.019089203268197855,
          -0.029502124274964903,
          0.0007574064433946606,
          -0.016143447970391783,
          0.03826862303017715,
          0.03707995693223106,
          -0.04699155423008988,
          -0.018000106218341427,
          -0.008937398329930396,
          -0.01650765831099327,
          0.03173186906918473,
          -0.05274105596667323,
          0.0495736969715187,
          -0.006233540049818531,
          0.02885102486586867,
          0.041609254035984436,
          -0.04232179578340614,
          0.041425280875998324,
          0.009969097917109045,
          -0.04642352609967199,
          -0.03912467244311268,
          -0.022343006709110436,
          0.0005086775214217291,
          0.018762316115191854,
          0.017243474311472207,
          0.00906306227416598,
          0.018393755248109572,
          -0.03331261143727851,
          0.033085871631763165,
          0.047819364035532635,
          0.016416035456822232,
          -0.021962185230895753,
          -0.027942699103730585,
          0.052148919832634706,
          0.030806490525128682,
          0.036230666427190306,
          0.02982655568023593,
          -0.01138606464946153,
          0.04371459772044418,
          -0.030088899829565276,
          0.0032262868622071933,
          -0.04706822401733442,
          0.031021979256660275,
          -0.02798338736926601,
          0.03513912440791713,
          -0.01325875435577298,
          -0.005083116697979525,
          -0.04075237792865935,
          -0.016780051166892265,
          0.01974460638750535,
          0.045530482088072324,
          -0.013753802928986057,
          -0.040830687837339924,
          0.02098086794453257,
          -0.04956716668402875,
          0.006674800188947282,
          0.027563209638571253,
          -0.04332995221990906,
          0.038722518857893254,
          -0.03867979612196011,
          -0.03658815162417975,
          -0.05074165028755807,
          0.0181941794512276,
          -0.049867260356052816,
          0.015675127957446622,
          -0.037420678418873456,
          0.026371131970556294,
          -0.03667454017758367,
          -0.025115833530309148,
          0.03283745210029088,
          -0.017605996413447268,
          -0.015758976519306783,
          0.01573218121008849,
          -0.0022186399732036237,
          0.0016588365435400857,
          0.050043258324006676,
          -0.009248320475820436,
          0.040230527661072116,
          0.008131501836495284,
          0.01217341648064843,
          0.02728766050528588,
          -0.00762287025811776,
          0.04990974245358299,
          0.026318812987343537,
          0.024712347223936556,
          -0.024618281841786542,
          -0.04757663326283072,
          -0.042713981500847306,
          0.02262114265715208,
          0.03749156231122806,
          -0.048090135351355486,
          0.00826939577390289,
          -0.022666922670339838,
          -0.005802351646243866,
          -0.04095983078533992,
          -0.021736851081009485,
          -0.029368551959672497,
          0.028592561849651855,
          0.016469821341135612,
          0.031038021527228912,
          -0.011871086498370343,
          0.05009242860494404,
          0.047292467091315356,
          0.04454194348448929,
          -0.04302236433483553,
          0.04775085590997628,
          -0.027222563260367646,
          0.037665704654863914,
          0.04194942354541789,
          0.021331508035047405,
          0.029865374236604285,
          0.03743565098695203,
          0.04275243879292295,
          -0.045873232218031745,
          0.026241081405338543,
          -0.05001414909699601,
          -0.029457225739157943,
          0.007673585204936216,
          -0.020794078735862268,
          0.035008195119611146,
          0.03948361455635257,
          -0.025315365163487737,
          -0.0043957399903918806,
          0.01907672127218384,
          -0.010845511323092272,
          0.009254692630891093,
          -0.03482483614272522,
          0.002409990387460131,
          -0.0011018532806428667,
          0.028450768447435198,
          -0.007940441529299845,
          0.025058889277904436,
          -0.033518109040523915,
          0.002399262996529785,
          0.040507554766690976,
          -0.04908130127428124,
          -0.010283106741211825,
          0.03567987215487333,
          -0.02219600980367774,
          -0.022889359212942148,
          0.05141472942221173,
          0.01962323733601439,
          0.04106710789427211,
          -0.024537857246914294,
          -0.04330243388946427,
          -0.010859979315849344,
          -0.009455126322312586,
          0.04827704575523013,
          -0.03771188670079243,
          -0.016953000138944865,
          0.006444952816722171,
          -0.03916215613103397,
          0.024101932082104358,
          -0.053253495964271404,
          0.0178097896560001,
          -0.0262096144119411,
          0.05259861053577318,
          0.03844579928771805,
          -0.019767361530449026,
          0.032846507546203794,
          0.03152863829065281,
          0.022901914022390554,
          0.01572076455066025,
          0.0066409142820204395,
          0.02813716239344264,
          -0.010649704868899294,
          0.035893206488667714,
          -0.017243291034065855,
          0.04683008309886153,
          -0.028984279962455086,
          0.009626292690157481,
          0.04169768657954042,
          -0.018889768126471595,
          -0.005614910917049741,
          -0.010078006995871087,
          0.015636199870836965,
          -0.039811599725981014,
          0.04792912612542627,
          0.026619075308851766,
          0.02942329663455579,
          -0.03948655494992612,
          0.025895621996223733,
          -0.02923130546131348,
          0.005485873952995458,
          0.039445302544155014,
          0.03751615282313995,
          -0.04302006302653216,
          0.002825038540256794,
          0.03606858405799788,
          -0.012336035989687646,
          -0.0050143550694267515,
          0.0052975269037315465,
          0.04478035609983159,
          -0.042942896593617066,
          -0.031315680305226794,
          0.0419455449145306,
          0.033014819997377855,
          -0.041397129123331905,
          0.024600601055692128,
          0.023907122601337382,
          0.015092129614024846,
          0.004567161234245047,
          0.03312223555765611,
          -0.039174655257619574,
          -0.03337742456099621,
          0.013377612679748746,
          -0.03455178766222035,
          0.005067928180929112,
          0.025913359109593446,
          -0.02388148373576629,
          0.029907610789833106,
          -0.03766650864518009,
          0.022966827838099852,
          0.0208247936691222,
          0.03238308789617691,
          -0.017651587782855305,
          0.028594469316320068,
          -0.034119951399732056,
          0.029564068455396907,
          -0.03965909527041175,
          0.04183333831547982,
          0.008658291692645592,
          -0.019011495628809973,
          0.028519298489222248,
          -0.025649152845785284,
          0.0365010985276074,
          -0.0407078452669132,
          -0.004296087993168793,
          -0.032766987339044505,
          0.01719979023495324,
          -0.04378062905086009,
          -0.015090775713197635,
          0.04205988765929789,
          -0.05028970318000086,
          0.03164702175217576,
          -0.028259044004767257,
          0.03896736094484174,
          -0.0338885551343686,
          0.024284468724456682,
          -0.027084622707303333,
          0.042012166479425836,
          0.03583824030468703,
          0.0020161194645858037,
          -0.034904111903992584,
          0.008379406373176274,
          -0.007090546967036694,
          0.03568740103078232,
          0.017133012817156342,
          -0.008585953977356005,
          -0.03210329209000162,
          0.05143593435579569,
          0.010403244137967737,
          -0.016766161870759775,
          0.030477347364420013,
          -0.008054352425147597,
          -0.02922145747502707,
          -0.02325226368557983,
          0.03557827266668333,
          -0.0009803919728457913,
          -0.01248248526763573,
          -0.029415472562969634,
          -0.014745402642339834,
          -0.03051077699822203,
          0.008885883526621941,
          0.026459830476999433,
          -0.0058380769722518756,
          0.022467503988562267,
          0.032286855292030014,
          0.006593353672687709,
          -0.03417010014155048,
          -0.014014338882680865,
          0.03087029268302419,
          -0.01264623523558394,
          -0.02293041730039961,
          -0.04025634149594024,
          0.030007155403271344,
          -0.013970274119046973,
          0.04892091442465558,
          -0.004649069478377705,
          -0.0026043654096183917,
          -0.03778665393840735,
          -0.04410440055375529,
          -0.017917100529212023,
          0.018964871791361734,
          0.029734709043219194,
          -0.03719245032367479,
          -0.051594177258381155,
          0.029459937537478786,
          -0.019740368690937777,
          -0.01641201082135787,
          0.013244861966200854,
          0.03266263623657151,
          -0.04040522427998899,
          -0.034431326362115836,
          0.04825624003421834,
          0.013843781579936355,
          0.0037713161747707537,
          -0.011119305412821162,
          -0.03222997656198164,
          0.044474590503727235,
          -0.04399466259709518,
          -0.04377050913304281,
          0.013367814334367133,
          0.031203893563483312,
          0.005524668979134892,
          -0.010332926476156228,
          -0.03489808488289345,
          0.050037751981618396,
          0.0014406950014415807,
          -0.007115501870480883,
          0.006553469321199137,
          -0.035742476688852755,
          -0.03606445613059909,
          -0.04358535510484907,
          -0.013006914171226184,
          0.011693063288612804,
          -0.015721998266457628,
          -0.05215198571032797,
          -0.008207668160288025,
          0.02658112225434947,
          0.027208799543691424,
          0.005069338028080854,
          -0.030243480202432123,
          0.0011091736740809768,
          0.03915318950552539,
          -0.006024273252133653,
          0.051520360804700634,
          0.012361213713370612,
          0.011707855834349929,
          0.007012755275313424,
          0.00552543908199762,
          0.03149124574666397,
          -0.03608809400335995,
          -0.017094307857927333,
          0.0351953502737694,
          0.025159854437488326,
          0.04277528204046611,
          -0.007842879241765233,
          0.00715576243681598,
          0.04570101994492405,
          0.022043284867982585,
          -0.03769923312697196,
          -0.05165126462673833,
          0.05205038243057921,
          0.015289883966264142,
          -0.001493273549540676,
          -0.004654231398161805,
          -0.01091998271885077,
          0.04492474030751009,
          -0.04174695617845117,
          0.037221061310694095,
          0.020755197394761664,
          0.01572481245657344,
          -0.015745087522488956,
          0.009429669957360444,
          -0.02774046627692852,
          -0.031114086552694407,
          -0.02430677604948936,
          -0.05019968475363719,
          0.04628688052629049,
          -0.016328221141775744,
          0.017846096203012512,
          -0.03660734021922699,
          0.04268297083614561,
          -0.015568032068003203,
          -0.047036709379116255,
          0.02459305929274441,
          -0.052528860286844975,
          0.012383745343113834,
          0.04175334886007316,
          -0.0039920254511278735,
          -0.02370393892716521,
          -0.020330339815201708,
          -0.0018260475297587945,
          0.011032358782971761,
          -0.025649892314738194,
          0.04868940189714741,
          -0.001628285160633123,
          -0.04352053864370011,
          0.006682384375706894,
          0.049354224126484596,
          0.027761644843586886,
          0.03788071786746309,
          0.001659754635048327,
          0.024586958949056586,
          -0.026168053009232677,
          -0.024971500309078028,
          -0.014286534377828798,
          0.01078882510033173,
          0.03263212496462391,
          -0.03350943634944245,
          0.012457085994139958,
          -0.03603806142537357,
          -0.007535407141943608,
          -0.02981350053367838,
          -0.030183983700974255,
          0.03401257870594706,
          -0.03789846177970661,
          -0.0026056160878760704,
          0.03681498962783236,
          -0.010096871745684967,
          0.02392412438143829,
          -0.045398017967112334,
          0.05052989305475543,
          -0.05171768378220617,
          0.03623487635635572,
          -0.036364112121285506,
          0.048899675387631826,
          -0.019172256184793075,
          -0.006293936172006407,
          -0.03452448619607842,
          0.03326806579933129,
          0.05178507334927431,
          0.023260557168153746,
          -0.03334715932630544,
          0.024663081615329773,
          0.050634733329665685,
          0.017987313744181947,
          0.01785898920810157,
          -0.045222609358384375,
          0.03168455128791628,
          0.036396555236705715,
          -0.03544605057659677,
          0.019547527231777686,
          -0.03902992339467282,
          -0.05014258784927509,
          -0.03427127169020203,
          0.029619547360895407,
          -0.022539136062259314,
          -0.03407083744335291,
          -0.03070770913351347,
          -0.04750151597423227,
          0.03931075898285825,
          0.04210798086796602,
          0.04548924228823741,
          0.046128354133094185,
          0.03663305664214076,
          -0.034590108545303644,
          -0.05096589201890618,
          0.006265540448204578,
          0.034218920569262595,
          0.04705225577280623,
          -0.040452612446302556,
          -0.04109487859359601,
          -0.01849052634655465,
          -0.018770582378708715,
          -0.014440475922157444,
          0.04535192295862007,
          0.014814712014782497,
          -0.03538409775325029,
          -0.053268377513930515,
          -0.03211196943371397,
          -0.05156049769261456,
          0.04741389425899031,
          0.017462871618799704,
          -0.03755128939097128,
          -0.031654532927309346,
          -0.051564654956870445,
          -0.007153126186126468,
          0.037259636204233997,
          0.04738640100178396,
          -0.00836695911592847,
          0.037270851597280205,
          -0.014066733751060401,
          0.01353501692128703,
          0.014756234692435808,
          -0.006402782892726062,
          -0.05036728267123329,
          -0.031796776939736364,
          -0.03381501163402647,
          0.04672273418367546,
          0.014087389185255358,
          -0.028843505915694158,
          0.02563723273779115,
          -0.024611870618775553,
          -0.0376312672747003,
          0.03678049065562989,
          -0.03243804134285978,
          -0.05225947884079115,
          0.009694346384656608,
          -0.0029861957663984986,
          0.048741315983792284,
          0.04739967725645145,
          -0.04636569706437645,
          -0.0029598567806930214,
          0.01731099360350935,
          0.014411639651172255,
          -0.007682975276030254,
          -0.051044695379841375,
          0.003330154779595352
        ],
        [
          -0.0133293798330353,
          0.030370679005301122,
          -0.025331014252159615,
          -0.031827676431002656,
          0.029740090464420128,
          -0.0445981783042803,
          0.022598392765567656,
          -0.03916711803382799,
          -0.04498163930739656,
          -0.052307408901091694,
          -0.050140979776108756,
          -0.021356048730664035,
          -0.01668460470124747,
          0.05270935622981373,
          0.023212046630493158,
          -0.018355191423222367,
          0.028101812479393348,
          0.04660448308810768,
          0.022094075452985733,
          -0.0012953629107215147,
          -0.0014562359451262006,
          -0.03474825538355628,
          0.0032981173827769596,
          -0.044919863993203205,
          0.04502427402866698,
          0.045617733519565544,
          0.004849107474776613,
          -0.020341348962644567,
          -0.004898893532673224,
          0.045111682291522626,
          0.051189489751324854,
          0.015268513811061783,
          -0.052865022773059045,
          0.023746725231313784,
          0.0005226218929005637,
          -0.02957639273681644,
          0.04247663482363151,
          -0.011069701588087972,
          0.03851256562518329,
          0.040751887416619975,
          0.01662253641685503,
          -0.0319256819451574,
          0.02276808873705433,
          -0.03782116220545149,
          0.007922534242092742,
          -0.0034458755157794024,
          -0.047303480469164196,
          -0.042304219037902095,
          -0.03715863625892179,
          0.006707973882953844,
          -0.00827154178083462,
          -0.050760306211039684,
          -0.009057806741393658,
          0.03065705560459036,
          0.020397393152355538,
          -0.04305546147319488,
          -0.003805036339858491,
          -0.00528866035607452,
          0.011399065616346954,
          0.010933248015268337,
          -0.04891639768079233,
          0.04293804182419264,
          -0.020460198509207515,
          -0.03263181191673593,
          -0.05037434006617486,
          0.015050536157545038,
          0.02536198245103459,
          0.02372318429545167,
          0.0319369440929221,
          0.018970690868242525,
          -0.006493482994607948,
          -0.005656834811920458,
          0.047470687241246146,
          0.028457783498776774,
          0.04142423538477535,
          -0.047872403427468846,
          0.0416486061161848,
          -0.025348781778080937,
          -0.009513407582853404,
          0.022922849856991147,
          0.05042536962043914,
          -0.04555340120986867,
          0.047275981134519356,
          -0.010625746219216883,
          -0.04791509586955967,
          0.04439565961829227,
          0.0017802848187366445,
          -0.030116671157785935,
          0.02375310364104383,
          -0.029664728018435605,
          0.03274197422563849,
          0.021354797733330766,
          0.051595034035116366,
          0.035412181993148745,
          0.050617646668779416,
          -0.016514697674878006,
          -0.022167646755469447,
          -0.010781607645993918,
          -0.03995275532657982,
          -0.05217519643458338,
          0.03506587472220057,
          0.02903436994217198,
          -0.05062426823860196,
          -0.021028439430623134,
          -0.004991614898639349,
          0.0365094242127392,
          0.022219189503876313,
          0.013881209292138862,
          -0.003850965261323915,
          0.04826510231301787,
          0.0024560655784617255,
          -0.022478118558302347,
          -0.022842344463965575,
          0.0205025958118751,
          -0.004661400120193418,
          0.02899976579197365,
          0.013095481503063718,
          0.008563015204536463,
          -0.0507242279236926,
          -0.0062935869410316635,
          -0.0001668225689115399,
          0.025596587537083795,
          -0.04875538109640299,
          0.03890677342037205,
          0.027206614010838754,
          -0.04003991824869952,
          0.03705132212726296,
          0.01787947076197612,
          0.03252563012359976,
          0.0018417203718397114,
          0.03663836577956841,
          0.01935700835321916,
          -0.024759172873325217,
          0.02410343455907517,
          0.03696787186390807,
          -0.014919076858722157,
          0.0043123512820611295,
          -0.04044565432479019,
          0.022020593208681,
          0.04478014229821902,
          -0.04562131220869225,
          -0.04936733363771095,
          -0.021190732934286804,
          -0.02334589569089318,
          0.039173158594531805,
          -0.05157167540251828,
          -0.015773936776134985,
          0.05305654134935662,
          -0.0350451036427581,
          -0.02786011018374198,
          0.013321861936363885,
          0.03406325190735084,
          -0.01887043988253317,
          -0.045131717240374215,
          -0.015041733788493558,
          -0.012455730701813961,
          -0.026642967149358078,
          0.023624076255001042,
          -0.03788075854457376,
          0.0010220988563104396,
          0.03042190860192158,
          0.018455824213985377,
          0.012645777005363623,
          0.02463324887914038,
          -0.020230165602805546,
          -0.009015710816033778,
          -0.04051237703398402,
          -0.028986367903957547,
          0.04298963907695965,
          0.05236886761650502,
          0.033006480063985565,
          0.005211026859153547,
          -0.004393753703239803,
          -0.04092186328829044,
          0.02289368879786146,
          -0.0037620684287531857,
          -0.052704747723933965,
          -0.03164026828413307,
          -0.036116830378314264,
          0.004964253051475626,
          -0.028707047767461816,
          -0.01978995044989529,
          0.0329151851218531,
          0.018447435852346615,
          -0.030035503597027814,
          -0.04331774927061162,
          -0.0474267550355556,
          -0.044211580856063894,
          0.02220764568457573,
          -0.02889189471843016,
          -0.03401774441660782,
          -0.0351196385432489,
          -0.05276382272708415,
          -0.0073518002033678516,
          -0.02518390491769225,
          0.02605678457854739,
          0.01482122217430039,
          0.02352063568246309,
          -0.04372318374225295,
          -0.016865272553635076,
          0.03323831676375063,
          -0.02534837267871916,
          -0.005133894106561135,
          -0.004106456031843181,
          0.006301908655905441,
          0.030388865440739876,
          -0.001825554675768912,
          0.00633106906007325,
          -0.05116856860792437,
          0.006260703492367552,
          0.034975819809245204,
          0.026323155781878466,
          0.01600572990775172,
          -0.028142727654412614,
          0.044932180251425105,
          0.00887807160399929,
          -0.004217219747433594,
          0.024395548024671976,
          0.04558571061015208,
          -0.0075071530116209905,
          -0.04110136379825854,
          -0.04851772448473366,
          -0.03586174588286185,
          0.0010830897284936337,
          -0.02317960364078453,
          0.04717906076382529,
          0.05273325166646828,
          0.051587541920944585,
          0.049996811280444545,
          -0.007010074026638353,
          0.016334598874139163,
          0.043939967616377015,
          -0.04408967158725692,
          0.05107770772315479,
          0.004909670910512743,
          -0.031341178498143295,
          -0.023886547521291893,
          -0.008359145904166202,
          -0.034426980197888556,
          -0.04513756577777212,
          -0.0037309036546164178,
          -0.004791406583755161,
          0.043686648589861106,
          0.0149777293174674,
          -0.023255175057255682,
          -0.019723211174157606,
          -0.006851391808530155,
          0.029321866864547824,
          -0.011890456200206252,
          -0.007726951949034533,
          -0.01845222450242209,
          -0.02800022465273374,
          0.0029132512534827846,
          0.0054820384087372375,
          0.014574060085185463,
          0.022294476755767175,
          -0.024511942482019003,
          -0.04353429754975509,
          -0.03581497838196629,
          0.004278328164454745,
          0.01655840565830495,
          -0.04030391949298163,
          0.024871626973191244,
          -0.03421305107216211,
          0.049857399512754155,
          -0.048600346058657436,
          -0.05280950743693876,
          -0.004731280751555865,
          -0.0524937393087593,
          0.012630120263692285,
          -0.046383850354496964,
          0.009727570132178754,
          0.016543627931999948,
          -0.03290422286775494,
          0.0007949600270940798,
          -0.029666649101643752,
          -0.01994074022003502,
          -0.029275126031810095,
          -0.003871288318994823,
          -0.02555222796530749,
          0.010689262107797038,
          0.03765157258692598,
          -0.012708437458861552,
          0.04695677755950182,
          -0.007375401913676087,
          0.037539849362784185,
          -0.04858028140591386,
          0.04838093352457324,
          -0.0026036085683744624,
          0.01820069378442204,
          -0.005773124221441717,
          0.022847770181058085,
          0.0500307822580767,
          0.02756708798736935,
          0.04423593984990137,
          -0.00646037576875485,
          0.041017328548275174,
          -0.04283142359300802,
          0.035892351583792455,
          -0.01795621239754117,
          -0.05066464808462798,
          -0.015134984160791704,
          0.011577573379637508,
          0.02852665637659058,
          -0.042030787873830217,
          0.008913437681983464,
          0.052432258008353695,
          0.020427456824575724,
          -0.01938974216125642,
          -0.012884613044889002,
          -0.051910761668440754,
          0.039657086874002635,
          -0.043615346433479446,
          -0.005747351600791433,
          -0.022785723211956373,
          -0.016914496724994732,
          -0.01621046362560639,
          0.01542851680228699,
          0.004927831098658572,
          0.011692425085752195,
          -0.0019849837266397432,
          -0.0006247055252664284,
          0.016706230624213957,
          0.019841040103458676,
          0.019443645599399647,
          -0.005367749191534118,
          0.012624952620724576,
          -0.02207249444697903,
          -0.04453799589904965,
          -0.03409156612101295,
          0.02215221285196824,
          -0.014383819485161382,
          -0.0038445321744006713,
          -0.04119229289124082,
          0.00534533713521741,
          -0.028647409423211905,
          -0.006557648098946332,
          0.007381512494771768,
          0.01847153608336293,
          0.02049725670580545,
          0.021799269068054978,
          -0.029633650845473113,
          -0.022382930605458866,
          0.036739698060104194,
          0.04152082207710949,
          -0.01573181208700642,
          0.05140704491582254,
          -0.018555607406545754,
          -0.038808568413054294,
          0.026781610912171055,
          -0.019823628260900165,
          0.00892891226561207,
          -0.009402267239420831,
          0.031238683967380727,
          0.035174557756965055,
          -0.0221446404322165,
          -0.013198183329285322,
          -0.022841774354822753,
          0.04108984310642275,
          0.032442796737734675,
          -0.031428228696543214,
          -0.008068043251994233,
          0.04975223399852222,
          -0.05104529482434589,
          -0.025486673273622747,
          0.019763490200732283,
          0.012879033782900071,
          0.032568026545197276,
          0.013115440694480627,
          -0.047186601454643984,
          -0.05049102111703865,
          0.029140984547902104,
          -0.016762179567672043,
          -0.012456750206367901,
          -0.00443791263402751,
          -0.048274145633632935,
          -0.0330567385463282,
          0.02560995366245606,
          -0.022416517170921118,
          -0.028597072324527975,
          0.014696234459132006,
          0.0485791653036615,
          -0.005397018974906609,
          0.014209391881969943,
          0.004740936720095848,
          0.017709162557461286,
          -0.03145915967360046,
          -0.014886805234190262,
          0.019635280022142085,
          0.043135350175175724,
          -0.026833380253914935,
          -0.008143271637153608,
          0.04545832316161681,
          0.010440754579848274,
          -0.017805593504198896,
          -0.031550517174413394,
          0.0532266599145711,
          0.004756032242053587,
          0.027283440240900573,
          0.04963279454748165,
          -0.024503185190403093,
          -0.049848464562253426,
          0.035462682336274025,
          -0.009691965419172222,
          0.03480373241691081,
          0.012687816353050343,
          -0.012283883509967725,
          0.01210047972861761,
          -0.03889793795360364,
          0.02465690414018674,
          0.02640244277959133,
          0.005028515442765752,
          0.04111286985455986,
          -0.03136331440356924,
          0.008258975437871989,
          0.039757761451438486,
          -0.04524184506165509,
          0.009440327308957431,
          0.035246469106206185,
          -0.019062124243713452,
          0.05187966168970123,
          0.04077135522181741,
          0.031024858594084943,
          0.027161067215008276,
          -0.03101133644119755,
          0.021910901460952918,
          0.014310215071603146,
          -0.03221236016404219,
          -0.039885345265318346,
          -0.012317454139687928,
          -0.038076527380827646,
          0.0336243151590186,
          0.017415052431943242,
          -0.006710950512700202,
          -0.03958223726361177,
          -0.019512537144809418,
          0.023435965718622314,
          0.028462662132793404,
          -0.030325701692306126,
          0.007313443129353115,
          0.030453821974044993,
          0.01607227025576552,
          0.008739235848662529,
          0.05152281924139547,
          -0.043732963317995234,
          -0.02541276503851023,
          -0.031052609476369532,
          -0.01111168367567101,
          -0.00096579967059861,
          -0.026619916924860557,
          -0.0020512057283862146,
          0.046591766866837615,
          -0.043426134149337214,
          0.021910622518752226,
          -0.011182507791232458,
          0.033777181995721724,
          -0.030419444028554964,
          -0.023207880947832812,
          -0.019026566523606386,
          -0.009962135610420251,
          -0.020593022248549482,
          -0.011077611746808732,
          -0.013662925414499245,
          0.03222135862376877,
          -0.036484229087975946,
          -0.010660552854750784,
          0.021091870723966667,
          -0.014900354569524809,
          -0.029626107573628963,
          -0.031366796812794494,
          0.0407291098083947,
          -0.016063279012948996,
          -0.027986531935362827,
          -0.03170686868033148,
          -0.048050542624902555,
          0.015353400486526744,
          0.022420328145984814,
          -0.05129860525382112,
          0.012301196036445266,
          -0.01334288930210787,
          0.007602658641368695,
          -0.011071710341883645,
          0.03173562084565189,
          0.0203236630779939,
          -0.040125563764219524,
          -0.004949798671757667,
          -0.023638731114758702,
          0.04829978953266456,
          0.003997735051540689,
          0.01687036582547868,
          -0.016841413916528537,
          0.01835387527100806,
          -0.034122631625831484,
          0.00562919222815663,
          -0.012398500180596201,
          0.009913845084433014,
          0.005109437690761445,
          0.020074992316270426,
          0.04528533340702751,
          -0.0025034890341285713,
          -0.019627978757795955,
          -0.02693701678513675,
          -0.048530102973374116,
          -0.050200678631215356,
          0.014666081263379227,
          0.026536483620447346,
          0.014978841248002264,
          0.046741312875193196,
          0.013036398316822042,
          0.03450312176654379,
          0.011687788280643246,
          -0.018102955257349267
        ],
        [
          -0.04875430121318316,
          0.04569523325341774,
          -0.028262857702404068,
          0.020704505229764813,
          0.022897785320923292,
          -0.014503760617132216,
          -0.05238675961040432,
          -0.041860300658538234,
          -0.04304917779071872,
          0.004861738894740899,
          0.005979532956296837,
          -0.004880457712085082,
          0.024926769014725347,
          0.039614565364212796,
          -0.006806399001805134,
          -0.03137468575206812,
          0.03696844838352136,
          -0.04352433371611015,
          -0.05242719708307519,
          -0.019544940017113197,
          0.052272359275888074,
          0.024566845174321995,
          0.0151698151276587,
          -0.002813186373213193,
          -0.017545638570288676,
          0.03279080470716922,
          0.002878091481169474,
          0.0524545379787448,
          0.03569115613808079,
          0.02250209621758761,
          0.02390714463785517,
          -0.048530323811310665,
          0.0018521322811349175,
          0.039529363116910556,
          0.009255155596911133,
          0.006653077705120139,
          0.013932942012086396,
          0.030859607599244467,
          -0.022643371423582033,
          0.0008604801551792676,
          0.0012526957651630454,
          0.045804865979868756,
          -0.004141620548488386,
          0.052846758862986225,
          0.0031049114698569694,
          0.009317717619005617,
          -0.027331286294738258,
          -0.013270543994009757,
          0.022557734435129963,
          0.052988002479916606,
          0.04915563120595421,
          0.010578055093681003,
          -0.011992737923196285,
          -0.013706015002834162,
          0.011455158076305828,
          0.03984438531133953,
          0.0013782513449740299,
          -0.026489576501583397,
          -0.01300176410770902,
          0.006440018359603208,
          0.04527083635960096,
          0.05253260052514656,
          -0.04275241314157342,
          0.0067508853140738085,
          -0.04989969234796256,
          -0.04209644572486702,
          -0.028880603169625672,
          0.023274638314682038,
          0.037440589898388346,
          0.0028517965234895358,
          0.023577455332499008,
          -0.04311535796329143,
          -0.02100822938402992,
          -0.022163323530924185,
          0.03563760746510942,
          0.05242688178936639,
          -0.040962091986501754,
          0.035734305657537796,
          0.010569957123198115,
          -0.0015044684500402316,
          -0.03034529035165173,
          0.026666197181833426,
          0.004001296464998706,
          -0.014913894046242491,
          0.008076390496320892,
          0.04507544356015293,
          0.033311820110714145,
          -0.02222593095020821,
          -0.010966182385284635,
          0.04893169654043376,
          0.0197312549227687,
          -0.018592903495541487,
          0.019534844862567943,
          0.007666071897396681,
          0.02252509627348712,
          0.012037758560212546,
          0.012194864466900138,
          0.029887767985697488,
          0.032815250546630065,
          -0.03788330891431675,
          -0.03801641451400427,
          -0.047972262373446525,
          0.03268827878635678,
          0.004855420043507755,
          0.02710030638088218,
          -0.016593236463717482,
          -0.00044389571686372716,
          0.009169491251711194,
          -0.014076711990793807,
          0.046776351917463904,
          -0.005470524201638384,
          -0.05263131271292647,
          -0.03658777656512051,
          0.002516004023399184,
          -0.030093222171067784,
          0.02434142181666745,
          0.014033643993539721,
          0.04084639026063551,
          0.015346631020663056,
          -0.04896000381007342,
          -0.015567140638213763,
          0.0178451667966115,
          -0.017954674327897092,
          -0.053105623475406476,
          0.0058405957739067595,
          0.045349247939125516,
          0.04555733962464068,
          0.0089901198933881,
          0.04688723103450173,
          -0.04752233983964788,
          0.028887190579037943,
          0.018492898967940683,
          -0.0009935165162397017,
          -0.031077510157323757,
          -0.0007560069130072872,
          0.017589650773306358,
          -0.020674006898835237,
          -0.043519657660518934,
          -0.027778558437680845,
          -0.0005893559655596609,
          -0.005712945791704083,
          0.0131130486606394,
          -0.02565716056249379,
          -0.04509291740922385,
          0.04500197499243979,
          -0.02930762666654567,
          0.030334640433698472,
          0.0435944942659542,
          0.01611665251452875,
          -0.0182119242400731,
          0.008941218249513001,
          0.02459539173997131,
          -0.004875693475258959,
          0.0065674716018514455,
          -0.020436205372716724,
          0.047083713933904946,
          0.011901943399216795,
          -0.03626294207446346,
          0.0075994287877320515,
          0.043025647766151885,
          0.04037433038667175,
          0.036646730762468195,
          -0.053180634440147076,
          -0.031218362462078042,
          0.039142826301352525,
          0.020943423353492325,
          0.03341472808059446,
          -0.012231580711528005,
          0.05108858888493703,
          0.02272489570217003,
          0.04285263554511985,
          -0.0038537893626385327,
          0.013071335238879635,
          0.034005416008858695,
          -0.0022371337681095058,
          0.007220624378126424,
          0.04286510672706407,
          -0.0019879240008339486,
          -0.033699998901752896,
          0.05016815860081105,
          0.03639346685413837,
          -0.045525382145456116,
          0.036838811529801244,
          -0.00959221355880458,
          0.036014798445201876,
          0.05085292342734709,
          0.03623625901136892,
          -0.004788924974650624,
          -0.03213462141463039,
          -0.03279299868364805,
          -0.004693920328334785,
          0.026446917693388493,
          -0.03880768685390091,
          -0.009716081555400054,
          -0.011738873687178257,
          -0.038571993068307074,
          0.00013680852981770675,
          -0.005506907040442139,
          0.0053175782071460415,
          -0.03189788572029262,
          -0.0040014326534563065,
          -0.021363130104005465,
          0.02149673400846992,
          0.010549244547865325,
          0.031023270536710983,
          0.048970287384817145,
          0.021280194031697865,
          0.04928247927497738,
          -0.008015070012225475,
          0.036113048645692605,
          0.021179262537211835,
          -0.0008380623293865154,
          -0.012591226895963696,
          0.010478984901364955,
          0.016087181221703353,
          0.034390571554116914,
          -0.04285886115517218,
          -0.04491563070426519,
          -0.036763755953894056,
          0.02143832876023325,
          0.049425234281780896,
          -0.04691578758774657,
          0.013432912629684357,
          -0.04363166671954569,
          0.04900881235185517,
          0.027119642786714155,
          0.04932502572768093,
          -0.044008611591735976,
          -0.031891226564710724,
          -0.024917001376851832,
          0.032844467525849054,
          -0.03455593015146133,
          0.0395907278144845,
          -0.04870401392375859,
          0.006359027657709535,
          0.03000767228447568,
          0.035825526464112495,
          0.036359826713455175,
          -0.04894862456373246,
          -0.04808249239247756,
          -0.0035617360731689585,
          -0.011479153130993392,
          0.014809636776028156,
          0.035585038651612326,
          0.001681171529217267,
          -0.003853344541958847,
          0.044552455432138365,
          0.013687145567938222,
          -0.004405976829405236,
          0.00615192941164387,
          -0.0179866846246823,
          -0.0018900796206351006,
          0.014165402803774582,
          -0.026836056042437308,
          -0.003627302060813288,
          -0.04579543316219911,
          0.03427360670982309,
          0.0101100765971827,
          0.018566877240398037,
          -0.047578307142253556,
          -0.009008808254742682,
          0.04856354938947543,
          0.030958619265450626,
          0.017946595102625328,
          -0.015707593029982703,
          0.029001687276066446,
          -0.004159540921694301,
          -0.01989293393111658,
          -0.02894959416374009,
          0.004822590752303313,
          0.00871594460889334,
          0.007187207150215577,
          -0.002809881303273011,
          0.044620783971488526,
          -0.04006316659876538,
          0.012942597598045955,
          -0.014471133290100717,
          0.012260216053701192,
          -0.014079902851794059,
          -0.035151170781321905,
          -0.03452028883343992,
          0.024860135687171624,
          -0.03625789109751414,
          0.030359525310649706,
          0.04908691197260359,
          0.03275831184023215,
          0.03157264021456572,
          0.028718184285367706,
          -0.013325777808322182,
          -0.041640758210168244,
          0.0505686822654674,
          0.04195445587890708,
          -0.0036535880584834665,
          -0.016320658706453255,
          0.02667103112618639,
          0.012728975225670383,
          -0.029715181776235906,
          0.01728521343836918,
          -0.05329159415091344,
          0.02462813447998075,
          0.004841275054646567,
          -0.0019490224310144326,
          0.04889771813828906,
          0.007930147610139946,
          0.017591657558228523,
          0.05099831911930463,
          0.00913275417342537,
          -0.04240258885874175,
          -0.025320124068494883,
          -0.004652585657909272,
          -0.0027476537405163185,
          -0.027864298351560693,
          0.00023963235006179806,
          0.033219241033128434,
          0.009472776524885691,
          -0.016372783197510402,
          -0.05060218610834574,
          0.007629694201253391,
          -0.04630459260856141,
          -0.04996100679321744,
          -0.01779179067386085,
          -0.013099224934515288,
          -0.022135412547582056,
          0.026258024654792038,
          0.03303289177876791,
          0.005870206610090442,
          0.05029219963368606,
          0.03910501755484173,
          0.02110135839563328,
          -0.03043760545057263,
          0.017733061616021818,
          0.010496261101067047,
          0.048263674070095464,
          0.039418912220366836,
          -0.02122382341790577,
          -0.04617987882953882,
          -0.000288807348563511,
          0.04674770098275849,
          0.049643300401946464,
          0.04213334136199338,
          0.033584999574632096,
          -0.04364204366533036,
          0.03311682398107153,
          -0.03875013263041365,
          0.051936434755871536,
          0.04566866769971864,
          0.0233783979881964,
          -0.03212726572886798,
          0.02783432862430662,
          -0.0006038780525490766,
          -0.050007895962696634,
          -0.010263135609615413,
          -0.047930639773385846,
          0.04350770556534231,
          0.024225175409266046,
          -0.03200393727758664,
          -0.0012116085883087818,
          0.013101678278708052,
          -0.006948020463127332,
          0.04680547530113828,
          0.03527942002289018,
          -0.03269500135419729,
          0.015916807071700165,
          -0.0028939628763548883,
          -0.039427290458298084,
          0.01763707693766531,
          0.0014727146213179046,
          -0.005974494834052691,
          0.0232585843672507,
          -0.004863387999823601,
          0.0017520722933765593,
          -0.04686405807545911,
          -0.04983368819016061,
          -0.017298221361668593,
          0.005052892574295466,
          -0.024389807575521366,
          -0.004178957173262415,
          -0.005414605041588143,
          0.04121290628513594,
          0.012097717930630414,
          -0.023183475312098495,
          -0.015772982945632733,
          -0.04506688940581661,
          -0.04089504438073969,
          -0.008471148280605741,
          0.022449322769287454,
          -0.05091383007117633,
          -0.009253800323398882,
          0.0004047663804326365,
          -0.006624442355383691,
          -0.028579700889605316,
          -0.02726966290098935,
          0.024998243377131864,
          0.02507456003060448,
          -0.03905867489824102,
          -0.026425087730664952,
          -0.020888620735430855,
          0.002618973128132454,
          0.021543967873477766,
          -0.04653698400772892,
          -0.03835773597728818,
          0.050119476747498753,
          0.044434287266463174,
          0.023272199090641453,
          -0.005795177776957481,
          0.05124704139608663,
          -0.024785165765327924,
          0.04939905508492049,
          0.03444613557195409,
          0.02027543055804305,
          -0.02167587901018695,
          0.020407612910701173,
          0.0531411926611052,
          0.0037742125358231635,
          0.046677298865176235,
          -0.04365321003648788,
          -0.005093043961889107,
          0.007889989169568777,
          0.041681429980011966,
          -0.004851082898278095,
          0.04560614922237365,
          -0.025690465387758644,
          -0.05207111474618804,
          0.031182519831350633,
          -0.04361461097213519,
          -0.04001881392775063,
          0.026548690779641126,
          0.038272771751895786,
          0.05174118681318148,
          -0.04526722458244938,
          0.01894709777208823,
          -0.017836857214516437,
          -0.022134977932742734,
          0.017162896903136885,
          -0.017364271280284265,
          0.01866507546025697,
          -0.026939968985046667,
          0.051553300298243086,
          0.007037595904205577,
          0.012030796762079791,
          -0.037476060415497815,
          -0.003209930611484073,
          0.01292847081192422,
          -0.019502223601631535,
          0.005870565702814352,
          -0.04907228639278968,
          -0.04575676052215051,
          0.013384704104170956,
          -0.03221948463695005,
          0.015119204302315193,
          -0.04398925293434376,
          0.023721283428379467,
          -0.04266666542706103,
          -0.043950631375067016,
          0.027396248202596705,
          -0.003411883920131825,
          0.03734570244767496,
          0.04017712792764352,
          -0.020391057831729904,
          0.0006865513880424042,
          0.001163970425943352,
          0.032383304214864954,
          -0.03567097523356661,
          0.010519242751763993,
          0.015383917970263448,
          0.01629461286576138,
          -0.007317881174522488,
          -0.04516291111135819,
          0.014934480008825938,
          0.022537505179969768,
          0.024850146658057917,
          0.04015099601001087,
          0.052119954818141453,
          0.03664529347691282,
          0.016568806875072475,
          0.0018103462674230067,
          -0.009819365898301402,
          -0.04910143713057312,
          0.05310403005588997,
          0.020721824515854945,
          0.035078666859103665,
          -0.023268185678269774,
          0.035964266192643465,
          -0.019652021395557114,
          -0.018604025358869444,
          0.00992881619827947,
          0.01749315510806965,
          -0.032598588090280586,
          -0.012630058054331844,
          -0.028168749602945263,
          0.010310661188422695,
          -0.007178345449745006,
          0.024342911834972884,
          0.020318304125051683,
          0.01741297181299555,
          0.02613767044689945,
          0.034952315777229084,
          0.01212344969675765,
          -0.0035539235810864407,
          -0.011316056313609001,
          0.04348046610177848,
          -0.0448522098191647,
          -0.03272632955693803,
          -0.019633699697971574,
          0.011619498514989425,
          0.04949651025144783,
          0.0035731773797846745,
          0.0009178681146038582,
          0.0009443961645762112,
          -0.01383692106803328,
          0.025150147440765144,
          -0.007738290075611414
        ],
        [
          0.0013341529423743074,
          0.01695260345331148,
          0.05177335328453775,
          -0.04909836856551332,
          -0.03881366056125949,
          -0.03158881650937959,
          -0.049596439456956395,
          0.01823689106924924,
          0.01599454999147952,
          -0.028045817741982285,
          -0.02158211262481401,
          -0.00601233015569482,
          0.0012644563005843848,
          -0.005326435508792329,
          0.015779182993783808,
          -0.024279196758199572,
          -0.03131655649496485,
          -0.021188027459171005,
          -0.014102350622132937,
          0.02001405821601144,
          -0.028256300967160863,
          0.037799812772477105,
          0.000021366842406689146,
          -0.03085628671798396,
          0.0233616795864816,
          -0.0313842647555335,
          0.03806855637522771,
          0.013471175173789856,
          -0.013099658689577156,
          -0.05320200212000096,
          0.041039046566786565,
          -0.0024007029939460997,
          0.008442930050566639,
          0.024649130996647586,
          0.0057290443456380425,
          -0.009662602152130065,
          -0.03232632711797642,
          -0.04081714648200937,
          -0.0045825509693947645,
          -0.02883346796163454,
          0.029471115839859327,
          0.01638332255186861,
          0.018381863829350545,
          0.032132325680695066,
          0.015602931951242422,
          0.012370653900196283,
          -0.047030831811423895,
          0.04555637305780743,
          -0.04892660372823098,
          0.04067107472040832,
          -0.03372035586159216,
          -0.052519251963022956,
          0.03703715216995623,
          0.01859981013230403,
          0.03400482417987382,
          0.0018714882663687558,
          0.0160739346980409,
          -0.02818560393649903,
          0.027003420378440862,
          -0.007003641973793063,
          0.002629375941257755,
          -0.018819067248758762,
          -0.030850181323317623,
          -0.028680415365497588,
          0.03986046994405001,
          0.012247001303799113,
          -0.019816888398996937,
          0.007046491804512652,
          -0.034970568012233555,
          -0.0439151773733701,
          -0.05251413807919423,
          0.016272832865227307,
          0.03853089156525819,
          0.04176230979687889,
          0.04683308649198875,
          0.0338096092208591,
          -0.03917377067498947,
          0.0336989165107305,
          -0.02471679923819216,
          -0.04669351226196309,
          0.006875998140013503,
          0.0055179232683061335,
          -0.046832376693371106,
          -0.01893569798187212,
          -0.021470573768607514,
          0.02042010968237574,
          -0.02201375848530854,
          -0.039707485482268004,
          -0.05028782626648429,
          0.01238556983495979,
          -0.03307847584924437,
          -0.017751015719938073,
          0.03767331228986129,
          -0.0020622782772367807,
          -0.01087622560206942,
          -0.036304039701339205,
          0.01830265764824277,
          -0.04413329429896476,
          -0.005757199039255774,
          0.002690992295844933,
          0.01563723719447539,
          -0.03502720509694216,
          0.04102651566472792,
          0.01782023942251821,
          0.052265777021557706,
          -0.035628758891771015,
          -0.02840120617572763,
          -0.010074954824850837,
          0.04662813482308595,
          0.051276742003920225,
          -0.046374555162056574,
          -0.03299812228351398,
          -0.0026700469251855425,
          -0.018937727473839504,
          -0.04116329381998002,
          0.030833679071851788,
          0.04383887887251022,
          0.05169493411684296,
          -0.029766905128702465,
          -0.006718700916779966,
          -0.026731648460753783,
          -0.0002011740752513894,
          0.044421255160393386,
          -0.049402233301415056,
          0.026781514894356474,
          -0.004660558980108754,
          -0.02725291307557015,
          0.043206775339220266,
          0.021024258258666346,
          -0.020906476268957697,
          -0.031903756730567036,
          0.04025654264217083,
          0.002466134354881841,
          0.05217655441163605,
          -0.002212190949363919,
          0.024997792355037653,
          -0.036638130080961756,
          0.016698130162213186,
          0.04474596051408376,
          0.00917077655235457,
          -0.041910952085176915,
          -0.05136591245325468,
          0.011375948916395184,
          0.04862637453190672,
          -0.01585770994080558,
          -0.03970597708304568,
          0.02228803642760309,
          -0.009949052426791082,
          -0.018994703271278963,
          -0.04929103294787079,
          -0.001066153137367584,
          0.009523214000578152,
          -0.03303281446202133,
          0.05200784323266748,
          0.01643940265141206,
          -0.02352601415973732,
          0.031534202173560885,
          0.00820168699035094,
          -0.049334466572853154,
          -0.017658035114909622,
          -0.04901753497656837,
          0.008102880096658781,
          0.03654459137121917,
          0.04537483210402823,
          -0.03305104767627134,
          0.01898794283622483,
          -0.04843385198593517,
          0.044757929721112505,
          -0.04140461692553013,
          -0.02807003105236837,
          -0.007897585071639132,
          -0.05054589639222685,
          -0.032217898123293336,
          0.03676571408926844,
          0.042306410488053725,
          -0.0306698308045188,
          0.043993354118688544,
          0.038856648864971075,
          0.003964726667084553,
          -0.025656443796948772,
          -0.03967908282240988,
          -0.027287556663797237,
          0.03760667307378349,
          0.026258869608584742,
          -0.025947682571090282,
          0.029802326752734417,
          -0.010897865350173086,
          -0.0407135597766892,
          -0.0482866087760342,
          0.04820971862315535,
          0.020613948896583648,
          0.002984997432550721,
          -0.0035473405573116404,
          0.044969676546119684,
          -0.005643145412132695,
          -0.04497944056064331,
          0.03267584787104124,
          -0.010803296256138531,
          0.007117488206047507,
          0.009803464357009814,
          -0.04298154571387358,
          -0.038917522949934794,
          0.046904516879791934,
          0.012957883497406016,
          0.0017072093535834634,
          -0.023551146901181572,
          0.009003269383680575,
          -0.02170708373089864,
          0.0292303999976663,
          0.04911948681831563,
          -0.03550796394401692,
          0.048605772125337135,
          -0.03740478834342538,
          0.031151126022275356,
          0.04541049451052059,
          -0.017188437487635808,
          -0.05045153624470653,
          -0.01815629080133923,
          -0.05065664456311661,
          0.050523467328272384,
          0.02924050428721532,
          0.029264912701934667,
          -0.04683766323361399,
          -0.009211804051508288,
          0.01656011788708552,
          -0.03610200305007667,
          0.0071214263286083325,
          -0.05245784914244391,
          -0.03742846622195566,
          0.006317362898492966,
          0.03711977132764247,
          -0.016226414644255314,
          0.04200796043885217,
          -0.02481730148510055,
          0.029012110025373482,
          0.046659163868791355,
          -0.03830298376700891,
          0.030592900105268682,
          -0.008915358793519483,
          -0.007251109888617977,
          0.018103969185647904,
          -0.017618301113614322,
          0.017747435944817695,
          0.048583913179393895,
          -0.024133902424201596,
          0.050926768395131876,
          0.01533506940224073,
          -0.0041863103198944,
          -0.010910803497659553,
          -0.0016512527562367793,
          -0.017507022705527533,
          0.009516629651776649,
          -0.0030100252853900436,
          0.027444034207495152,
          -0.03243846410960198,
          -0.011921415444094221,
          0.027348146316120273,
          -0.022743002955526063,
          -0.034053402101353,
          0.043201219836915605,
          0.036829508870400395,
          -0.025971959447180455,
          -0.00857772120313698,
          0.04386918076819316,
          -0.0426992240722783,
          -0.03570538201703102,
          -0.03233149708413742,
          0.04592429380203272,
          0.04944156097339444,
          -0.04848759958109393,
          0.03782614090077084,
          -0.05238092786759052,
          0.03893759738530969,
          0.028798285673654205,
          -0.0020116958935218073,
          -0.005670405258922627,
          0.020811902845468817,
          0.019506317269621626,
          0.025219687581162633,
          -0.041422622890792286,
          0.04753078707711335,
          -0.008369586349414697,
          -0.008926485452242177,
          0.035173787298030314,
          -0.01637181877660022,
          -0.03300851875660684,
          0.011218390958522137,
          -0.00540862490748708,
          0.014237325410497548,
          -0.038590726969304025,
          0.024492481255176637,
          0.04409294745796871,
          0.01937562520069684,
          -0.0037040915500059445,
          0.033994853473095415,
          -0.04462035560366523,
          -0.05087157814756395,
          0.006243225309139875,
          -0.05187643380660245,
          -0.023315057048148003,
          0.03349341282731524,
          0.047796685313582235,
          -0.041625474374823467,
          0.03684135432109095,
          -0.0379798153294991,
          -0.014372740142278493,
          -0.04202866417654478,
          0.03230646983126395,
          -0.005872231628333552,
          0.022578970776775197,
          -0.042412927795513804,
          -0.051993185639696245,
          -0.04721893216739062,
          -0.037117145813337776,
          -0.04120214146662672,
          -0.010654582080852163,
          -0.048320983611381776,
          -0.00898269082027438,
          -0.014833401141957586,
          -0.014860491867507422,
          -0.03817340187966161,
          0.03277404101443206,
          0.022069711826616156,
          -0.025057538435261886,
          0.0017864107693324016,
          0.050002698258049885,
          -0.02909396484857216,
          0.002637332321107303,
          0.033806936241553905,
          -0.007027740406736234,
          -0.01254099071932556,
          0.04424902985623473,
          -0.017025683971041306,
          0.01758066907767949,
          -0.012329498791978038,
          -0.022150077121934033,
          0.048566208923298465,
          -0.01614356206558129,
          -0.04836880021839806,
          -0.038721712155325404,
          -0.016190993234068182,
          0.04654764241822059,
          0.04712345225644256,
          0.03471836647259919,
          0.003058370392323998,
          -0.04495315190614868,
          -0.02021236908790802,
          0.0444054851850874,
          0.031352891298009104,
          -0.038600676332654106,
          0.03801572843364816,
          0.01972596969168453,
          0.035025383526837796,
          -0.04624660838232278,
          0.01298192728926444,
          -0.0031924421199714136,
          -0.028041285304179958,
          0.0006924552544128093,
          -0.011028450785754252,
          -0.0295798001957675,
          -0.04962790109374457,
          -0.002880945625289383,
          0.04004002734500968,
          -0.0021323496384024416,
          0.04081282267914502,
          0.05004905779234157,
          -0.02251613897211452,
          -0.041731006931964326,
          0.024202587851289654,
          0.028203655353336392,
          -0.029602859781755208,
          0.030422769744434627,
          -0.008967828129075223,
          0.05003279159783224,
          0.03442744090857042,
          0.03473647183425786,
          0.012396936936501188,
          -0.030618447934064107,
          -0.02901514761995489,
          0.0059871371991931845,
          0.028984229835357717,
          0.051938666825204365,
          -0.014252959885182742,
          -0.049660034825424144,
          0.027330660643416126,
          -0.024575058934958385,
          0.03160137711668136,
          -0.04488863012877277,
          0.04412133368746119,
          0.04295282903319325,
          -0.017891774564136313,
          -0.03194520045727699,
          -0.040341264070451716,
          0.01764505204598206,
          -0.04503136304238223,
          -0.039804410722542816,
          0.010690824981944753,
          -0.022602658287701645,
          -0.015350069127380774,
          0.036141329362082815,
          -0.027255007803849055,
          0.05261463503761775,
          0.028876195861274927,
          0.028246182961375713,
          0.008390695115694029,
          -0.047287806316581575,
          0.03738744522956569,
          -0.04959939076802596,
          -0.03939066741385566,
          0.04119137803591069,
          -0.033514335790916436,
          0.0029482278007089686,
          0.02616556944411565,
          -0.010877768425140365,
          0.027520177929390148,
          -0.012389541012008393,
          -0.03700997677441136,
          -0.028802369896706703,
          0.04925631692375361,
          -0.005877987142591053,
          0.038015819451778635,
          -0.051205589570239775,
          0.04482508903481845,
          -0.03668488375930784,
          -0.035719487024217865,
          -0.005522999146809644,
          0.02016837192188601,
          0.01793594381520254,
          0.022047845737845802,
          -0.021260625726814256,
          -0.011952053309114103,
          0.024381559721905827,
          0.018057316003339943,
          0.005428111756804172,
          -0.025701946420436494,
          -0.02116489587473537,
          0.05231584859588041,
          -0.036596008152055486,
          -0.027293153678431346,
          -0.005638770579801143,
          -0.03981242763772884,
          -0.0475339678877322,
          -0.0048908919549665005,
          0.003580167205945603,
          0.013049939570272723,
          -0.01385068461983763,
          -0.03662338932277342,
          0.044101565645866696,
          0.042501030941286384,
          -0.008903669373240318,
          -0.04041448489556283,
          0.02948202115998851,
          0.03456660084345482,
          -0.024976715866166208,
          -0.009990581273594867,
          0.025535461623438237,
          -0.042577379690429025,
          -0.010740519604292932,
          0.00768929520026812,
          0.03281966839300411,
          -0.017840744316448998,
          0.05177662631446314,
          -0.038996922708744344,
          -0.018060836185235688,
          0.005225008388064634,
          -0.014955557283774588,
          0.025546413939846944,
          -0.007974578143686094,
          0.02840087587094616,
          0.049086203870509645,
          0.009853078894908138,
          -0.0073503543317880215,
          -0.042074697992237,
          0.02001117521650173,
          0.04708336028507332,
          0.044633372938478515,
          0.04309867446761297,
          -0.05072103843573201,
          0.018332182868616362,
          0.034519676551020326,
          -0.04011895583572715,
          -0.04153328507093026,
          0.02224552788938842,
          -0.03432853936537884,
          0.034621615909616,
          0.006296938685448045,
          0.00187922055856434,
          0.052404345560712086,
          0.016572560214719454,
          0.012278177274035117,
          0.023706561073595478,
          -0.04604219418421834,
          -0.026716480090833966,
          -0.01943897982131865,
          0.022330353957790403,
          0.03546303306982395,
          0.0016095117367640763,
          0.008241445067435677,
          0.030956389333178996,
          0.02702609415784806,
          0.02024975004609901,
          -0.03544182956346462,
          -0.004645002265558219,
          0.019001732479609755,
          -0.0002720731587210004,
          -0.004665948236954419,
          -0.0256620453803516,
          0.022896136738615028,
          0.04223944074793516,
          -0.0008040935122065002,
          0.018890013934908283,
          -0.028443713770995565
        ],
        [
          -0.020314463289025485,
          0.03308460604937213,
          -0.0010922060936939607,
          -0.015483877122440492,
          -0.019955575805214343,
          -0.020381694651282128,
          -0.03475664217016059,
          -0.032806241993048144,
          0.02995905946747418,
          -0.03588607332521383,
          -0.004692635093976073,
          -0.04279012694531552,
          0.027174839363778902,
          -0.046613934085910504,
          0.0404312688005745,
          0.039131443412522164,
          -0.014322064815554791,
          -0.009161897058054735,
          0.018744896317295708,
          0.023830245404141644,
          -0.025123871358309534,
          0.035995843489132484,
          0.04708543208914428,
          -0.018820938763246954,
          -0.011290409262758719,
          -0.04332025798812652,
          0.009499501517903462,
          0.04729386524495769,
          -0.02783618859561275,
          0.03027877589479874,
          0.01727515273176509,
          0.023093619505549362,
          0.011730990700905011,
          0.0006033852656570903,
          -0.05004897542092734,
          0.001583424412722873,
          -0.014553225613736313,
          -0.010599248028817598,
          0.052963331738353214,
          0.04459073567141747,
          -0.010657440305901687,
          0.022620235275013317,
          0.028894851624976334,
          0.037856861991917116,
          0.04834354444717019,
          0.04573120966274727,
          0.0037738285881936387,
          -0.03352681005455799,
          -0.010101243424818636,
          -0.05161456809218943,
          0.00488022072017315,
          0.03404080896710741,
          -0.012368084640777889,
          0.01710456057744554,
          0.04398959146114202,
          -0.023262214691422315,
          0.015379736655822263,
          0.015261493887164988,
          -0.03798978754880719,
          -0.03593600473050414,
          0.046880374679419516,
          0.024748379192129195,
          -0.031221074689572352,
          -0.02951772467911861,
          0.017731085147332758,
          0.004580434573403861,
          0.012265202147460876,
          -0.035081464611482586,
          -0.0429153438848702,
          -0.014100771429595812,
          -0.045922815844972674,
          -0.017064490478722508,
          0.027871883023755973,
          -0.0060435799308887015,
          0.048631443146034965,
          -0.009958787339443258,
          0.050110334761656994,
          -0.009837059252116974,
          -0.04043502080658264,
          0.002643033956786474,
          0.02606608123497732,
          0.015147179121367763,
          -0.0009131231735597308,
          0.021677513128042475,
          -0.04838057892734433,
          -0.014519053972706381,
          -0.05298747513307877,
          -0.03552929560461241,
          0.024190155313052245,
          0.023523171043328638,
          0.016257595717614613,
          -0.04819816781279876,
          -0.01455361810375311,
          -0.026121890996607593,
          -0.011204712041955988,
          0.012483533879389249,
          -0.03450411835852553,
          -0.02321688710940523,
          0.049282109281629405,
          -0.04057702904796272,
          -0.0007606531828736935,
          -0.04648065952558076,
          -0.010787928770369517,
          0.000600644206058117,
          -0.02781173252860529,
          0.05272389851811708,
          -0.05107440628195631,
          0.05232710864001319,
          -0.0035396485079073523,
          -0.031836775130902314,
          0.03699730890173899,
          -0.031475618911941915,
          0.037544728441599624,
          -0.043784664867735155,
          0.02198540980134291,
          0.024308407704453923,
          -0.017201248161805963,
          -0.043551045382033526,
          -0.03397657376824869,
          0.018534774679673224,
          0.006205937490963143,
          0.011850815077765673,
          0.020884729787377057,
          -0.00795280077203289,
          -0.004378346096694851,
          0.016004585675608588,
          0.012028705444994075,
          -0.011304113427731528,
          -0.022027305109827307,
          0.007164780385511397,
          -0.0374992701057442,
          0.03494724073097352,
          0.03205167535870189,
          -0.039039434013969775,
          -0.024287239572343862,
          -0.04748946480986069,
          -0.04199750551794095,
          -0.0034185078046901395,
          -0.0504270271267359,
          -0.02044646636694512,
          -0.0267106106225607,
          0.000032543819099471304,
          -0.021698488773827455,
          -0.027448950228502727,
          0.04435399245619776,
          -0.03349557839988399,
          -0.021410028070512555,
          -0.024331659764774454,
          -0.032646964312264055,
          -0.05325959747225839,
          0.025515408562803113,
          -0.022658356155571713,
          0.01896738047854647,
          -0.025062679543974616,
          0.006959102226899182,
          0.036874938789865294,
          0.031654815874064456,
          -0.004224458902806504,
          -0.04871254431314707,
          0.04329537278269065,
          0.023082583061926086,
          -0.020556313850433095,
          -0.0350057825042158,
          -0.008913471298214062,
          -0.007651501031248272,
          0.04300370796625238,
          -0.008738818224023984,
          -0.029409607234201603,
          -0.0031151383116324845,
          0.003622329564966025,
          -0.04174195774447792,
          0.0024998193969729965,
          0.05039913116766552,
          -0.03875879437338391,
          0.05246890330946415,
          0.047125814597584886,
          0.030808317630747914,
          -0.012738564811388348,
          0.04460858773227933,
          -0.038907229914814136,
          -0.02686873959920529,
          0.016191541893189613,
          0.04091318866541195,
          0.0007101098587329986,
          -0.04800498680593594,
          0.01601230461826258,
          0.007335616884515693,
          0.040346872181489225,
          0.02630056033277421,
          -0.026110389760796483,
          0.04487708755869035,
          0.05269497652484379,
          -0.027265930494710013,
          0.03334034104795253,
          0.03398475352942205,
          0.004250648640308429,
          -0.041638689992205866,
          0.032795931818865455,
          -0.021969765652576464,
          0.05032913807293094,
          0.046446905210633174,
          0.007719178690277933,
          0.038839374143828286,
          0.011110271931374127,
          0.009498915937204514,
          0.033578596158476824,
          -0.031523850248918336,
          0.04470368997403116,
          0.01812103277447269,
          0.05113815477470846,
          -0.049153673014468095,
          0.006940839826130104,
          -0.0039797640770552764,
          0.03275832716928764,
          -0.0429008831634377,
          0.024881607834632457,
          0.04649039035668291,
          -0.017847251094313454,
          0.03364456912982687,
          0.036400511043014144,
          0.038925319585318856,
          0.03873310192622838,
          -0.04370564652807356,
          0.03996674828953489,
          -0.002674401344499604,
          -0.04100677849707701,
          -0.008323857361042223,
          0.004371428696357055,
          -0.017485262053008925,
          -0.04292336136914049,
          -0.05250350071838189,
          0.0011851454856438347,
          0.03819835340015939,
          -0.02241858475832043,
          0.02587864235383349,
          0.04285513143236155,
          0.030370647196191446,
          -0.004233202109843695,
          -0.05136250441075223,
          0.03540254985467003,
          0.030370565051173727,
          0.012049002162637027,
          -0.02760277182883892,
          -0.046490085488540236,
          0.007422023294060737,
          -0.0007159039803407222,
          -0.0014900783506708105,
          0.002475519987773393,
          0.022879669327143196,
          -0.05011790097784133,
          -0.02752222835409605,
          -0.04545879456867235,
          -0.02335562479916371,
          0.017092397734878643,
          0.007529337125781315,
          0.007164842892596489,
          0.012408772841422647,
          -0.032111319544468137,
          0.025347393362526092,
          -0.03910744039838145,
          0.014389881215817085,
          0.05313216348405357,
          0.01897094615658547,
          -0.008582597467914415,
          0.014097592321921159,
          -0.032327469150303344,
          0.016331460294619564,
          0.009766213241804579,
          0.011979823315711504,
          0.0237504687604522,
          -0.00708639846037556,
          0.022269376171762435,
          0.00444010562210341,
          0.018925053796238663,
          -0.012981105912261247,
          -0.05044262740973896,
          0.05268345399429403,
          -0.018441774845445447,
          0.04115931024372457,
          -0.050073900275798416,
          -0.02677110732139789,
          0.049792176065070436,
          0.04465521085984303,
          -0.002407974308335159,
          0.04983263234090408,
          -0.023727588582882507,
          -0.012921982627971553,
          -0.04207966225681647,
          0.0028367388270899682,
          -0.05144556393852314,
          0.03535378632982563,
          0.0501921696909192,
          0.02408690508020154,
          -0.04873712623072131,
          -0.004435110303053876,
          0.008477506208879946,
          -0.026681809737351205,
          -0.008677238102754534,
          -0.010628037718320969,
          -0.05220977685367527,
          -0.04183070137094758,
          0.051938694545593245,
          0.0483095785899664,
          -0.032953920095864564,
          0.012488853636356528,
          -0.021251939244297555,
          0.019171850092370078,
          0.01946816695586377,
          -0.04572894976599906,
          0.04243947702147348,
          -0.00965099675346862,
          -0.03964182866982308,
          -0.010168904805738137,
          -0.01681353815973376,
          0.01402280930228966,
          0.034063972517568854,
          0.04477451724102199,
          0.02973278694919889,
          0.04297761793533724,
          -0.047812486205852905,
          0.007585568696379192,
          0.04926881488851735,
          -0.009630913061574034,
          -0.046363378214301594,
          -0.04539909027064074,
          -0.021560198526469038,
          0.01255463411646267,
          0.03455279971008737,
          0.007474952720443449,
          -0.006521260453927532,
          0.014664152960984866,
          0.029273199547047477,
          -0.03084424128671411,
          -0.02026574319859142,
          -0.03732655441710605,
          0.02417109698633432,
          -0.000375426570097338,
          -0.0031847822364038185,
          0.004073515411810795,
          0.034948203111591636,
          -0.003382331380153805,
          0.04670648607015043,
          -0.04774950195954146,
          -0.024914557106871654,
          0.0158094349261954,
          -0.014082302950701425,
          0.03746264805153564,
          -0.029886452420888672,
          -0.016146842967877603,
          0.0391421631988822,
          0.050369891789766086,
          -0.0171413424368132,
          -0.04750087352262442,
          0.007382134365791781,
          0.036650802240604546,
          0.046982668691926896,
          0.045469938398054036,
          0.02977079412190938,
          0.01009512405942694,
          -0.031753123784149295,
          0.018152275356460065,
          0.029537765909314218,
          0.028540122078700575,
          -0.026650429596006338,
          -0.009433300878212817,
          -0.03660645521008237,
          0.0271041947599354,
          -0.01036828671298198,
          -0.023549793276162145,
          -0.017291420889644693,
          0.038248059094692165,
          -0.04489115905092156,
          0.011360036426717308,
          0.05120536267916452,
          0.009326016172028995,
          0.02661264773725569,
          0.03202815804714468,
          -0.03168502512409187,
          -0.0022105959457586746,
          0.016331939696136746,
          -0.028534027872902254,
          -0.0032434519873138653,
          0.0002406310255433309,
          -0.006373299880819616,
          0.008779715300891286,
          0.01474014553143017,
          -0.03481553116354011,
          0.02403019837019653,
          -0.017483736163519562,
          0.017135684033214516,
          -0.016807583398588923,
          0.006975913755630359,
          0.017194713511224948,
          0.04015410841801706,
          0.02615249166048249,
          -0.014716696113955976,
          0.053181553695063,
          -0.017321620894145066,
          -0.00864752726240468,
          -0.03665068315628024,
          0.017153775077133268,
          0.03190927265218478,
          -0.03416024087489987,
          0.044754291972276955,
          0.024537419080624664,
          -0.04129882086078712,
          -0.05302356116099549,
          -0.027538906239795678,
          -0.019434558504438072,
          0.03292223788147675,
          -0.04365498776785669,
          -0.0005979550426339109,
          0.02917531939456009,
          0.04399149991561961,
          -0.04607266688218526,
          0.04205294227117912,
          -0.02358115831944843,
          -0.008097268242361367,
          0.0493441268097146,
          0.053204583687700105,
          0.008795424835032855,
          0.005256649690865275,
          -0.03166299099486662,
          0.026597835299581943,
          -0.014596025732921613,
          0.034438838999112244,
          0.017887625510346405,
          0.0486239235898452,
          0.04689269726787931,
          -0.05297709694806074,
          0.038872167132701294,
          0.04543354868683152,
          -0.026719523932750452,
          0.04672374075767395,
          0.020590759643651712,
          0.05044577277100749,
          -0.047506024831871566,
          0.022642728372872328,
          -0.04593658694131743,
          -0.04066295733341386,
          0.041191303155564477,
          -0.014391166385236395,
          -0.019519706685225326,
          -0.009246677029151608,
          0.03406487164622234,
          -0.038014498164881824,
          0.014451654970204784,
          0.007771922953699399,
          -0.018596139526621158,
          0.02796030984734007,
          0.009795339703794956,
          0.02844233467811754,
          0.03122713748921197,
          0.04346205153160339,
          0.03773745111599065,
          0.006476261547280644,
          -0.01583051741709766,
          0.030672565126424085,
          -0.029743910703863695,
          0.00009691493394968754,
          0.05263932861644218,
          -0.025408869470267784,
          -0.03561837538465075,
          0.04155230045031795,
          -0.027065633525734076,
          -0.011473960766641903,
          -0.04575018171919809,
          -0.020607461235287686,
          0.02768105201237099,
          0.01680969036262887,
          -0.02422028855110699,
          0.01337774767928923,
          -0.009883346171381051,
          0.01210487598962669,
          -0.015111542832673198,
          -0.025342531382537,
          0.0020214046072031724,
          -0.039247832768303834,
          0.029368956372612064,
          -0.04088007907294599,
          0.04620399458728701,
          0.021493388266879857,
          -0.04021998402419636,
          -0.03867859326115484,
          -0.004942892956651231,
          0.037289739043451245,
          0.01866524929023444,
          0.047121193278684595,
          -0.002424472087150063,
          0.02293676003252592,
          -0.04532109705681154,
          -0.05008530008831849,
          0.04054324661428861,
          -0.050084674338280004,
          0.04610271154717426,
          -0.03731292602099603,
          0.0503591880914745,
          -0.011214773294663203,
          0.027779533942262142,
          -0.005122916755645291,
          -0.02168813161945057,
          0.03050593874819023,
          0.04387499656747724,
          -0.0465090863748838,
          -0.011767110027906369,
          -0.007911858161917683,
          -0.03368804817801018,
          -0.031901969519437,
          0.043512273220718344,
          -0.03521055373214457,
          -0.006205199639873488,
          0.020081501791999367
        ],
        [
          0.04389144974787283,
          -0.04850496793384173,
          -0.029424511511835384,
          -0.038292537735961016,
          0.04567125675804005,
          -0.0010403239613293834,
          -0.022979241005412234,
          0.010842390610818431,
          0.05125798172151367,
          -0.014529978220076045,
          -0.03393462424634843,
          0.02555873257893149,
          -0.04479604241453304,
          -0.03412986623688161,
          -0.04041174547687726,
          -0.006954999277244797,
          -0.019555184239911157,
          -0.04606048093024789,
          -0.04118683933675028,
