{
  "id": "lora_legal_bert_classification_1754066982687_t5l8s",
  "name": "legal-bert_classification",
  "description": "LoRA adapter for classification task",
  "base_model": "legal-bert",
  "config": {
    "rank": 16,
    "alpha": 32,
    "dropout": 0.1,
    "gate_threshold": 0.5,
    "num_gates": 8,
    "target_modules": [
      "q_proj",
      "v_proj"
    ],
    "gate_type": "hybrid",
    "scaling_factor": 1,
    "enable_bias": true,
    "gate_init_strategy": "xavier"
  },
  "layers": [
    {
      "id": "layer_0_q_proj",
      "name": "LoRA_q_proj",
      "rank": 16,
      "alpha": 32,
      "target_module": "q_proj",
      "weight_a": [
        [
          0.03049559325385169,
          0.047771975593882195,
          -0.03876776944732696,
          -0.011354355586250559,
          0.03375604377310327,
          -0.04923779339170256,
          0.013450171295191635,
          0.02634931087094369,
          0.035693902406701394,
          0.04010160876111925,
          -0.036813673203934937,
          -0.05126268453325545,
          -0.03434778474543528,
          0.05244012891832318,
          0.043531567009095246,
          0.048653333558173514,
          -0.0025845231706265515,
          0.046830744527001415,
          0.03045766594075546,
          0.004745147342188572,
          0.0002104881797987037,
          0.04211018845235221,
          0.02117718873287867,
          0.0015134657957590794,
          0.004526942984294634,
          0.047987130828040965,
          0.015135097279920549,
          0.006476974544613652,
          0.014469067054093095,
          -0.04626550708764271,
          -0.0009372627080027131,
          -0.01717120844937254,
          -0.032882999612844466,
          0.0250686460228519,
          -0.053001679653167134,
          -0.02977058610108226,
          -0.03538584275030013,
          0.051371941628382746,
          0.04537051883611458,
          -0.0018917596562991912,
          0.029771104985323798,
          -0.02569946075484672,
          -0.01908695802717939,
          0.03298269162645843,
          -0.04672045313302954,
          0.011113658790703538,
          -0.0034579462313683745,
          -0.031416883959254856,
          -0.038367967282059545,
          -0.0010513452562678012,
          -0.04695857424446587,
          0.031038721203351063,
          -0.007821054442696151,
          0.028746581405110147,
          0.019178960436923922,
          0.03912466482800741,
          0.05059987702289733,
          -0.008422593046404796,
          -0.04010098485533618,
          -0.005839784060091064,
          0.02471923330588937,
          -0.04672224241380492,
          -0.0501836445740471,
          -0.03168993059371294,
          0.017791967574544616,
          -0.034519115171589405,
          0.04011001956659721,
          -0.04819002622184626,
          -0.051521565036161523,
          -0.045636411536064375,
          0.04229779325374412,
          0.000726482693429849,
          0.01572631139802923,
          0.03051183495364,
          -0.03268075241999845,
          0.005452470583510805,
          0.03134756720843702,
          0.023837812951590702,
          0.052030198749122444,
          -0.0358565335043556,
          0.022762437046908522,
          -0.012491657758887395,
          -0.030938055453190897,
          -0.04612225215546829,
          -0.04061083673187142,
          0.05001127240833141,
          -0.023301384656486998,
          0.03291087533761625,
          -0.04491044973872328,
          0.010611193050048715,
          0.024643601592517286,
          0.023920827726702593,
          -0.035708313637809116,
          -0.0081296706279712,
          -0.035278203624585495,
          0.02751266030378366,
          -0.024074257431218885,
          -0.030429074121282807,
          0.035220663780240184,
          -0.007805463286029789,
          0.05030692194115838,
          -0.025352172544010346,
          0.0006421383613395142,
          0.001655429518988811,
          0.047111782336086774,
          -0.011786401886430289,
          0.004915690507125873,
          -0.01375598102983888,
          -0.0139839221395639,
          -0.008414026648900175,
          0.015773365742275402,
          -0.0020168766109587735,
          -0.009807339064594797,
          0.029570672118096313,
          0.04219931245998165,
          -0.05045993094945939,
          -0.015608313810205327,
          0.012050009233885235,
          0.007684687373350648,
          -0.03906018287321206,
          -0.025341277055294507,
          -0.04790771490975284,
          -0.027178078341978697,
          -0.02951304406223725,
          -0.021322906802975536,
          0.03704690810334966,
          0.027348067123615327,
          0.026369370815788076,
          0.039349997084886366,
          0.009417880510152797,
          -0.03389312241469261,
          -0.030652351148708953,
          -0.02180608059315664,
          -0.007705637456728803,
          0.03433059133522615,
          -0.05265628049665197,
          -0.0007298103345889974,
          -0.022061533365427224,
          0.04644447159053548,
          -0.035345311552088275,
          0.03821222742617868,
          -0.044891180726115136,
          0.035759821460185234,
          -0.04641805634014055,
          -0.029065172612982606,
          -0.008266745617247058,
          0.026320728868265173,
          0.013244278110132662,
          0.04842630890582781,
          0.013049870534799703,
          -0.016534194618685463,
          -0.023550115788196112,
          0.006037765630554601,
          0.017695754263038467,
          -0.01547935842116025,
          -0.04863365097184977,
          0.03415127934234676,
          -0.03961653453761218,
          0.020112602044532028,
          0.05273790461446223,
          0.04667567507268428,
          0.043923825901304406,
          -0.038833161834676666,
          -0.049205642496189306,
          0.0213616640393453,
          0.039688719327775776,
          0.015029952258626487,
          0.0280858714462856,
          0.002799923128382558,
          -0.005937872876885612,
          -0.04247699944219222,
          -0.007117535858319881,
          -0.04378807803312624,
          0.04257357265541556,
          -0.011713046293488466,
          -0.02646887988851138,
          0.02214569419771966,
          -0.0024912970256307744,
          0.04950197438183796,
          0.03910458101524953,
          -0.03647208955119245,
          0.024249497305667,
          0.016169487263308763,
          -0.016261981040001837,
          0.010651717396316358,
          0.05148798018670878,
          -0.0074723106280160006,
          0.015357461689441292,
          0.029302528619781904,
          -0.010828504680254808,
          0.032611835643056246,
          0.03577765541076264,
          -0.046275205607217255,
          -0.0371231092970754,
          0.05301970355933666,
          -0.04473837118315588,
          -0.049314139690523145,
          -0.04770749619272969,
          -0.04973908485804069,
          -0.008088682851854304,
          0.004518100926396277,
          -0.03686383473724885,
          -0.03677964861111506,
          0.02076379091295541,
          -0.038376591638596885,
          -0.023623130322997718,
          0.04022693228805843,
          0.039997414573104524,
          -0.01054942500243779,
          -0.02996788376149195,
          -0.028236088467719335,
          0.03658073881685783,
          -0.03519900476023248,
          0.02470665833212557,
          -0.015395928233175727,
          -0.03092062097089061,
          0.006215373110664478,
          0.04108687655090704,
          0.009668744450179645,
          0.036207192010808895,
          0.035529601181377574,
          -0.03816908106601956,
          0.020797130493207364,
          0.01501073066862513,
          -0.0002818272494376775,
          -0.04003250006668211,
          0.049676227755069746,
          -0.02174192788515781,
          -0.007664848730562144,
          -0.023470528642354913,
          0.0299611445057188,
          -0.02184760354852259,
          0.04918143722714417,
          -0.0030079661621073314,
          -0.048776974946073956,
          -0.04938516842580005,
          -0.044791905232814365,
          -0.02438206894220927,
          -0.024383686204740324,
          0.023487342308903692,
          0.03599851204351986,
          0.00858784835137531,
          -0.00557144501945187,
          -0.026160680263559118,
          -0.05239768471914261,
          -0.0472281313012846,
          -0.01531502371064295,
          -0.03483115687521774,
          -0.005549934594959389,
          0.04295415853030738,
          -0.02590656108911146,
          -0.035976734387516585,
          -0.011768141117847677,
          0.008285770728341009,
          -0.028797092478854584,
          -0.04498919771634503,
          0.013862513247066562,
          0.04648364335918519,
          0.026912956477795635,
          -0.013275442484932847,
          0.02546862580451903,
          0.039091831157634635,
          0.044544188339350865,
          -0.033997444191589794,
          0.016599939312128706,
          -0.019765755263243787,
          -0.04760828783049227,
          0.001383694723545731,
          -0.030219853340671798,
          -0.04546634940990444,
          0.015455366156489089,
          0.037243201666046576,
          -0.0464160407931931,
          0.042937288445007195,
          -0.03073395779453631,
          -0.051711508878767305,
          -0.002682907842609095,
          -0.035555856721357554,
          0.04640329697150908,
          0.017689642433975302,
          0.032539491857238714,
          0.04924256269750805,
          0.027026175121695275,
          0.04406893531821528,
          0.004392963958330715,
          0.012718008012775521,
          -0.04147392440863399,
          0.014368149576212453,
          0.05057580560700596,
          0.017529124571220654,
          0.04918528981451308,
          0.008829293208163893,
          0.044063225344277035,
          0.0385994136478065,
          -0.00918402825723519,
          0.0035564964737425904,
          -0.02041666114016327,
          -0.033850913498863704,
          0.03589246004214231,
          -0.02184445325669659,
          0.05117955252596614,
          -0.002215319750001603,
          -0.051375494353629626,
          -0.04445551417307093,
          0.036573939503178575,
          -0.019060885207971244,
          0.03746944957409669,
          -0.016620141892968246,
          0.01512640875177547,
          0.04610801121001802,
          0.04904603953225788,
          0.029035886684661765,
          0.002490622658469122,
          -0.04572555364140576,
          -0.0006346008747022289,
          0.009372768141162583,
          -0.04513999741391915,
          0.02570909595754131,
          0.043360076533916846,
          -0.04509794374654103,
          0.002399801878774719,
          -0.0006144082913776335,
          -0.03952417615795779,
          -0.04806577527606788,
          0.039948040712659116,
          -0.0381927326134867,
          0.05311253661422635,
          -0.005183649281827846,
          -0.042107081126478554,
          -0.037587496213300056,
          -0.03553839918625424,
          -0.002182309273391317,
          0.05009651208353192,
          0.026354319660670193,
          0.04289526952183876,
          -0.015065803425709309,
          -0.026043497781118537,
          0.038394846138121864,
          -0.021444996251114398,
          -0.0088778016748748,
          -0.05301627326890822,
          0.050656478199213754,
          -0.010306818511806976,
          0.010465101812151647,
          -0.021537777089372816,
          -0.043917539746945435,
          -0.02204210493957241,
          0.030535098459331052,
          0.029592319029699242,
          -0.009090676713665622,
          -0.00512419971975817,
          -0.001383653241568177,
          -0.04006683262531355,
          -0.03301583090494112,
          -0.029711386050670727,
          -0.025246641569109288,
          0.03637218993505201,
          0.0335166891347802,
          -0.05017993011601864,
          0.02266381206124646,
          -0.0018453717097520373,
          -0.04622053915761302,
          0.03750418405328713,
          0.03031125690345048,
          0.018866168300257787,
          0.03644109163905905,
          -0.01744715803796822,
          0.045401096068885406,
          -0.037521335574097855,
          0.031382774628053466,
          0.020357875763441887,
          0.04829527547158617,
          0.02239764288318485,
          0.044217651597825196,
          0.025478064748770738,
          -0.032803032520192954,
          0.044939932974981604,
          0.011528883387615749,
          0.01436946732697837,
          -0.03210866612179757,
          0.008655657424561761,
          -0.04296391208623556,
          0.0423810476093159,
          0.05036768747564767,
          -0.04484754048689984,
          0.04361119116366355,
          0.00034591119783691017,
          -0.04630647396415346,
          -0.03136709760705713,
          0.001765191093177917,
          -0.040716013059738244,
          0.01873508104706318,
          -0.00790893852008933,
          -0.0011580989883551763,
          -0.018382549173569785,
          0.03368869778134856,
          -0.05132462508627712,
          0.019199349434204642,
          0.04221946723545468,
          -0.04800720579853541,
          -0.00023063823787141503,
          0.02225517387674997,
          0.05192201328704108,
          0.015623749227040198,
          0.01970132454612876,
          -0.022663778469621552,
          -0.037217313634899184,
          -0.008453349529252847,
          -0.011988072502211204,
          -0.042808924225053224,
          -0.0015249554573991287,
          -0.0352495110455815,
          -0.005272940502911621,
          0.030377242562626017,
          0.017246569316484127,
          -0.02035479349379007,
          -0.03878748337692901,
          0.029800604114530997,
          0.015336723446944471,
          -0.010053306464659411,
          -0.05182108874969237,
          0.022593226086096672,
          0.03035730311464405,
          0.00020046474673880306,
          0.048907245395023155,
          0.02288505893277186,
          -0.003719226280461439,
          0.026922505707417044,
          0.05256397177975162,
          0.005779037478734693,
          -0.01601390153677387,
          -0.04740262718110649,
          -0.03170661383141934,
          0.0024081410395216515,
          -0.026223694044109565,
          -0.00783311402748176,
          0.03371600667964492,
          0.02198607779271562,
          -0.04029472819786814,
          -0.043549994877930646,
          -0.04447553940942016,
          -0.023660663457946013,
          0.006423945316601323,
          -0.0004610409190039042,
          -0.03060423678458214,
          0.02247906179399941,
          -0.04260361096368739,
          -0.004615051182810778,
          0.03982545857874796,
          -0.02564710586144998,
          0.03504957481179439,
          0.009282327323568033,
          0.03887590888211295,
          -0.0265485794598059,
          0.04467238315618393,
          0.04211641999669967,
          -0.03146774830449594,
          0.00835565600281085,
          -0.03818606675281332,
          -0.04822611646854371,
          0.02634907579450638,
          -0.03415497558729848,
          -0.03664954449198737,
          -0.014389225786907264,
          -0.024712624318387305,
          -0.0033129698784599123,
          -0.01812770606044985,
          0.05222599040239795,
          -0.00048079983046618564,
          -0.0005886613821778476,
          -0.03460120127958597,
          0.029458751783718908,
          0.035073325031718706,
          0.03585983994031615,
          -0.043072482577659825,
          0.013293533590303884,
          -0.007472896912849903,
          0.015535778635635605,
          0.03744174302736291,
          0.01847884955106827,
          -0.039207823297091215,
          0.039893262358462266,
          -0.02646990956876703,
          -0.008131806094327449,
          0.001495126679265763,
          -0.008282512891662132,
          0.0315873964829357,
          -0.042875923614021996,
          0.04350197074024288,
          -0.02600628057849292,
          -0.026187109125710747,
          -0.006440626745946777,
          0.004442868470820617,
          -0.04303104538089482,
          -0.02573606136970576,
          0.007485626349310405,
          0.04630375081260856,
          -0.03718877717887741,
          -0.03452234054148467,
          -0.051485765329104774,
          -0.012791163078488684,
          0.00664358678694728,
          -0.014652068434172624,
          -0.0018471369492940974,
          0.0195290625300667,
          0.05201781638758847,
          0.04121505126578298,
          0.026523299609139576,
          -0.04216008910263938,
          -0.004562860846489292,
          0.03555625122866553,
          -0.010225245416382383
        ],
        [
          -0.00017230692834623634,
          0.004092500926768352,
          -0.003873380240466346,
          -0.00676712541725448,
          0.05045684319775222,
          -0.0004506816256265574,
          0.02906051211237111,
          0.05036586063505232,
          -0.04997138028290589,
          -0.04831500439615607,
          0.04000690271040744,
          0.006584450927350275,
          0.0518782015537574,
          0.04998694440476206,
          -0.04403235037648294,
          -0.02740739773777295,
          -0.05151177669972204,
          0.021600111599743843,
          0.006781837457523202,
          -0.029386995084230975,
          -0.02032968657237981,
          -0.03203938059751783,
          -0.032903227854134506,
          -0.007802071929773413,
          0.034849901272916456,
          0.017589754992386755,
          0.028734920147665446,
          0.01027060885215657,
          0.047085931262328365,
          0.051096115591168056,
          -0.04302415537112509,
          0.007942490999520414,
          -0.027078789299841647,
          -0.044898134008473055,
          0.025559886240541434,
          -0.011153838781588495,
          0.015356893584354245,
          0.017543058326414104,
          -0.031444772653245634,
          -0.022757681430102105,
          0.010285425198875833,
          0.022101417921788134,
          0.02297615875691166,
          0.015415745299022315,
          0.04244590231733471,
          0.0220066887332565,
          0.04105423478409048,
          -0.006324341752717033,
          -0.014648458036521232,
          0.04076354624277877,
          0.003234812274127689,
          0.04673566634511764,
          0.006046348537314228,
          -0.03815248221471148,
          0.00888905094695202,
          0.012074747961648952,
          0.003824574260702256,
          -0.03622448884123161,
          0.02679056583451439,
          -0.04403602388328945,
          0.018264160649162652,
          0.02168492950746534,
          -0.0008594204620160418,
          -0.018264388019694263,
          -0.01568147578890535,
          0.0443201805333658,
          -0.003488967204351005,
          0.05021245430698556,
          0.033634453238072855,
          0.043312530193708745,
          0.02701644096514812,
          -0.03816141964313689,
          -0.011013142276754736,
          0.029513051337169593,
          0.02537653281922218,
          0.015395669813317267,
          0.012799344426697794,
          -0.03127940885243556,
          0.040986789405880755,
          0.04811155456047576,
          -0.02724860964501734,
          -0.04375942869241512,
          0.032554377160246444,
          0.011514574552315427,
          0.020794292069430606,
          0.0453472832062556,
          0.00605187452434337,
          -0.03223163561343833,
          -0.04222885874643966,
          0.015666811100346102,
          0.026226311495353986,
          0.051771117483188606,
          0.03227473872918894,
          0.04970472086045808,
          0.04369709309978711,
          0.014696436725859612,
          -0.041593589383351545,
          -0.02601406656729038,
          -0.01708060456415109,
          -0.026461260722910974,
          0.03761445063307763,
          0.046608854074726425,
          0.0014279919844570079,
          -0.048052838133374874,
          -0.01805583803437943,
          -0.03464192603928236,
          0.002086358754429047,
          -0.030710678863426738,
          -0.04539713053545177,
          -0.008871329280331816,
          0.05069934055090777,
          -0.002634572393355875,
          -0.014367832006243529,
          0.02697600390003321,
          -0.009648400088254992,
          -0.010961011277836292,
          -0.01642452499161658,
          -0.0519860037375113,
          0.010762167514325537,
          0.0003277535734247238,
          0.045450631587474984,
          0.00831464454676364,
          -0.04277440570527808,
          0.032629802369695905,
          0.005418348888920584,
          0.027275571641852597,
          0.02929915462092355,
          0.02091079444163824,
          0.029344078473648734,
          0.04380921098845463,
          -0.007573143949100211,
          -0.030981975810836344,
          0.030488117732663994,
          0.018077354797651622,
          -0.03535956043194598,
          0.03726081353385826,
          0.004861013831316423,
          -0.046611691445212,
          -0.0034932097772867533,
          -0.04245523668933174,
          -0.029247740680593787,
          -0.003409879889364164,
          -0.039607328316010736,
          -0.02651015060313172,
          0.011180077457263923,
          -0.014350083546873083,
          0.0068463570657335375,
          -0.0445494317182577,
          -0.009767904165229588,
          -0.031323781413764615,
          0.015299359045722305,
          0.03654710714639349,
          -0.006783435225939268,
          -0.0014797064406631257,
          0.01772066572018547,
          -0.023809950430842254,
          0.025275203645411547,
          0.016211920438528808,
          0.02810710773930449,
          -0.02378837807089426,
          -0.006628999844888037,
          0.0353500571910459,
          -0.00892406010537779,
          -0.027701700428117298,
          0.030310222575934763,
          -0.05316583322682753,
          -0.003904155387032197,
          0.027766830413955355,
          -0.01927512101065433,
          -0.048057244574233916,
          -0.008655552845560008,
          0.003954118146599043,
          -0.01661628000256784,
          0.013916024386046824,
          -0.011186195111255182,
          -0.03402478091349012,
          -0.032889513926199015,
          -0.0337630738932717,
          -0.0005214451044904296,
          0.0513394956706542,
          0.02658554975514702,
          -0.03400334925054885,
          0.03185014484440726,
          0.029994967612558494,
          -0.04809950073740722,
          -0.042807452728567716,
          -0.04150035649896716,
          0.03921839851312207,
          0.006697498213947561,
          -0.0005436479699759431,
          -0.011926625756288124,
          0.03161739560177088,
          0.017675124781059894,
          0.006182244740498708,
          0.03431892572095044,
          -0.0177335544024894,
          -0.021085710292728717,
          0.027152907977848115,
          0.0278166270471142,
          0.04248163563559266,
          -0.03471594138077033,
          0.04580821077862165,
          0.04308019938547351,
          0.012445662935049768,
          -0.039510724940618386,
          0.031663049541394164,
          0.020959664157598694,
          0.0330678821129077,
          -0.01170582135700946,
          -0.016619987772550016,
          0.03070626382447949,
          0.014501607343238177,
          -0.02751037471043849,
          0.023225301323743033,
          -0.04774102604625702,
          0.011929748101917045,
          -0.0032462220124554048,
          -0.008503932230553667,
          0.02480413157564009,
          0.019960239132018765,
          0.044665464236059264,
          -0.023678775277628065,
          0.02169219906306615,
          0.03859429953478275,
          0.002924650414595535,
          0.011817381462143459,
          0.026221846491062056,
          -0.03734612873021353,
          -0.035379785896180425,
          -0.03995467258395192,
          -0.05061115435575711,
          -0.050541514903528345,
          0.0032384123520774505,
          0.0032557266337928078,
          0.02809120926044276,
          0.025744166219034116,
          -0.002993870033531505,
          0.051931531541687476,
          -0.00023214547760567024,
          0.014013997305566338,
          0.015405932676533545,
          -0.044536390816550774,
          0.04856318970883342,
          0.020769707931582542,
          0.002537875044204804,
          -0.04956555797879785,
          -0.04361001422331262,
          -0.016833818832310634,
          0.022502792311043678,
          -0.04046348059039122,
          0.04413360992275311,
          -0.003961355996314345,
          -0.0473082375847776,
          -0.023696906288603443,
          0.040639465903687416,
          -0.0206021915277077,
          -0.038405948573194855,
          0.0326580055525313,
          0.03254134204455799,
          0.039898809943988985,
          -0.034569647114912096,
          -0.00755004937825777,
          0.01566742538879306,
          0.0030255292973168273,
          -0.039905330490229804,
          -0.027975119214686803,
          0.041713300411714484,
          0.008718411852363559,
          0.03730925947544434,
          -0.028449043985556602,
          0.010144262158982596,
          -0.017300005003870175,
          -0.051317187704676026,
          -0.03959451873038797,
          0.03855533484093517,
          -0.004551440102679991,
          0.05066016009849529,
          -0.021491126208076076,
          0.04608847027978954,
          0.015342248364275644,
          -0.02579180748847947,
          0.033129495262750684,
          -0.008800018488590492,
          0.007271836313534286,
          0.019573400276498374,
          -0.037693252605064204,
          -0.007570454420145605,
          0.024826157834309224,
          0.0036743116810800435,
          -0.029655548795355636,
          0.013461666632743254,
          -0.02778947115045849,
          -0.015528203408710145,
          0.05323552959606252,
          -0.017507230576032918,
          -0.03124950035175805,
          -0.028901720914673787,
          -0.039034326343079725,
          0.0251982877570019,
          0.01242353151435088,
          -0.042419785341220935,
          -0.04642743753485215,
          0.03462906968960903,
          -0.047450675821731444,
          0.02609485463637794,
          -0.04563833634623031,
          0.006329276059319856,
          0.03685807847431711,
          0.036809449576849694,
          0.04138542661922949,
          0.013750228416130475,
          0.034321034608048674,
          0.017563152637754546,
          -0.025799569452343008,
          0.03382586820004727,
          -0.0033254801980646654,
          0.024399852454888522,
          0.04682128626078342,
          -0.03735491734038411,
          -0.01641237356424375,
          -0.018232649759255516,
          -0.01332281552290361,
          0.04350211854936345,
          0.012156148587743224,
          0.0378341026893879,
          0.04309653494057403,
          0.0001676246811748273,
          0.005686692978400155,
          0.014717848579262805,
          -0.029122585165313884,
          -0.010951236672732054,
          0.015047186528668327,
          -0.008846290397922861,
          -0.047709596788810434,
          -0.026333715369138623,
          0.009190867823461162,
          0.04114289044677832,
          -0.03931521647152029,
          -0.040219188489727865,
          0.03274771341105247,
          0.03928380791472781,
          0.014701633741792343,
          0.051716951974284074,
          0.020704575848335703,
          -0.03546099222344393,
          -0.04836910627583506,
          -0.04529521989419494,
          0.048265785679095695,
          -0.03078699890728222,
          0.018666080440472018,
          -0.04727631556965655,
          0.03781032374542562,
          -0.039132407430997516,
          -0.03380409906391125,
          -0.05155174433250296,
          -0.04343848955867646,
          -0.032461775371159934,
          -0.02565984545137886,
          -0.0048485921044739595,
          0.020639672236228812,
          0.022666710333035345,
          0.03155951129955197,
          0.0022752338579330664,
          0.014646815366113976,
          0.006974430553797106,
          0.014930714644662415,
          -0.04822435630197536,
          -0.008105973638560403,
          -0.006931697220858388,
          -0.02205033683421833,
          0.036784928984511064,
          -0.009916520667172418,
          -0.001685825820127146,
          0.047393474239036934,
          0.001947819681345819,
          -0.03522953611496054,
          0.029342549995262895,
          -0.02608984699473034,
          0.05104166181166312,
          -0.0179825260265079,
          0.016693908520501996,
          -0.011800996044949644,
          -0.0441803728902916,
          -0.020412092246601628,
          -0.04782399740802612,
          0.03561887323182455,
          0.005528753639122876,
          0.03203546469538694,
          0.04245112106263126,
          0.03162202186385187,
          0.030050200060352375,
          0.024608407585811894,
          -0.038373203669124306,
          0.02389164469323973,
          0.0451039639003289,
          -0.0003352030226413083,
          0.003095584202408629,
          0.04012948387561136,
          -0.015160320860161815,
          0.0023825669952389867,
          -0.04881039232068107,
          -0.03129594575881611,
          -0.007399466417645137,
          -0.0000833101852014092,
          0.003462489077340387,
          -0.03564122039697449,
          -0.03260043671452284,
          0.049009456259661154,
          -0.028768395770171734,
          0.022037613423321372,
          -0.014118976725578433,
          -0.018370216834775053,
          0.042930893071195776,
          0.025148236896194706,
          -0.01617330957480141,
          -0.013853156947081268,
          -0.05289225985083378,
          -0.0059574811641529305,
          -0.012549616862789308,
          0.03608552974082677,
          0.006758518703338364,
          -0.016714532030039284,
          -0.0016676417920360321,
          -0.03568284898688169,
          0.02456831710367049,
          -0.031108164466295222,
          0.026783524827346535,
          -0.02382512171886309,
          -0.002061489928884174,
          0.020958383072596593,
          -0.04942469883997383,
          -0.021377312849961902,
          0.03312306995862773,
          -0.03435396550731152,
          -0.03357358084384454,
          0.028913337533265412,
          0.046328706083133706,
          0.046221894229050084,
          0.0365415355792479,
          0.04172307380902091,
          -0.00826794302788247,
          -0.013321093848194432,
          0.016612498159156663,
          -0.007282436290089262,
          -0.025292475314534938,
          -0.018406678309465116,
          -0.015028731346935496,
          0.009808499759533537,
          0.026625683688669816,
          -0.029346305306548304,
          0.026594203709620446,
          -0.04740779058819918,
          0.025709436863928535,
          -0.03261695765517981,
          0.0071938349928002375,
          0.022107653507329142,
          0.027003452667770045,
          0.027874274607022947,
          0.035832226764754734,
          0.053083930240381313,
          -0.025126386535805446,
          -0.038338177213919876,
          -0.021291710800247506,
          0.02341271119698587,
          -0.008158763770264506,
          0.026996351415826438,
          0.03635490497397267,
          -0.024431197396612456,
          0.0370094026518008,
          0.03399729672828491,
          -0.046527301333594506,
          0.016803988011410337,
          0.01240348040430634,
          0.028505128499267302,
          0.00836453278099819,
          0.0036540742879071107,
          0.047049907932701494,
          -0.011202937535015372,
          0.042116561489025796,
          0.004372776451138402,
          -0.04956669967765236,
          0.029507266006473635,
          0.04911432447986041,
          0.04762376251951871,
          0.028300925355653674,
          -0.023350020014244553,
          0.028147612826798164,
          -0.047907662756852785,
          -0.044682824858658585,
          0.03201883344939516,
          0.033707010181113085,
          -0.036019856262989265,
          0.011440972814255695,
          0.018702598836861106,
          -0.01331251058043208,
          -0.0024935062059068718,
          -0.03146089940091302,
          -0.032724910170331335,
          0.015434908233446672,
          -0.01793459469151285,
          -0.03464314080926256,
          0.00008322268077196291,
          0.0031420322012144335,
          -0.03282532364083075,
          0.043394789578942244,
          0.001336046791125392,
          0.013212606014362105,
          -0.040370497752530314,
          -0.05324771510166867,
          0.005179052030646885,
          0.015271061259876534,
          0.015807752770729516
        ],
        [
          -0.05095497573968807,
          -0.020129704169607625,
          -0.021469824558135696,
          -0.02640626254738816,
          -0.02705458745359969,
          -0.03845406254061423,
          -0.03173585700481887,
          0.022517142604628202,
          0.01749823509885324,
          -0.001245609126520168,
          0.027968278468835955,
          0.00004207845739427431,
          0.013991806406365085,
          0.04668178842583107,
          -0.04918883538597245,
          -0.018291505571962637,
          0.03636668578807347,
          -0.018511818149724354,
          -0.05195139685929009,
          -0.04595973297444747,
          -0.03443348340479482,
          0.015114748737675262,
          -0.014159082149700627,
          -0.04012423566831587,
          0.013708258315719628,
          -0.013569823090900568,
          -0.031592200810152425,
          0.005736240301810842,
          -0.04939697128575055,
          0.02564105866742464,
          -0.02429301812630366,
          0.04281314561299138,
          -0.008191597893397509,
          0.03690860511035907,
          -0.016172103355206944,
          -0.003840359624294729,
          -0.006356692871464202,
          0.036099445227652356,
          0.03366891780716357,
          0.028082161425586078,
          -0.043555289320872256,
          0.03542594942253107,
          0.01452194199137699,
          -0.03655990823451203,
          0.00664668877921605,
          0.012515970425334937,
          0.003936691532324357,
          0.03352147377744633,
          -0.010179529702992712,
          -0.022325984447335943,
          -0.03847491982265464,
          -0.03414022618474836,
          0.05086735561801647,
          -0.007047901116762708,
          0.0019065323472941052,
          -0.020673590943834124,
          0.02113487118819237,
          0.02836326265065714,
          0.0421926191182033,
          0.026809976961976956,
          0.03195879035447317,
          -0.006950322632431201,
          0.01856093203542963,
          -0.04159242622177748,
          -0.037258361778221935,
          0.004897170147824938,
          -0.03674288505807383,
          0.04037141670473073,
          0.03418611850437689,
          0.02178434845326029,
          0.02750356309559428,
          -0.020438842066352488,
          -0.034727358101615875,
          -0.006087152508672358,
          0.030132224609469852,
          -0.05243873663967028,
          0.025329340542811923,
          0.031755867046568395,
          0.012215758694700601,
          -0.013331131045835018,
          -0.03820239131528487,
          -0.00012364623500050396,
          -0.020899118589959166,
          -0.046142319447681664,
          0.022758974511987384,
          0.015134590860204165,
          0.009816567879481002,
          0.03715491436378664,
          0.023419879935867947,
          0.044112772770783855,
          0.009107402126612315,
          0.024085357126382313,
          0.021522074377185785,
          -0.0001750053201843329,
          -0.014175351408563571,
          0.004023740594940045,
          0.03732892336416317,
          -0.049713589327026575,
          -0.045621547789615816,
          -0.01349659598829023,
          0.013308268258704703,
          0.04926460608468391,
          -0.012011418405964643,
          0.04757020757578264,
          -0.006489787417047525,
          -0.038965660590529035,
          -0.01218444527806155,
          -0.04896134186923215,
          0.005625149064450096,
          -0.01935994601172454,
          -0.027746033096254574,
          -0.02344657723598646,
          0.03515626139312508,
          -0.04942406531454607,
          0.0025503997177718507,
          -0.042363599917349656,
          0.024083684450253752,
          0.025804796743223495,
          -0.0317534441300954,
          0.031082047602265638,
          -0.05037788381696448,
          0.017518786306456757,
          -0.034702986157189336,
          0.011147026283102776,
          -0.025468459694307534,
          0.011365067837078328,
          -0.050121692177511466,
          -0.021768814910711996,
          -0.030527523870733233,
          -0.019018496982051023,
          -0.03413194058393044,
          0.046250827306111617,
          0.030609787671510864,
          -0.006271741987016685,
          0.026270674481528138,
          -0.001631564886143188,
          -0.046770442561336334,
          0.000843311194246566,
          0.04738315049704694,
          -0.0006469891444826729,
          0.019318187951778417,
          0.012457325147813055,
          0.03328823828662383,
          0.049914600480712,
          -0.05196250724711443,
          0.005582471077493514,
          0.02667835547430956,
          -0.050879272295858646,
          0.03139192475073506,
          0.021868981467030743,
          -0.012720865847244977,
          0.009907031037746844,
          -0.012140014027295368,
          -0.000699491348880029,
          0.008313215788374703,
          0.03268349098430396,
          -0.0361530303749827,
          -0.034126940160638684,
          -0.037718858367346016,
          -0.03378324168790637,
          0.03361189038440309,
          0.02899853609133259,
          -0.05217993866047533,
          0.025412805237060576,
          0.0003885426915128268,
          -0.05240931160860163,
          -0.00924673394684938,
          0.018487375995620833,
          0.03828156087302904,
          0.028914937701079516,
          -0.04841712230081726,
          -0.050608069782096386,
          -0.05089639284712445,
          0.011606366873559495,
          0.03497649272365845,
          -0.014275431129381394,
          -0.030316673715968544,
          0.02487905852290483,
          -0.006997944928041252,
          -0.05300308670559756,
          -0.05110923010020272,
          -0.03337367058974329,
          -0.0315284291770212,
          -0.03530674823618411,
          -0.027647516505183482,
          -0.049268261689182476,
          -0.03040149432763389,
          0.03397924708911395,
          -0.03150483463318722,
          -0.0021198359106487283,
          0.0068562885544594405,
          -0.0523499453028096,
          0.01082780652344925,
          -0.018966501876685953,
          -0.04201428610946214,
          0.04641473283877053,
          0.02409551736152008,
          0.019161626391364803,
          0.04576594268443321,
          0.04779738773944606,
          0.007065301756570727,
          0.02386698816824563,
          -0.052664319261726246,
          -0.04241256220059056,
          -0.0019926725324044617,
          0.04872868668087997,
          -0.027603047735688863,
          -0.04663873967640231,
          -0.023172530640009018,
          -0.02735259348960381,
          -0.04647731789959405,
          -0.04245428725010218,
          0.007892767526275006,
          0.045940844873407834,
          -0.020098693920890594,
          0.04354192465026871,
          -0.028658465908889288,
          -0.0017200368359880005,
          0.03303517069086092,
          -0.004713550191400517,
          0.025418505302904765,
          0.0006158213257658097,
          -0.028686366803173678,
          0.01501854498341858,
          -0.022089190136429127,
          0.002404693412037353,
          0.019728041501581587,
          -0.010297660209516135,
          0.0483998692061097,
          0.04831425922642032,
          0.02734391705058955,
          -0.04622129803174909,
          -0.002108512678265183,
          -0.0033130373765077924,
          0.013457264310936743,
          0.03189038666738171,
          -0.04795061696820878,
          -0.006227387416956418,
          -0.03914828708629993,
          0.028909332123820443,
          0.05273781149043737,
          -0.05301707282011021,
          0.052484138025017314,
          0.04087207435177055,
          -0.05163382295032931,
          0.022925870535250265,
          -0.016929943382413187,
          0.04305415434326863,
          0.03276946819252339,
          -0.04217104418348984,
          -0.004680320974148898,
          -0.030883647478008498,
          -0.0073241237710565356,
          0.014285852257896553,
          0.030510844947479777,
          -0.018864847026339303,
          0.05140149309465039,
          -0.040184218612760864,
          0.02746836905821338,
          0.039368313697706214,
          -0.006385462404153043,
          0.03451921926808319,
          -0.025072741220526298,
          0.020169607370815138,
          -0.028235714531375935,
          -0.02977429437677186,
          0.019896816901096306,
          -0.020048388428343923,
          -0.003688201759947313,
          0.04543861458093726,
          0.046568786536042926,
          -0.023769594382536993,
          0.005585872527484164,
          0.023673850572138548,
          0.0028559238920241145,
          -0.010759789843949506,
          -0.02128249135177992,
          0.016934764720357716,
          -0.03156519659483274,
          -0.044608107419957736,
          0.0019576756266090145,
          0.03675081244774644,
          -0.03522278458782534,
          -0.00710806108088054,
          0.05035050299714257,
          0.016706657165274533,
          0.03926302434183647,
          -0.03646147407205209,
          -0.05299171156351116,
          0.021770688700729172,
          0.0077865250358304,
          0.0012564364833675666,
          -0.020233457468688786,
          -0.05181017202242972,
          0.003165041173011159,
          0.04433130668612906,
          0.03578571499800653,
          0.04966342077243392,
          -0.020528047944792932,
          0.009367509749499691,
          0.03241125206008151,
          0.014569133456983286,
          0.04751449946047821,
          -0.009987503125135043,
          -0.042378913799033587,
          0.0396421616554744,
          -0.04654997533001583,
          0.03660774621963929,
          -0.022719256776444357,
          -0.019550791384538177,
          -0.02222307282310633,
          0.016689936831343868,
          0.05312634496005413,
          -0.008275717833835131,
          -0.028748855499080427,
          0.05131288577571569,
          -0.03330788535129432,
          -0.03053685757104456,
          0.027694829068827045,
          0.022011890014441357,
          -0.022402253253724934,
          -0.04899899921011181,
          -0.041666468150935033,
          -0.0410934286422836,
          -0.007016567853282761,
          0.04751554006820209,
          0.015494477016410576,
          0.020137746164073603,
          -0.003244233072119417,
          0.04900696948208893,
          0.040342076113787574,
          0.023721164430159692,
          -0.005976174578561322,
          0.023528397555553447,
          -0.001018504724505526,
          -0.025299896838065807,
          0.01662694596130713,
          -0.031064383989464074,
          -0.0477767590392375,
          -0.000857147178838672,
          -0.04591229334554992,
          0.0237504323520642,
          0.02045269760610226,
          -0.04244606703195342,
          -0.0035386916043407966,
          0.011886373904305466,
          -0.04546433746888718,
          -0.04557540784691773,
          0.022039967185913986,
          -0.05111044724663577,
          -0.008151046729098133,
          0.038190402816977595,
          0.02866712063498453,
          -0.024946115116495814,
          0.034561877161616295,
          0.05126812579855595,
          0.011098375754201641,
          -0.01580811132288589,
          -0.019312651191170732,
          -0.009550303525316892,
          0.04949839816830219,
          -0.031192035296925703,
          0.01446789595786311,
          -0.0016278514524885046,
          0.005792426673317695,
          -0.0022550855047146086,
          -0.040455247041300386,
          -0.010831948757315274,
          0.031568837435583384,
          -0.04839458426635555,
          0.014892843332481013,
          0.049684014806547605,
          0.006557872212415002,
          0.0047507165802008295,
          0.04984563935826507,
          0.04811598302641461,
          -0.01500363962308585,
          -0.038741801892623634,
          -0.014633572924631865,
          0.031592207243072004,
          -0.02430304606942534,
          0.048285794955154976,
          -0.023945448436286956,
          0.035156765900457104,
          -0.036954759298904793,
          0.04131708653564158,
          -0.03866208154880704,
          0.005496488220693593,
          0.0072648476081900335,
          -0.04142006932892997,
          -0.04844320569758113,
          -0.025658982240564353,
          -0.008737442562626993,
          -0.003932129822738809,
          -0.03911752303913995,
          0.02274462705061299,
          0.04231758545497324,
          0.01958508701841856,
          -0.04352816655471569,
          -0.009038099290651313,
          -0.025620656751646632,
          -0.03906612282949391,
          0.047970821675240784,
          0.040825120325403856,
          0.03854416258760514,
          -0.007395704897471723,
          -0.02322344422601468,
          -0.01524707347563899,
          0.006762589755419183,
          0.03854299715519614,
          -0.03174937408085879,
          -0.031397542645946436,
          -0.015441986564108333,
          0.0447374857173375,
          -0.0025114486816357204,
          -0.0016875653002691587,
          0.02681374963857167,
          -0.006288192716155591,
          -0.044994701332142784,
          -0.00024642733140703665,
          -0.014419599187618728,
          -0.05009457029464593,
          -0.03562869598005916,
          0.01794858947345475,
          0.024422690281031962,
          0.004552128145934437,
          0.019518582699888203,
          0.012338627367534173,
          0.010596609697747008,
          -0.0012443371235202937,
          -0.03728414362513429,
          -0.040130940658921095,
          0.018123448724100003,
          -0.04819791816614691,
          0.014718666145686189,
          0.018358128393903366,
          -0.04615077034678201,
          -0.041769193905034516,
          0.030099491680067987,
          0.0011169321170681782,
          0.01173228290171518,
          0.024474581222246928,
          0.04051695198279512,
          -0.04689100695746337,
          -0.04394752744146016,
          -0.038188433911888094,
          -0.030982479843894163,
          0.0111030756747056,
          -0.04367928267050343,
          0.021965455492593437,
          -0.0069524141828764974,
          -0.017150783042778634,
          -0.03727468439812957,
          -0.02998963265117758,
          0.006813954416568571,
          -0.04454144044276558,
          0.005813975318542791,
          0.016793361496848583,
          0.04589020948721943,
          -0.0448138867577026,
          -0.022655970325767223,
          -0.028848525679080275,
          -0.03910683494005764,
          0.043119172142126384,
          0.032643994103570634,
          -0.012245021807758712,
          -0.003564640887344348,
          -0.03439965572906758,
          0.006961418795010995,
          -0.049467893048869734,
          0.0239767103154735,
          0.021191448955630153,
          -0.005000011912467762,
          -0.04786001803957923,
          0.0018692466530416331,
          -0.0023083131354024954,
          -0.04466599905624138,
          -0.015298124086301202,
          0.0175991945161629,
          0.036386466784680174,
          0.045169003492660835,
          -0.023552733784537185,
          -0.018479195372738077,
          -0.038085438217273344,
          -0.019893121193688582,
          0.0032363336560344504,
          0.044955369222463834,
          0.03579938862260097,
          -0.002483371123447655,
          -0.009549510663281349,
          0.015544170598299314,
          0.017424825077686862,
          0.048138340620600406,
          -0.03591182457282547,
          0.007668725849655535,
          -0.03229988613449622,
          -0.012712432520425643,
          -0.03984805106139956,
          0.014988081536928327,
          -0.0505414082694502,
          0.04667803346708095,
          -0.03580306639925841,
          -0.0029942943328214655,
          0.042808637987916176,
          -0.028614328444830278,
          -0.0412428755654534,
          0.03275401609576622,
          0.0031673100223350795,
          -0.05084774415460852,
          0.035791238076350304,
          0.03776351564152851,
          0.00025747892428588004
        ],
        [
          -0.015139279755406817,
          -0.03061339717705835,
          0.044478196822696395,
          -0.027111318912143263,
          0.04092105131896098,
          -0.016284279931414694,
          0.02448982239297738,
          -0.013062826517626355,
          -0.025658597694492594,
          0.05229158852967629,
          -0.04963113672605865,
          0.01879245821568372,
          -0.023236305104135938,
          0.024743486517925052,
          -0.02520846247142121,
          0.024687710842943904,
          0.0023976796679294997,
          -0.004369722332613902,
          0.006621406433823393,
          -0.0031684938392995987,
          -0.04173509554290579,
          -0.01726837224861332,
          -0.04517309617690275,
          -0.006071189915905559,
          -0.050533289642020196,
          -0.03656312329604964,
          -0.01410571456539498,
          -0.044301204300929625,
          0.02314964984610522,
          -0.013917162690632383,
          -0.01746161220096183,
          0.009313215047637331,
          -0.013112118388638886,
          -0.052986437866180805,
          -0.015415861160274397,
          0.04010145863738671,
          0.035127996194049126,
          0.026921361386865125,
          0.01682873411784735,
          0.017639984657061052,
          -0.04941540573475786,
          0.049072377525899366,
          -0.048388175522077595,
          0.040896333433931994,
          0.02442286935897518,
          -0.03536082911141954,
          0.04614823662819539,
          -0.010132391685647496,
          0.00045108752517818525,
          0.04055169816686764,
          -0.04782750360140731,
          -0.023005459704132234,
          -0.023940199179393263,
          -0.007932670103344851,
          -0.0336138235407729,
          -0.010628309019051048,
          -0.00010146691851157343,
          0.03464511883735228,
          -0.010050234039490777,
          0.03826949251786381,
          -0.03107206306390187,
          0.015918090790649472,
          0.03406224558357797,
          -0.005480967968719342,
          -0.03299944743488323,
          0.0022981689069494185,
          0.04335092811110405,
          -0.043554190588383876,
          0.027334049344188906,
          0.012253403721577232,
          0.0015723667624863765,
          -0.04937310101030332,
          -0.009133660872496079,
          -0.05127781130611003,
          0.03218997902778736,
          0.012476526879789378,
          0.02915513824614772,
          0.013209528333848398,
          0.05196676278280019,
          0.010942124722226556,
          -0.0034141530081930617,
          -0.009540923511839354,
          0.03522695600066421,
          0.044125058564507984,
          0.007724530740106624,
          0.04270882126559156,
          -0.05285144981311501,
          0.049010195084356584,
          -0.046615381368295204,
          -0.04011903720426099,
          0.013393637226754176,
          -0.035878757269444644,
          -0.021401205922374066,
          -0.050663328137270446,
          0.0062631656510420426,
          -0.017170539504408756,
          -0.01847306299682042,
          -0.023271208554442528,
          0.0071772822109486215,
          0.023285069351375965,
          -0.04797416711479858,
          0.005625712241785797,
          0.015759763100915213,
          0.038287061215749915,
          -0.03880229305666924,
          0.026187543606126906,
          -0.04113346501038193,
          0.026314746085941535,
          0.000005046666738925854,
          0.04380856569999935,
          -0.0021153569881051603,
          -0.029478509176283935,
          -0.005075766426229822,
          -0.039912187511740777,
          0.026883398498019705,
          -0.014102724380169209,
          -0.013083076536062797,
          0.025811778306228998,
          -0.02798209230145859,
          0.03476700476314471,
          -0.032465011672057786,
          0.020115258692136966,
          0.049509716324422276,
          -0.019477946971121,
          -0.05088681626185252,
          -0.04606607122339333,
          -0.01124260694807177,
          -0.043185806276651605,
          0.04611533727719039,
          0.027089729744843426,
          -0.02064278675091652,
          -0.004208147250110572,
          0.01157833396033007,
          -0.03070493215640843,
          -0.008549169053732769,
          -0.004389141503222072,
          -0.036543771463629277,
          0.03201438241067044,
          -0.019372350404844176,
          0.008834913185845368,
          0.047900721136789164,
          0.021926132619268776,
          -0.030459995328333524,
          0.0324541563358941,
          0.005558580349932218,
          -0.038418073843261076,
          0.04680821214871712,
          0.0013168449210291863,
          -0.004205808421803501,
          -0.04618460109298204,
          0.03777606711188289,
          0.0031875911124534186,
          0.040056536865134475,
          -0.0313991887362263,
          0.020168289115442432,
          0.03017702851804404,
          -0.01808105889473255,
          0.002744875954868748,
          0.007116675391438327,
          0.0009276861066968865,
          0.011469948362360705,
          -0.0435083209996794,
          0.024264758054379113,
          -0.03810650323744255,
          -0.018475931614310347,
          0.009587172061690382,
          0.02169308028048012,
          -0.025102077111158336,
          0.0149216510482091,
          -0.015135026121599,
          -0.03526782902314161,
          -0.029542472112576317,
          -0.0135188722669661,
          -0.015106376419467665,
          0.016524915921766466,
          -0.02155783003127441,
          -0.028801171332547382,
          -0.041577627495548955,
          0.0008310953363498147,
          0.03255439530993487,
          0.02346675888365034,
          0.052037683414898145,
          -0.025052165484312425,
          -0.02087585279301091,
          0.004972265032296543,
          -0.0476293469247987,
          -0.019573817486409417,
          -0.029633941138132433,
          0.009449218172126784,
          0.024405621841442904,
          -0.026342442163906382,
          0.02379595697085883,
          -0.012471863930758897,
          -0.023563203392357023,
          0.011818359226306434,
          -0.05048285924679789,
          -0.019468432635123573,
          -0.020051282633403625,
          -0.03437831965646615,
          -0.006770588467806557,
          -0.04618815390272455,
          0.05175874785978487,
          -0.02322424904422752,
          -0.01664366272179363,
          0.023401831028363483,
          -0.011634691032208266,
          -0.04472637528030062,
          -0.0014423547779176518,
          -0.02180051696131165,
          0.027155933867743717,
          0.048785031847125696,
          -0.03502913548953804,
          -0.03209504498152177,
          -0.03800818712648783,
          -0.04173015057185708,
          -0.052608836084620005,
          0.009536565603232211,
          -0.016122341373932765,
          -0.036495663794120975,
          -0.031194378627970826,
          -0.04843164717102034,
          0.052346510035609355,
          0.003057097048359345,
          0.03019368072859737,
          0.020667914760453963,
          0.017562506305829065,
          0.04704701052927644,
          -0.017490010053528984,
          -0.04367541981497569,
          -0.0527149074666106,
          0.04477397567640986,
          -0.038357986527178416,
          0.03916277961311514,
          -0.035544273280338164,
          0.042004703067720736,
          0.01811050998273486,
          -0.02182426931599244,
          0.02832754018478067,
          0.04268461037254149,
          0.05079427193078818,
          0.006732701712352894,
          -0.019752559840898784,
          0.02064311491983454,
          0.05302909880937593,
          -0.0075850272668955285,
          -0.05036307955065961,
          0.008665200617257467,
          -0.02599732469547868,
          0.0031798362575050005,
          -0.03897437472867061,
          -0.025102337332943116,
          0.0009812404404277888,
          -0.044238041177658054,
          -0.0021498096202259166,
          0.012507821147836107,
          0.013918817989271252,
          0.05047509024904434,
          -0.0026973078394411966,
          0.022838757561018094,
          -0.04759114785572212,
          -0.04579157880941749,
          0.03444555640776057,
          0.042541797345395885,
          -0.04135500367453847,
          -0.0457300955596262,
          -0.00021509847674647226,
          -0.042969545264389536,
          0.036010680035154605,
          -0.0279946086044422,
          0.02285526681582734,
          0.05002229611857342,
          -0.01455074468588164,
          -0.025616238818727197,
          -0.0008853950823292195,
          0.029254682996757122,
          -0.045010166418269895,
          -0.047417685805181,
          -0.04951902428212373,
          -0.025146670006317057,
          -0.050973296639442736,
          -0.0284614718290672,
          0.04958032479434378,
          0.025222912791460318,
          0.008081671466287925,
          -0.0038566206842157837,
          -0.01917272438879735,
          -0.026730719019375584,
          0.022555230201073327,
          0.04791990049514122,
          0.013161773707922552,
          0.04517337414544962,
          0.008514968446425245,
          -0.03191563220019449,
          0.042086416389303986,
          -0.03954342696691028,
          0.0025351364566185636,
          -0.03330847440960105,
          0.034893486871808516,
          0.03173504844463209,
          0.028906768581988974,
          0.0054976982000368504,
          -0.03032533057574538,
          -0.02854573675260009,
          0.04802393271826984,
          -0.028023391558570386,
          0.021241765036792294,
          0.005699147739235199,
          0.0378425051313471,
          0.02745232475874166,
          -0.006046241913435572,
          0.036359669380009146,
          0.016547889934595973,
          -0.009703530798388083,
          -0.04494399463398482,
          -0.008165315003256202,
          0.03443766319326465,
          -0.014121161630897328,
          0.02491503924541655,
          0.03394623579597757,
          0.035431740894146954,
          0.005394206456982295,
          0.025124979974980192,
          -0.0076053694949144105,
          0.041630385164858105,
          0.05199512396341209,
          0.019049654901293348,
          -0.04106131301959813,
          0.017952904794422898,
          -0.024821889354027238,
          0.00636052741336615,
          -0.03196714085334022,
          -0.03477472071521353,
          0.04876983866681425,
          0.011531628328984975,
          -0.01658182311933799,
          0.025627172521089932,
          0.02529556187118366,
          0.025877188078077137,
          -0.011119316812271511,
          -0.041970763000954016,
          0.0448535210383825,
          0.022598963074878322,
          -0.028945282497805303,
          -0.05103521863214787,
          -0.007004115515899315,
          0.04303632463600791,
          0.014103701695735374,
          -0.0024109245871008914,
          -0.03886654840589607,
          0.024491765183573995,
          0.008238856183068901,
          -0.022958342669707834,
          0.027282466773799953,
          0.049605329946169334,
          -0.017967283702834378,
          -0.029721316982430305,
          -0.020654481047678683,
          0.013855731245061067,
          0.010760829452950345,
          0.015877506494497404,
          -0.00601719337952817,
          -0.0478985598953063,
          -0.010393771496351038,
          0.023963973294966388,
          0.030167469626907823,
          -0.043311778533263505,
          0.003240290771571255,
          -0.004687611860940022,
          -0.014719317992318041,
          0.04077389015411258,
          -0.0009608617450561043,
          0.012011622282169473,
          -0.005236603593119196,
          0.0501053622260704,
          0.03128619870222932,
          0.04110963957267593,
          -0.044315841471852066,
          0.040211156590540136,
          -0.01076718282781908,
          -0.052078385610077854,
          0.04952619974474873,
          0.05002104570048789,
          0.04800849272294494,
          0.009111085512907286,
          -0.014847697512137614,
          0.021971342578020275,
          0.017336720419351224,
          -0.02045452210361262,
          -0.05057709974485827,
          -0.00007408343379653988,
          0.040879044501642176,
          -0.03311762826157703,
          -0.048525522410694945,
          -0.04523654868815374,
          -0.011806601944741526,
          -0.024299114473767265,
          0.029126905451161415,
          0.04352948531869156,
          -0.03603885680479285,
          -0.027956319613145764,
          0.028476242183233323,
          -0.02152330282975897,
          -0.021425668384074947,
          -0.007121978435391204,
          -0.03678261608412555,
          -0.04028023048636157,
          -0.04673237755486392,
          -0.04801813663154411,
          -0.04153429781150964,
          -0.04168416134133581,
          0.007836001837142061,
          0.019603070570944556,
          -0.0524708554320673,
          0.03208561980158569,
          0.018585157030220734,
          0.015779887402465113,
          -0.03144113811217391,
          0.04435470228681013,
          0.039229341750869784,
          -0.011548598551024216,
          0.024325282391444318,
          0.032662865333967235,
          -0.013264262584758067,
          -0.01683393524504701,
          -0.023366883496791717,
          0.005640636273678492,
          -0.0002462799751747333,
          -0.026926600037692164,
          0.00863420434620431,
          0.010589843239536267,
          0.014189663592938837,
          0.03122594734319925,
          0.03233400878719313,
          0.05283005544640151,
          0.02871208724389706,
          -0.052829061632014514,
          0.010337380420560456,
          -0.00632370941158335,
          -0.018267652409981468,
          -0.010746069374093196,
          -0.017493640029891785,
          0.00021886182143324092,
          -0.028366590139475994,
          -0.029914717470676512,
          0.013440769689791583,
          -0.04512029322851884,
          0.037316436235657904,
          -0.032427669821755045,
          0.027949599087700585,
          0.03480524089918984,
          -0.028889549344993107,
          0.0307448977061728,
          0.02579223117318863,
          -0.011052579988845544,
          0.04407225610610462,
          0.01818118742805384,
          -0.04324433906705366,
          0.03518948862038154,
          0.010975550767811553,
          -0.015521718645206973,
          -0.013796977446400472,
          -0.051445596910359465,
          0.00516422543589462,
          -0.03149287777458893,
          -0.045899073662118026,
          0.011709682548059196,
          0.05038797455788486,
          -0.013523473425904053,
          0.03689216346170851,
          -0.007275545500962226,
          0.03620816720885851,
          0.0311591745123951,
          0.04959082309027548,
          0.042824947749603166,
          -0.004694188077563998,
          -0.028639301955662153,
          -0.035438537721546634,
          0.02222745658113658,
          0.033537937022771476,
          -0.030130624625706717,
          -0.028105662787035964,
          -0.009956049336561783,
          0.02798729579226566,
          0.04871584925788844,
          -0.02382109667790907,
          0.021761696870098164,
          -0.009325373490907727,
          0.004893950556583826,
          0.008733269328501887,
          0.008278218505117478,
          -0.03262435731237083,
          0.009340836405506828,
          0.004491913336158047,
          -0.025198020685883712,
          0.038394138422400775,
          -0.042382458998737216,
          0.017371224277984453,
          0.01043211421236097,
          0.005209552670872216,
          0.04110451001028131,
          0.042349114697396155,
          -0.05092996699508773,
          -0.003237508542671977,
          -0.04174310352488004,
          -0.006947718865649086,
          0.051181854572916456,
          0.026729631616329706,
          0.0014780606550160592,
          -0.011573774665997317,
          -0.04392452676247642,
          -0.01211379177787597,
          -0.040885957261888824
        ],
        [
          0.00654323394237728,
          0.010779631594456291,
          -0.012622109465360958,
          0.026805241282558193,
          0.04879463677484048,
          0.010480753228240021,
          0.034213855211500735,
          -0.015264475803021758,
          0.01608473902845071,
          0.02666662540821134,
          0.05301563472817801,
          -0.015741749365910534,
          0.04787171094082216,
          0.04515974844418881,
          -0.006755956871332827,
          -0.010739513961785305,
          0.019447813654803747,
          0.013482410083426082,
          -0.005424463389395266,
          -0.003545518380703283,
          -0.018537112624332178,
          -0.007955596170933756,
          -0.029830483909145496,
          0.04221130102132481,
          0.0000748278745579973,
          0.007595664962275,
          -0.038587254630654634,
          0.0007521234819658979,
          -0.03325989288754346,
          0.007617702407136771,
          0.0016598629441603877,
          -0.036131608086590064,
          0.038669558347713115,
          0.03534065658304079,
          -0.03979014554905262,
          0.02599294993432233,
          0.04511827259950273,
          0.0029668769582432307,
          0.03161819354082205,
          -0.01773412547004936,
          0.007107574084299458,
          0.03070588395646033,
          0.009818350628204162,
          -0.03973150769342541,
          -0.049718603774991696,
          0.051906327054060585,
          0.030592012140795457,
          -0.045683607475260596,
          0.008006040435420502,
          -0.01640740109850373,
          -0.03177381780987998,
          0.05147053670712679,
          0.0067931751861090945,
          -0.03128981251018866,
          -0.015230648580405612,
          -0.03785398998845966,
          -0.04095665376787367,
          0.05301624698110175,
          -0.03144635338741999,
          -0.02827876643029711,
          0.016518219539346644,
          0.04338950995040394,
          -0.0045710139547643636,
          0.05079027580493245,
          -0.026442650740942562,
          0.026579587245040455,
          0.027496314581801806,
          -0.03767566203224792,
          -0.03807893727831335,
          -0.042335623487031356,
          0.002430951596754331,
          0.03489053740271624,
          -0.028465043499554723,
          0.016398571244271982,
          0.045983060623666784,
          0.05106527549436788,
          -0.010331371986232284,
          -0.028590694929029076,
          0.032096665100451366,
          0.041749315432589036,
          -0.0249544505191333,
          -0.040808257892874164,
          -0.005316502358012328,
          -0.027015077561637502,
          -0.00632863586107672,
          -0.022396105408166077,
          0.025208859123956356,
          0.04428026830088195,
          0.030236644642977265,
          0.05101231139747337,
          -0.010052514555512445,
          0.004502180137293617,
          0.04832935214246936,
          0.006602325016714546,
          -0.03760510828320936,
          -0.04200421055493999,
          -0.01618047171529207,
          -0.04953030607746891,
          0.03410021948708698,
          -0.005652819409759124,
          0.02466175949487665,
          -0.011057096262858153,
          -0.0036513992025501174,
          0.038262533168062295,
          0.0151944446166716,
          0.026468759443353668,
          0.03762562019466742,
          0.04547036743810873,
          0.04471076563664222,
          0.029869455886860855,
          -0.04971013540353614,
          -0.050672129530885984,
          -0.04672413290695395,
          -0.023068012198491895,
          -0.04888373546967793,
          0.04578773279559543,
          0.0028827077691935448,
          0.04236605428663253,
          -0.028108312180081908,
          -0.050109683600129344,
          0.01863167097696195,
          -0.015017260733921949,
          -0.017344969227911934,
          -0.05107752911588928,
          0.025274169492750565,
          -0.023664669907393236,
          -0.04160274452972638,
          -0.008079090970108964,
          -0.041683152644798514,
          0.01849099867585892,
          0.0116702433415032,
          0.017104236458786094,
          -0.013176436074457582,
          0.03183044342274902,
          0.018937017286304206,
          -0.0018884470219682787,
          0.03206683412746513,
          -0.004517761683589821,
          0.016452830995864816,
          0.04972660833913485,
          0.04812276907539687,
          0.012535684969428338,
          0.05070456436933224,
          0.03774225174181263,
          0.006797627403481051,
          -0.04938292192804252,
          -0.011233018419439814,
          -0.0001003521486341093,
          -0.047538012562836233,
          0.01844800850858413,
          0.007696732728504701,
          -0.05123606856582029,
          0.028259429030623777,
          0.041053147582140126,
          -0.046664467746260374,
          -0.01595425717597503,
          -0.025192064428356795,
          0.004898782472538326,
          -0.004809125397784837,
          0.007897772229901553,
          -0.040132875996378464,
          -0.02016397921385551,
          -0.051700637352796015,
          -0.018953459551676287,
          0.014934684336178025,
          -0.006190766093316177,
          -0.011023280370310985,
          0.023173192886602453,
          -0.015536758857718387,
          -0.040231933260972956,
          -0.023939919613029836,
          0.012123536507946512,
          -0.04932846213322705,
          -0.01149563740318154,
          0.019066467930393207,
          0.028675515417737683,
          -0.030736008632157467,
          0.01772133442104935,
          0.013267605896785686,
          0.023372538336995534,
          -0.03961865607557011,
          -0.007822283259000345,
          -0.04037895717448972,
          -0.0038135822891520207,
          -0.00022432189671241863,
          0.001528431840142165,
          0.02007319581568617,
          0.01666963141384836,
          -0.00023183511709318124,
          -0.03359837156055046,
          -0.04617031314111525,
          -0.03793049366514957,
          -0.006533687725457946,
          -0.044312604860634666,
          -0.048321263300369406,
          -0.03835104231021285,
          -0.017603738957149884,
          0.03807923512520018,
          -0.041322542822283266,
          0.004951516192982679,
          0.05021293771277582,
          -0.031321125571957514,
          -0.03128929658251933,
          0.035897188897695206,
          -0.04577647844488542,
          -0.002162456136982156,
          0.018145499106435523,
          -0.018711219397874537,
          0.016145814792806044,
          -0.04636423800567386,
          -0.036452943994780024,
          0.03119692287059856,
          -0.006460017051390251,
          0.0237128831819626,
          0.029318997977172332,
          0.03605552521110868,
          -0.006359717269761078,
          0.031038323483578135,
          -0.015206047890825983,
          0.03312197491015892,
          0.023595681659292437,
          0.03189287296441778,
          0.01989941168684721,
          0.03566750742289882,
          -0.038285824491487,
          0.016704205939082128,
          -0.018791375312084576,
          0.04239060012627075,
          0.04244405151330448,
          0.05152800647422396,
          0.008779069094677738,
          0.04888881745870396,
          0.025446117188368755,
          -0.053219303359915655,
          0.03076895764887256,
          -0.021694771059404348,
          -0.017994688552945507,
          -0.010811470637616049,
          -0.010339963920416629,
          -0.037730879804631086,
          0.027069337539451555,
          -0.004007916375028139,
          0.03187750612431769,
          -0.030557792856109538,
          -0.0050876437186550055,
          0.03904710739879451,
          -0.05191036166506397,
          -0.04764876031187672,
          0.03425936042686598,
          -0.03069974654141766,
          0.04227375087154217,
          -0.015574818538546368,
          -0.04380764439474895,
          0.03156122344017413,
          -0.024572999678706103,
          0.010555530912488311,
          0.03799793537535159,
          0.03709543811403654,
          0.031391133424161416,
          0.049175266523868985,
          0.03076681638209378,
          0.0006105915734095419,
          -0.03793314552502146,
          0.038900255037721584,
          0.01709443516049566,
          -0.027248049139113963,
          0.016969059618857137,
          0.0019572236336090018,
          -0.04353257787447216,
          -0.033474855170365546,
          0.031075055523288424,
          0.05146600708583786,
          0.002143374802358029,
          -0.008376072858141105,
          -0.03868671043970617,
          -0.006368983205299711,
          -0.048450794525674516,
          -0.04223616913054315,
          -0.015560690583805447,
          0.030292761002660335,
          -0.04715673520898181,
          0.01602938644622288,
          0.04582475796273539,
          -0.04312278992326149,
          -0.037541258716503975,
          -0.009857488660494601,
          0.00003861635990623845,
          -0.007835517608432478,
          0.03124975158029613,
          0.03777622905284023,
          -0.005993124017722973,
          -0.012638358579890416,
          -0.05267349537096166,
          0.03321442785475192,
          0.030795041250471646,
          0.022095677898505778,
          0.04083834174317271,
          0.00806850521486581,
          0.02654068605723276,
          0.01717131971525441,
          0.045702543757607,
          -0.046187175303346,
          -0.029744049123759254,
          -0.02109220899326648,
          0.008221775115144008,
          0.008107893353501806,
          0.02404831338714403,
          0.027620604908316235,
          -0.04310666279588727,
          0.05187149917761894,
          0.01826757672653659,
          -0.03584980201466962,
          0.011082181275939035,
          -0.04770026957258611,
          0.042218820866245635,
          -0.02458640541937821,
          0.026179395927670362,
          0.023538548710005703,
          -0.004632720027919394,
          -0.03416604070965982,
          0.021096597158452107,
          0.041732864123676446,
          -0.04248433973651195,
          0.007059975488987501,
          0.052359290144187325,
          0.04370501894342742,
          0.04015351250622002,
          0.043600209886104344,
          -0.014913979862150222,
          0.04568693059130444,
          0.03422189472841749,
          0.02586930621659072,
          -0.010364099653610839,
          -0.011175379232578275,
          -0.026798678243652355,
          -0.03516870071769909,
          -0.04224233650471529,
          0.029138165366259513,
          -0.014069839757188417,
          0.03472983497888168,
          -0.049689594835012535,
          -0.008705361143842566,
          0.0028609205212622693,
          -0.03629377745479954,
          0.021455631786847715,
          0.03224649927112303,
          0.01994017761853864,
          -0.009422988853569377,
          -0.03767332961930299,
          -0.05309521193618473,
          0.015238279649872278,
          -0.03923914548732006,
          0.017124385535254052,
          0.04918868087499264,
          0.01020910095236945,
          0.047865716294361205,
          0.026414269643146897,
          0.03066812239500622,
          0.03739094519225928,
          0.007178781269329551,
          0.05160846836607448,
          0.05115429153466993,
          -0.013573908724582,
          0.020449609372937095,
          0.038451337441554864,
          0.011651611153151388,
          -0.0440759221505106,
          0.0029975688507627427,
          -0.034731130863295386,
          0.028776673961460598,
          0.027727823505226092,
          0.003485934393748514,
          -0.011397060311982864,
          -0.00907106694566337,
          -0.0021350746340948637,
          0.009589908091875354,
          -0.04235821187131551,
          -0.04911577618423415,
          -0.008722697177051217,
          0.001435491723598049,
          0.02872853370543402,
          -0.018345165316844422,
          -0.04131437204804386,
          -0.02162305480743424,
          0.023143854075039643,
          0.05077167947839985,
          -0.04607411396714375,
          -0.01526420082231344,
          0.006966947465229957,
          -0.017086531850961834,
          -0.02991801537542737,
          -0.004771493066827289,
          -0.03598382740988838,
          0.04070026077238252,
          -0.00293220355500175,
          -0.031175083076729056,
          0.0032392035531513628,
          0.01924898128102949,
          -0.03531905161405329,
          0.020679456094438615,
          -0.009294057215011364,
          -0.04795447433173965,
          -0.004655370051910906,
          -0.037760397081364236,
          0.03878301428456958,
          -0.0433966340712506,
          -0.04412761037064218,
          0.0505196080039085,
          0.04338130808494741,
          -0.006821667985693389,
          0.01606723972205322,
          -0.012227162641406565,
          0.0281974494564442,
          0.00960072275814706,
          0.05070620491912696,
          0.0332488778375537,
          -0.028803938666427574,
          0.01483179463137149,
          0.036796712498240194,
          -0.04362840456037156,
          0.027870847797107773,
          0.022888574172765155,
          0.03470874480515659,
          -0.03940334554951278,
          -0.009678814239427088,
          0.04345885845198302,
          0.010992665132325975,
          -0.0010134679365705003,
          0.04119729000345652,
          -0.04319090073841,
          0.015578998253287192,
          0.04667613961212609,
          0.045069580014885965,
          0.047493027375548925,
          0.03098330405944469,
          0.031616151706243815,
          -0.02790399860141648,
          0.044818034980116654,
          0.040585376010660916,
          0.03980315421754567,
          -0.04637155994915887,
          0.033341282167077956,
          0.04336982191919051,
          -0.003522877441737492,
          -0.017973657783444962,
          0.036063179136670225,
          0.053020360579668066,
          -0.00329747992184887,
          0.029321071836625502,
          0.04067819550527138,
          -0.044211439191994176,
          0.04392450205963917,
          -0.029110198991881615,
          0.05272216922707504,
          -0.045964630820423825,
          -0.012392606387614162,
          0.012384924320382233,
          0.04282146891441203,
          0.0313962533995942,
          -0.02658116995945457,
          0.030027673839154972,
          -0.002473666460345358,
          -0.05302973652704548,
          -0.01814875298313125,
          -0.023567429146277942,
          0.0006030791045557095,
          -0.04490739674837708,
          -0.0017109218872688329,
          -0.035059301905135815,
          -0.006331674405540468,
          -0.001041258660031256,
          0.028197052662532505,
          0.04412663446067386,
          -0.027157369315969345,
          -0.006270924651331873,
          -0.003086875681420107,
          0.021846708044698335,
          -0.036819812983451314,
          0.014177457903161952,
          -0.006025584983055039,
          -0.02115668525951591,
          0.02726567840432887,
          0.023513564550850814,
          0.04501185960453741,
          0.013669958043938389,
          -0.023442270894326604,
          0.03835967688216603,
          0.03236717208994818,
          0.03439096341345014,
          -0.031190059273342383,
          0.033976289721763954,
          -0.014319760362063984,
          0.022697854200135297,
          0.046561105437592815,
          -0.05111280170855681,
          -0.016177189342081188,
          -0.017563702583978973,
          -0.02673201388512477,
          -0.04213717497475809,
          -0.024153951646047795,
          -0.02037709710933174,
          0.013676384468398983,
          -0.042682826532431835,
          -0.0211859569221033,
          -0.046837710110015536,
          -0.04705248473832152,
          -0.0436296414435757,
          -0.028106154763869736,
          -0.000011115101569726006,
          0.043435120838553276,
          0.03414614232345977,
          0.03379570884492597
        ],
        [
          0.04807951570153529,
          0.03395444180533824,
          0.009083078848008885,
          0.01032141310771576,
          0.02463062061327346,
          -0.024438287338848806,
          -0.03583121432685792,
          0.053165649408620945,
          -0.0528012111829537,
          0.052460082416587145,
          0.04013736291399403,
          0.03237492987983366,
          -0.03613763412464038,
          -0.01892018311659892,
          0.028423796397818044,
          0.04751059538042213,
          -0.04596530022655392,
          -0.024273197764875385,
          -0.03873565231756211,
          -0.011176290704360681,
          -0.020885826887025723,
          -0.020266306573670255,
          -0.045583179273177524,
          -0.05289502588506531,
          -0.015800015848571287,
          -0.0377033884049406,
          0.014876113226637979,
          -0.007248770327336668,
          0.004621851361801522,
          -0.039096967848573375,
          -0.047255550166926334,
          0.004209845375515975,
          0.007441356205900325,
          0.038224371307914236,
          0.04800447368975235,
          -0.022006392094401955,
          -0.012522259804711148,
          0.020844140830486375,
          0.02202796721141184,
          0.022202359512910243,
          0.01750315914830458,
          0.04969597958652271,
          -0.05293274246881802,
          -0.005889248947369213,
          0.04099465923256766,
          0.046667677365987696,
          -0.04360792481648624,
          0.0478123497475708,
          -0.022183356512494524,
          -0.04095138649958423,
          0.032728113745929,
          -0.010533396589250127,
          -0.012925795327181553,
          -0.038851665458370106,
          -0.0030555127361597033,
          0.0034455714172447003,
          -0.0006460141229554843,
          -0.04568212399931655,
          0.015181568468852762,
          -0.010555252581496383,
          0.029459684990195443,
          0.012351977066652349,
          -0.006483175710582266,
          0.03859232992303218,
          -0.01585743361330376,
          -0.03376979023946965,
          0.040481596560636386,
          0.0007841230708371451,
          -0.015400294108475184,
          -0.025675537097740703,
          0.02258561242142443,
          0.008836988950163022,
          -0.012498910426529572,
          -0.004107431539453913,
          0.05022018746437819,
          0.0162697254806893,
          -0.03553425173582275,
          -0.033121960798941565,
          0.020969490887335428,
          0.03058863257688506,
          0.0007478637162732175,
          -0.04166875595729355,
          0.041233627228770164,
          -0.009753104274215737,
          -0.02129332971354366,
          0.01832614959383221,
          0.014601999402553757,
          0.049314887651079505,
          -0.033983295604746305,
          0.05024671099608454,
          -0.028454083079041247,
          -0.038328007749456015,
          0.009276209238395332,
          -0.010825864026946587,
          0.04581819875737872,
          -0.03538750032539064,
          0.006035474769059629,
          -0.04775532064382808,
          -0.013949556287512373,
          -0.0264195572366456,
          0.04959112797130737,
          0.03394708968929527,
          0.002485326897084587,
          0.048244839959200383,
          -0.04042431006092519,
          -0.053265424320935895,
          0.052243718633049205,
          -0.010647272078567565,
          -0.021646324890156162,
          -0.04107768163982284,
          0.018645780819131548,
          0.032364772214799165,
          -0.026329420431725398,
          -0.02542376837275286,
          -0.037703113215842764,
          -0.0071703745658541875,
          0.003914607556619471,
          -0.001715170369028792,
          -0.041122213153633104,
          -0.0021555813447516376,
          -0.0030154343830802502,
          -0.01720157873644024,
          -0.03482233099794361,
          0.014365121563728671,
          -0.038245537159254606,
          0.005410542384949009,
          -0.04517319324276875,
          -0.018190579142065393,
          0.026261587762025005,
          0.01807434188743098,
          0.041023536194589906,
          -0.013076720512317671,
          0.046150078329239334,
          0.025231919544669745,
          0.03327063334116419,
          0.048830182816415116,
          0.05237979185720113,
          -0.020717776548941542,
          0.006065159382498373,
          0.006640948561151985,
          -0.011980496087919724,
          0.03743869487781355,
          -0.02144116937749863,
          0.013489701761300812,
          0.01770781247797092,
          -0.02242578779644489,
          -0.019202562335534596,
          -0.02994138307380455,
          0.03906103646796698,
          -0.010468526017276414,
          0.006269677497672339,
          0.034905531644003805,
          -0.018529300911935696,
          0.039053572718248906,
          0.026820999992287806,
          -0.01343459502873023,
          -0.04127561382635626,
          0.021841805786725836,
          0.038160727067731576,
          0.047887611777629825,
          -0.03399639035471959,
          -0.00011042228672043629,
          -0.01306631246616059,
          -0.044239766717144385,
          0.038532139274899756,
          0.03177474533133184,
          -0.020121286106155246,
          -0.012886857477477162,
          0.051457527369079686,
          0.040677154828971746,
          -0.030767234113644522,
          -0.007951828995112759,
          0.039189916150478385,
          -0.05061838948001101,
          0.051089247835595764,
          -0.05072342827161479,
          -0.02546172728475901,
          0.04872396087690756,
          0.042580837697089584,
          -0.014907486474548926,
          0.03859300608708061,
          0.043940238029000704,
          -0.032664592545237306,
          -0.0048668745882069885,
          -0.01933540345286165,
          0.04519703957436772,
          -0.019206956263823655,
          0.006711983209077678,
          -0.043461457577407714,
          0.009458826148372904,
          0.007198104155139164,
          -0.04479772559447243,
          -0.0255095460990342,
          0.028062462055300934,
          -0.040369854654987575,
          -0.0044291899421388,
          0.026565250481349004,
          -0.051922979049680254,
          -0.00002679095058974994,
          0.007695903298236634,
          0.04139516291582299,
          -0.02243205299534663,
          -0.005649474856717093,
          -0.026220320026633947,
          0.04032059238183947,
          -0.03772452113912616,
          0.0516441838339302,
          -0.037233843264404466,
          0.016880705130940473,
          -0.027252542639958067,
          0.004941436637428216,
          -0.03744611896600299,
          0.015751095000936327,
          -0.005897961119323353,
          0.012785934768234114,
          -0.017747816465006616,
          -0.03897549274458657,
          0.01675359489580365,
          -0.016331548883967782,
          0.04784715531903481,
          -0.026530828354552543,
          0.0017130078149726292,
          0.012253226485194812,
          0.028926821487713715,
          -0.009916568878992097,
          -0.046865257215869295,
          0.040162605797534966,
          0.04037347233295454,
          0.0043397172411454065,
          0.029442258280005705,
          0.01346696399099428,
          -0.04062044073510778,
          -0.04926921990680716,
          0.03677834416103062,
          -0.03713438011800634,
          -0.004475663656700375,
          0.011525446276448602,
          0.005646275607259495,
          0.03182749309340424,
          -0.01830991394037241,
          0.04962081994134497,
          -0.013213549955133679,
          -0.01843784691357533,
          -0.002373181915773077,
          -0.03552013907397365,
          0.03360915371416143,
          -0.043839690026815085,
          -0.03218826356763964,
          0.052077683400843386,
          -0.04747225414593357,
          -0.011415545025772083,
          0.016161489080003772,
          -0.014264025409398397,
          0.01819557467538912,
          -0.009544696399703822,
          -0.04369019716471506,
          -0.01148549455728658,
          0.05026363033429787,
          0.028628093790997327,
          0.023191795883096722,
          0.04737775001634698,
          -0.015006393394524063,
          0.02706119065425401,
          -0.012993143889980113,
          0.04010161778313484,
          -0.014924418899017773,
          0.0024852326896312835,
          -0.038978033399877106,
          -0.0426625858927723,
          0.04094337423887221,
          0.040714320187646716,
          -0.0013955337008545344,
          -0.040229549784911126,
          -0.051225010612606495,
          -0.02598574916738075,
          0.01713889461363106,
          0.0077469699650087485,
          -0.038269650634961974,
          0.007031125373701544,
          0.015191013913565147,
          -0.0059141720800392405,
          -0.05257089601509959,
          -0.015811263721480274,
          -0.0066519600713627,
          -0.028483474314281425,
          -0.013017947072937847,
          0.04274055409248059,
          -0.029494621600047198,
          0.045610732961506736,
          0.02138476434242031,
          0.045113980568563736,
          -0.0015232765929664024,
          0.024463290705268637,
          -0.01983816733370693,
          -0.031912931088282366,
          0.03557795586250246,
          -0.004402415796134768,
          -0.005772346562203809,
          -0.040289472080742454,
          -0.03498144136190313,
          -0.00784280131024092,
          0.03988096475787975,
          -0.0069277476013315485,
          0.02611509384846731,
          0.01000155168632331,
          -0.0343767839956338,
          -0.013661521734005824,
          0.014898707053794593,
          -0.011666941977888324,
          -0.039528458329735366,
          -0.05272039721435168,
          -0.03140689071209228,
          -0.05311345509874306,
          0.01278986621188228,
          0.02267583077902663,
          -0.04925095360687057,
          0.04952514137724239,
          -0.013155273995569261,
          -0.010081594881771587,
          0.0009475475384724845,
          -0.053177728482877745,
          -0.038984137653846,
          -0.011991007049092775,
          -0.007177552543773926,
          -0.022918378214597388,
          0.024007113588527165,
          -0.007192275253366785,
          0.027964504267633025,
          -0.047022159825234895,
          -0.025845300508700375,
          0.0445996336408719,
          0.034213140136088345,
          0.0017405394799687099,
          -0.02909863943514298,
          0.02405375622320588,
          0.017865717569254133,
          0.03796426941857548,
          -0.03568271768563757,
          -0.016225047300187145,
          0.022638363379787127,
          0.047552540129130925,
          0.04854973753731655,
          -0.009862443444357827,
          -0.02808248679450765,
          -0.04153260562312389,
          0.041097022525897794,
          0.009337293546797347,
          -0.04197089407230383,
          -0.02403318460394325,
          -0.027543414364496827,
          0.03536230494859828,
          0.044698237686743705,
          -0.015138677597613028,
          -0.053194695968169566,
          -0.0208505241529021,
          0.030144677419834388,
          0.013978186943174731,
          0.01893102891628374,
          -0.008802846019774262,
          0.034902467212875724,
          -0.04477824967769911,
          0.036001865620980227,
          -0.0024639860383238515,
          0.010831544893120909,
          0.0400469331322571,
          0.0457089435338855,
          0.04391083841956151,
          -0.050106097934508584,
          -0.04520287526249885,
          0.013542966273091194,
          -0.01757572587871364,
          -0.04313738333058082,
          -0.037891705729708236,
          0.012560008027012704,
          0.04919101662212643,
          0.013806087451314826,
          -0.027090765723153047,
          -0.004897632527874837,
          -0.008115461419660353,
          -0.04682806852117134,
          0.05129525904110085,
          -0.04698612892560203,
          -0.0007489245603457812,
          0.04443670703249615,
          0.0270522178710919,
          0.03386731781104138,
          -0.03744261617056419,
          0.013122666298678285,
          -0.0441436626706208,
          -0.00022086129126599636,
          -0.027255381061075497,
          -0.043678664818662526,
          -0.024872701516450553,
          -0.009416874119155483,
          0.052907176845145454,
          0.04438157927623161,
          -0.02317683997145395,
          -0.03701539034503214,
          0.00925278147120063,
          0.02782608346686311,
          0.04532736943781307,
          -0.003544937618683309,
          -0.03635045492625098,
          0.012503510871240926,
          0.00032666820189964805,
          -0.03852457937576846,
          -0.009502987393901137,
          -0.02882838343075891,
          0.03213096398612912,
          0.01404291002256396,
          -0.001836815593800597,
          0.053295072449822456,
          0.009831226994162676,
          0.0168865673181021,
          0.003139395994907751,
          -0.03358347766659302,
          0.0446356044239734,
          -0.040803351273946034,
          0.04251400452521231,
          -0.044272592290674144,
          0.024905966755746644,
          0.002788159272797138,
          -0.023113058606930095,
          0.0033222041994720795,
          -0.010959500818652532,
          -0.021829331490841913,
          -0.04528922129977244,
          -0.03002474218948722,
          0.022980542602084653,
          0.032719239999144056,
          0.03462796178245546,
          -0.0016086441876024856,
          -0.022946899032213364,
          -0.023557194639826636,
          0.015316980842662538,
          -0.03407415194647955,
          0.0033208414860977195,
          0.0041573938098691775,
          0.00007964654646015483,
          -0.033548138104626014,
          -0.04923799149651315,
          -0.0249357452313078,
          0.027129661723914986,
          0.04442580158986683,
          0.023484252515930053,
          0.04263200403012052,
          -0.0009982938891959945,
          -0.015495900620949254,
          -0.032338764946398826,
          -0.03248138066470375,
          -0.02581906274620292,
          0.010892449369295763,
          0.007842504412003461,
          -0.04161510692008919,
          0.017952562181463686,
          0.002611547345386786,
          -0.011244083029658061,
          -0.03580583768271995,
          0.04946675476632301,
          -0.005547878593403025,
          0.015377717016343996,
          0.024268827202534867,
          0.01796517540720166,
          0.04026911477105436,
          -0.0031719415156392507,
          0.022600397849556645,
          0.015843599503187953,
          0.012924300186335494,
          0.02852913402148464,
          -0.017603541166374304,
          0.00187093810921497,
          0.0053417212866403736,
          0.024515043411518805,
          0.05125952746728815,
          -0.014285088680000653,
          0.03565108564218512,
          -0.036444429689439256,
          0.021798743310151497,
          -0.043195043605686115,
          0.027159320038993153,
          -0.038292971059361865,
          -0.017749710395964274,
          -0.013703974961486187,
          -0.0516443711042997,
          -0.041125945157757485,
          -0.04273309756302236,
          -0.033460540699844527,
          0.04827234100017592,
          -0.033101003381526564,
          -0.04785372758084825,
          0.04852516194172081,
          0.04715313442228435,
          -0.012777564350824725,
          0.03974019730211357,
          -0.04118240087279597,
          0.01943665334771649,
          0.018654639804330336,
          0.05143088103216452,
          -0.019347515428346892,
          0.04549891849805259,
          0.014861553453432902,
          -0.029754625836082647,
          0.039081579477668146,
          0.0064149895993643345,
          0.022882326073548374,
          -0.028958999111248333,
          0.02390202793289436,
          0.034108299293862776,
          -0.014555826113424198,
          -0.003968720472949648,
          -0.03437890647558698,
          -0.0013425975401209112
        ],
        [
          -0.009825415690107125,
          0.02490010088410843,
          0.01938826303278341,
          -0.03167885045807271,
          0.05180197795374836,
          0.04474089933105295,
          0.013494524474486081,
          0.03572962172079772,
          0.021635480283839967,
          -0.0067472571889664835,
          0.024379511465926613,
          0.006401700228783558,
          0.022227861440224858,
          0.005752719942915191,
          -0.0466594731713758,
          -0.01683546196624121,
          0.028747067213884803,
          0.02134177053300658,
