{
  "id": "lora_legal_bert_base_classification_1754073792912_69mrf",
  "name": "legal-bert-base_classification",
  "description": "LoRA adapter for classification task",
  "base_model": "legal-bert-base",
  "config": {
    "rank": 16,
    "alpha": 32,
    "dropout": 0.1,
    "gate_threshold": 0.5,
    "num_gates": 8,
    "target_modules": [
      "q_proj",
      "v_proj",
      "k_proj",
      "o_proj"
    ],
    "gate_type": "hybrid",
    "scaling_factor": 1,
    "enable_bias": true,
    "gate_init_strategy": "xavier"
  },
  "layers": [
    {
      "id": "layer_0_q_proj",
      "name": "LoRA_q_proj",
      "rank": 16,
      "alpha": 32,
      "target_module": "q_proj",
      "weight_a": [
        [
          0.034875109993347905,
          -0.04482030928365278,
          0.05089480783674223,
          -0.04245465894132826,
          -0.00874281275962528,
          0.0261456528960859,
          -0.04140914341634176,
          -0.026287729428185688,
          -0.019885294545393204,
          0.026059441846622657,
          -0.003181975726171342,
          0.03860352431506614,
          -0.04717169156511805,
          0.028285362209233847,
          -0.036854683122446656,
          0.013719141001465148,
          0.002748890344037253,
          -0.0012132046339459633,
          -0.025806806555439456,
          0.03559883728007705,
          -0.01408666124522225,
          0.04474870482741618,
          -0.04804978382127333,
          -0.01643800268290681,
          -0.001325492855379177,
          0.01920913520822585,
          0.03468299068050459,
          0.013721054770002327,
          0.005983750365253982,
          0.04939768970928561,
          0.03509945764795574,
          -0.012716873774053125,
          -0.014833837404899486,
          0.025243690831072176,
          -0.01760287206985903,
          0.035529812838038556,
          -0.012104225140391174,
          -0.026018718031340336,
          0.02163645611540982,
          0.05046388543257031,
          -0.008301096248875815,
          -0.038930268336792105,
          -0.05277064305959588,
          -0.03620535344869868,
          -0.049484865220653686,
          0.04908478659469574,
          0.0020173998665513346,
          -0.0364807265552442,
          0.021436100080605997,
          0.04198442702076171,
          0.04361357679967761,
          -0.04392845138829623,
          -0.04258964133438349,
          -0.004645300238999252,
          0.05013454543758574,
          -0.03345236512503771,
          -0.021934296274470803,
          -0.016019453872920142,
          0.004081051732318129,
          0.035224341112281524,
          0.036898975197336946,
          -0.049660907145501865,
          -0.017855008980368157,
          -0.0321036416211307,
          -0.0033486573100712544,
          -0.01852109134477101,
          -0.039283476447878975,
          -0.020127146062772976,
          -0.03102610139796235,
          0.027376867947295325,
          -0.0035044867618962004,
          -0.02783172576116767,
          -0.0028025144277722693,
          -0.004237410464427292,
          0.03223840978638696,
          -0.0017846798512381565,
          0.017358258384553023,
          -0.026898361832744758,
          0.05112484588482409,
          -0.011549636569609901,
          -0.017233634665264976,
          -0.03416070040112868,
          0.03155513846558575,
          0.0069693061354342235,
          0.022384235802256125,
          0.05186399779066436,
          0.03636432311395743,
          0.0056559114055000125,
          -0.03151282009706232,
          0.022031965694315463,
          0.02375535523836058,
          0.029433643968537874,
          -0.02016412628595005,
          0.0219221349885605,
          -0.018947073357691212,
          0.04473287958392048,
          0.044825497112744486,
          -0.014666940792409659,
          0.04071817364231504,
          0.05144674411151502,
          -0.037196593815341045,
          0.039846913216853026,
          -0.0029580153291228306,
          -0.051239862977226644,
          0.0367899823155269,
          -0.0338076304149617,
          -0.011039268488394517,
          -0.041062367227433214,
          -0.03578481224216617,
          0.03736296588620989,
          -0.0418870296114703,
          -0.04694907540016588,
          0.0488875374261328,
          0.046555413213540134,
          0.030148912924481717,
          -0.028769728578686166,
          0.033250613848639615,
          0.022027749334049277,
          0.004237717178812295,
          0.05109049613785562,
          0.04972577686817983,
          -0.04926497170093821,
          0.018299765760089685,
          -0.008716847736499686,
          0.03061023248188206,
          -0.04158054611264251,
          -0.01825822616769135,
          -0.04062264086973198,
          0.012950507049995938,
          0.033484589972565156,
          -0.028752035005593264,
          0.02445702763885027,
          0.009390789123624801,
          -0.016939110882286824,
          0.030219964676745804,
          0.03911750406247269,
          -0.03787267230786661,
          0.03210659801891386,
          0.039714678956363145,
          0.030397095733425607,
          -0.03300902177109635,
          0.0025734279126923007,
          -0.015881858206106398,
          -0.01854930940999261,
          0.0248326736270218,
          -0.022511357020838178,
          -0.009843417798719464,
          0.005935241001344456,
          -0.006156593820996581,
          0.0005839656297781077,
          0.03390933153676506,
          -0.031019594530163216,
          -0.020344633781057466,
          0.04298825202973293,
          -0.040185972249993776,
          0.03871386624274371,
          0.03392820184221499,
          -0.019216545078651275,
          0.0035773091138189216,
          -0.0034665519577482384,
          0.029157954725699136,
          -0.023649725996626493,
          0.01009421419428902,
          -0.03226408344137722,
          -0.022560913968384923,
          -0.014990902486765281,
          -0.044192951501110474,
          -0.01450009161997444,
          0.03395458981331562,
          0.0017998884514097368,
          0.0304257740569748,
          0.01639780376910565,
          -0.006203097433728813,
          -0.03465028110180122,
          -0.011650871694649722,
          0.023215514272579812,
          0.025927976918065462,
          -0.016227504260254204,
          0.015421420654028841,
          0.003685787885097977,
          -0.04331441121458466,
          -0.0473982085170853,
          0.016626960498818635,
          -0.009050155065753926,
          0.015039100410350142,
          -0.01109121663584308,
          -0.02428544968992599,
          -0.022814808202938932,
          -0.03460033775921625,
          -0.015008170859070488,
          -0.029465056271935002,
          0.0511048206696792,
          -0.02088457495716366,
          0.03646547379186174,
          -0.006726874964661156,
          -0.0033092672356731913,
          0.021002429244433657,
          -0.0028913861254337295,
          0.005457436963340271,
          0.011927845238251565,
          0.009002521867976308,
          0.016351061693402055,
          -0.05029841454507162,
          0.017308887693515067,
          -0.031947486438634896,
          0.028530562094653635,
          -0.04951859331145478,
          -0.016596025661441874,
          -0.047986745217048175,
          -0.03877742274078257,
          0.049796192217111575,
          -0.031050404746572696,
          -0.002079894111303155,
          0.05128599653467244,
          0.03471007495877934,
          0.046610942207055264,
          0.028189824383928027,
          -0.04546376221002968,
          0.039796413220747874,
          0.049847752398221354,
          -0.02701849885763908,
          0.007663821581066784,
          0.028146903147124782,
          0.022342693642433138,
          -0.0015810218785853925,
          0.046035018875731706,
          -0.02712203422436258,
          -0.023758699742961416,
          -0.04725059656856197,
          -0.038194048414004395,
          -0.007479157300537863,
          -0.045676590392940426,
          -0.03451499006191216,
          0.0013420624358225716,
          0.03785009883043421,
          0.013489838601230854,
          0.020861349502161706,
          0.040786383940540676,
          0.011487577184702,
          -0.02608975094474555,
          0.048452770909883355,
          0.0014335516069005055,
          -0.052156716932800704,
          0.029929354096438154,
          0.03009883456337299,
          -0.04043970349125869,
          0.02434617933610333,
          -0.00422913114737455,
          0.04087542011140404,
          0.00414105153231511,
          0.021970127480776307,
          -0.012424022242799721,
          -0.036251788207831995,
          -0.013218411902510172,
          0.0006953528096710976,
          0.04710607802663751,
          -0.038007664999454085,
          0.01753009740041238,
          -0.02119029542911679,
          0.052404715901944475,
          -0.018855473037040632,
          -0.005513565313533453,
          -0.008001343890327358,
          0.022014284328075274,
          -0.023500795455278653,
          -0.01209402480112311,
          -0.02073340526806517,
          0.05167603696500675,
          -0.008263268881569724,
          -0.005484947192998358,
          -0.014672698687125004,
          -0.03175335646080814,
          -0.045114956714800446,
          -0.03633696775169652,
          0.043779185185858764,
          0.051587558125344365,
          0.02370960020338701,
          -0.024038417305754976,
          -0.036070971490479706,
          -0.05209995178811214,
          -0.014410763868048085,
          0.030199880753665306,
          0.037272211760334024,
          0.02930975668585205,
          0.028290696791810985,
          0.014309395646732927,
          0.024765362734020278,
          -0.031333135680966476,
          0.00704229513788931,
          0.008734752669546495,
          0.045955325537795154,
          -0.01287081747548091,
          0.03111548303850983,
          0.03649610082186057,
          0.019526780261812364,
          -0.045383027685588426,
          0.0034693081791944795,
          -0.01843774504804147,
          0.029817117151272585,
          0.021126526850542626,
          0.03716559847970301,
          -0.011540074887746875,
          -0.01801982355042041,
          -0.045057801689800885,
          0.04714029550413864,
          0.0019302238021997517,
          0.035939706541861446,
          -0.041346576542877336,
          -0.02656987131810551,
          -0.03363014751711991,
          -0.011210906240350047,
          -0.008020974620778686,
          -0.02862381271679683,
          0.0009288838144480867,
          -0.008843543517159094,
          -0.03548708943663984,
          0.018960512940151546,
          -0.025302320928819007,
          0.032497589111863526,
          0.010426521695319097,
          0.053073354060517004,
          -0.010464186439528775,
          -0.010207934689839255,
          -0.010281304088411521,
          0.010975820977575237,
          0.029327755831852962,
          0.02005165136739833,
          -0.0008820445544802238,
          0.05303311546511663,
          0.04433430543394752,
          -0.0155126042484558,
          0.006144379546344239,
          -0.0014336803032979361,
          -0.029304119043187794,
          -0.052723014974497814,
          0.019627983411828562,
          0.038811427570223614,
          0.0016598097464850855,
          -0.015204406782700363,
          0.031931242061878105,
          0.002202241804704312,
          0.009331161606096991,
          0.014852855843451354,
          0.012023728432213507,
          0.02067680464562405,
          0.048144362497620725,
          0.03893899019223368,
          0.013245566604665715,
          -0.018944310637076207,
          0.03506633393491092,
          -0.016306984212834302,
          0.043335742722343855,
          0.03658769726567238,
          -0.008918652610248896,
          -0.021009017097475963,
          0.008367733811011451,
          0.04558200087387056,
          -0.052422740741804294,
          -0.04242351218855256,
          -0.028801040206350385,
          0.01361117891135407,
          0.04282363416352385,
          0.030892300264697244,
          0.03399867796165501,
          0.016092129248305085,
          0.019353994806636462,
          -0.00016031509144439528,
          -0.0002249821004671292,
          -0.01466052337327172,
          0.029315259859984764,
          0.0192801927146362,
          -0.05148370208035429,
          -0.026921405367571306,
          -0.03278840390271174,
          0.04768257693690674,
          0.0026447073787273802,
          0.026963597234775417,
          -0.020985709776018248,
          0.025995795302194886,
          0.03565405544407763,
          0.043877945893935094,
          -0.015397140403770148,
          0.004024472093120706,
          0.03823995465847359,
          -0.037391032394050554,
          -0.028152593817564527,
          -0.029959364619019196,
          0.03332283950918048,
          -0.05093200128103921,
          0.04728224655844904,
          -0.049087406575440785,
          0.016051307176680574,
          -0.00664239506182599,
          0.03181224699649269,
          0.028435293351603448,
          0.005139098121626114,
          0.014438014134963623,
          0.02044487629311416,
          -0.043050409980139204,
          -0.029984875626153925,
          -0.02864094865260552,
          -0.009459989374772685,
          0.016486961948216836,
          0.03473599610693081,
          0.04108790887436717,
          0.04575979064009488,
          -0.023871357782368572,
          0.03794794831299442,
          0.027195040719404227,
          -0.030224396986111814,
          -0.02380231144469382,
          0.05187980242429518,
          0.03634271749810728,
          0.00720417420412074,
          -0.019167267808051967,
          0.035722625639236574,
          -0.00896183867077666,
          0.03787663185044417,
          -0.011774866334528695,
          -0.01365434204191708,
          0.04714807381189629,
          0.029145452813650795,
          0.03706654478982999,
          -0.050905846560318095,
          0.04900959895485163,
          -0.017918660539801366,
          -0.015669854176458154,
          0.03684606413763133,
          -0.004915499125053012,
          -0.04048924301495923,
          -0.007978282822668874,
          0.025032885714240935,
          -0.03525519551255157,
          0.007572944199999836,
          -0.0463262447890735,
          0.04177830602479598,
          0.03850191382396536,
          -0.030918724751329705,
          0.0387709756833128,
          0.007331269338843998,
          -0.04687542288693706,
          0.030553699574757485,
          -0.00473285394241817,
          0.01963346655808807,
          -0.04170672131193129,
          -0.04275476874993468,
          0.05326087387936362,
          0.019394347416233873,
          0.008243440060826886,
          -0.007865879068597271,
          0.04812174499970091,
          0.011613336133308566,
          0.0030644864989615777,
          -0.03051854349100718,
          0.043119443336339866,
          -0.020693754490650362,
          0.044618105799458116,
          -0.0170084003568012,
          0.004360579179497795,
          0.04712549683811977,
          -0.04371184369811972,
          0.007660747569234342,
          -0.003082583275415331,
          0.015140516387111946,
          0.02936169659198309,
          -0.014109313437978702,
          0.04262648618707767,
          0.026881884955032,
          -0.02037462735597799,
          0.03989288101874229,
          -0.008577110783121216,
          -0.0019651038894359855,
          -0.009263412135446085,
          0.04573080600251785,
          0.051261188308571556,
          -0.04048873046098211,
          0.047174026562077156,
          -0.02082853276929806,
          -0.020456458501062154,
          -0.03505361017684417,
          0.013024417176679041,
          -0.009202587887397085,
          -0.03899749089389469,
          0.03691444119387401,
          0.001404949789764115,
          -0.018727783621526568,
          0.013125714923589228,
          0.03897537811667591,
          0.02336222503121929,
          -0.026370224854981885,
          0.029116883472145194,
          -0.03230429347144115,
          0.007846127526462174,
          0.04238940750275875,
          0.025092675558585992,
          0.029756571187087643,
          -0.002576954245085367,
          0.03065298681181028,
          0.0024152890213064255,
          0.003766740268407562,
          0.0025085808616778023,
          0.048751413208017916,
          0.034579887835408045,
          0.03251533699703963,
          0.03659213819450264,
          0.04553233578794227,
          -0.009817281486524224,
          0.042761682619165166,
          -0.049007163155141885,
          0.00475391198687433,
          0.02230459978834449,
          0.0241266033719346
        ],
        [
          0.03896894485927116,
          0.02179375583771759,
          0.01226115113306503,
          -0.04799767668127916,
          -0.017872567936816568,
          0.038507052383740636,
          0.018990683896346863,
          0.024942596929924725,
          0.03988596131890255,
          0.040173763064474344,
          -0.03838480845518405,
          -0.006711934284953831,
          -0.050714439964567405,
          0.006859428704371283,
          -0.021146922689428242,
          0.041960139016925226,
          0.01896432640409387,
          0.045012152689633114,
          -0.0033211429634673224,
          0.015594448581246265,
          0.012262603556328223,
          -0.043241686035765246,
          0.04333038046811536,
          0.03409726652264626,
          -0.043408728752046724,
          -0.03630790639819325,
          -0.012422522825222682,
          -0.005052307459631446,
          -0.006740541727113773,
          0.044899057785185006,
          0.04626390158895904,
          0.014745652796997116,
          0.022575272025611572,
          0.04500906887288868,
          0.04359830145973556,
          -0.051230467345415615,
          0.04901806157015395,
          0.020957235579433856,
          -0.00964990944158014,
          -0.034467963116617595,
          0.048757204313267515,
          0.030505495581264128,
          -0.0019337733646870513,
          -0.0023948931881619734,
          0.046457459919889435,
          0.025488348784124527,
          0.039800219105746396,
          -0.05066922444326053,
          0.02592762080418627,
          -0.022611985721749203,
          0.0011480369278669695,
          0.037524902501936734,
          -0.04053916443366184,
          0.02614275129303273,
          -0.032443699342586965,
          0.050311816591747056,
          -0.040647997693951374,
          0.022524356347471807,
          -0.040494745265846746,
          0.0359799628588477,
          -0.03567811075523368,
          -0.026023498951635922,
          -0.016650318041081795,
          0.03488696007047616,
          0.0018439211480950372,
          -0.010680457238774777,
          -0.03339754032560948,
          -0.007026572172205954,
          -0.02407432934471939,
          -0.004173450198543315,
          0.03245008581746621,
          -0.006406400378048271,
          0.003533698331178686,
          -0.0030314408062018577,
          0.011603060607596664,
          0.0011522930540631823,
          -0.025493526971373474,
          0.0032745246435572674,
          0.005160126524572262,
          -0.0020889329333413065,
          0.045722280489855514,
          -0.024713913093003616,
          -0.02084147868691245,
          0.04708557919574066,
          -0.03508111699314617,
          0.006720346382068431,
          0.023458728187807868,
          -0.03919666959791669,
          0.0459986278862321,
          -0.025655802498549134,
          0.03011075876769864,
          -0.011322024183820898,
          -0.03227347837053147,
          0.039610581134101715,
          0.0512905507267846,
          0.04557032981910626,
          0.04009052021830093,
          -0.028211590360439732,
          0.049157911188847526,
          0.034393458383926455,
          0.051734734463844384,
          0.03716124345353128,
          -0.03701748095649297,
          -0.00904242299347379,
          0.045318028114212205,
          -0.03890852634240936,
          -0.0070490842251063526,
          -0.016155085747133202,
          0.03712602984544036,
          0.010426229657766213,
          -0.0402390187748572,
          -0.004716229004325608,
          0.030504753034741743,
          0.018842230926534247,
          0.04787344232017763,
          -0.007246339524678894,
          -0.005421712835955016,
          0.022766367270266454,
          0.029815260595333473,
          -0.002597315014900826,
          -0.0040746688498131895,
          -0.01017314833024894,
          -0.009321893296373618,
          -0.03669729444084114,
          -0.051509653020029474,
          0.05302524510469948,
          -0.04359321047027228,
          0.008759854266697942,
          0.0018812433765295297,
          0.017697270878906494,
          -0.026044902687231454,
          -0.0005868620206956153,
          0.033445369016563045,
          0.019069178003170838,
          -0.000207758948793554,
          -0.008143385519345306,
          0.040128961054982454,
          0.02996576208970438,
          0.029623320943985596,
          0.02195507938263563,
          -0.052609735786192664,
          0.03857230529776934,
          -0.03214183474764624,
          -0.04999056031049529,
          -0.02594243982707527,
          -0.045757589791322904,
          -0.0022428909375256205,
          0.02828894070776796,
          -0.01697509353437892,
          0.03252713751977093,
          0.01165262837726344,
          -0.0175576668731034,
          0.017901340359082828,
          0.026166613651012815,
          -0.0005437975809236248,
          0.04188947018312062,
          -0.02626078938024528,
          0.04997747480266878,
          -0.021550303633481375,
          -0.049633334883734004,
          0.03928222634772212,
          -0.010502783869110917,
          0.03499891072512702,
          0.040804077880922544,
          -0.026997442725061924,
          0.05191408264619372,
          0.051834647946478435,
          0.03982580389616007,
          -0.04263826979723303,
          -0.04045992432445,
          -0.023642402665276254,
          0.004602644221890397,
          -0.02633179145845769,
          0.02772507695530209,
          -0.048875599570647396,
          -0.008108567543681262,
          0.003605480928388098,
          0.01877211234567523,
          0.0329939512500427,
          -0.04328896711772558,
          -0.040032957326971194,
          0.0026115004972364904,
          -0.04573378542326164,
          -0.049423186025615656,
          -0.030180924937437893,
          0.02162759864319421,
          0.015480027175381595,
          -0.030187062186332377,
          -0.02201154558898945,
          0.01735359094652073,
          -0.012508247424135109,
          0.05216957294206912,
          -0.0515087722687779,
          -0.023603002383007176,
          -0.05265974315755521,
          0.04536573344789768,
          -0.021280649246188853,
          -0.03728531569909353,
          0.03478848684080483,
          0.032209708863097264,
          -0.05064808253435578,
          -0.016102062763946618,
          -0.015622491868183321,
          0.017041982086033927,
          -0.010361195417762677,
          -0.043015453528095396,
          -0.03785221072689499,
          0.04996010875829474,
          0.039960470219169895,
          0.03225469017965779,
          0.023486680835571698,
          0.020011162532295856,
          0.0219160669960051,
          0.033439839812761316,
          -0.009434260535085255,
          0.024669179703863776,
          0.0405519925885133,
          -0.047543600772851045,
          -0.05286028841827153,
          -0.01032204489666662,
          -0.04999323568092453,
          0.034927433116206635,
          0.05210699937735284,
          -0.004530195002048256,
          -0.05098652230386366,
          0.05305369395136131,
          0.014911459662681906,
          -0.036775354136264246,
          0.03324349822038937,
          0.0466342895219472,
          -0.03556874585888323,
          0.050833378649946866,
          -0.0002894611786756748,
          -0.0316047446713767,
          -0.018533570280134092,
          -0.0063659349571583155,
          0.03149222514792449,
          0.005656604782964724,
          0.03168603911797833,
          0.051394622685414275,
          -0.0365768381698096,
          -0.034779137491018505,
          0.016576509398497506,
          0.02549232700300366,
          0.0014888733673596346,
          -0.0414209063828222,
          0.014485024241440247,
          0.014409681611989177,
          0.04899051391497045,
          0.052172603214561346,
          0.049077100362322705,
          0.029014669449680917,
          0.04684415451324271,
          0.028634645877044757,
          0.0000582740121801274,
          -0.036709262296707325,
          -0.009559651047254656,
          -0.05152009876572575,
          -0.02751123912921978,
          -0.03237739698376725,
          -0.024126288015376255,
          -0.00633908441111663,
          0.025339914360202765,
          0.002556930659640343,
          -0.04049487961481674,
          0.011740731326241694,
          -0.03280943952833131,
          -0.024294759521351385,
          -0.02966746544852985,
          -0.01530086972424934,
          0.012620247268584227,
          -0.03988616866735862,
          0.004829050462876795,
          0.036292700551790354,
          0.0015029443133328716,
          -0.021063899843489615,
          0.04752206850270142,
          0.006709327393785614,
          -0.017547154797889458,
          -0.005454806576117361,
          0.023560004013692282,
          0.04796933039346657,
          -0.043616294869502574,
          -0.02183876033514769,
          0.01669636024808185,
          0.002352769288033863,
          -0.023672073176983076,
          -0.0007424029758751145,
          -0.051964159302678906,
          -0.0194224384747469,
          0.004040339307080203,
          -0.021871446086835288,
          0.05209501708891391,
          0.016866315824074007,
          0.009835403777190482,
          0.04861387488989682,
          -0.02786432337135998,
          -0.011184580421604843,
          -0.03610202161177772,
          -0.008278603843521463,
          -0.014040756782638978,
          -0.031001757496204096,
          0.03818191393304768,
          -0.039433265433065745,
          0.009519281450890585,
          -0.015442055673288066,
          -0.025728554373746985,
          -0.02460210349904598,
          -0.04240812113840691,
          0.04616259880739087,
          -0.035150078381018364,
          0.042609833540963656,
          0.0478222668699671,
          0.026254213430933676,
          0.04017310431361676,
          0.04966564301247574,
          -0.003215907385576694,
          0.03854887110300375,
          -0.015176627950408694,
          0.005283109089992488,
          -0.012752348129895424,
          -0.050105730636851566,
          0.0061938465615833365,
          0.010785985721785124,
          0.004868030236951613,
          0.017186076057052226,
          -0.022405542360807173,
          0.03451464074493201,
          -0.050349596120248336,
          -0.005888180017665488,
          -0.018651217971026528,
          0.022580934647767344,
          0.022237186533821996,
          -0.03441041971791078,
          -0.025564023292271577,
          0.01697638601793873,
          0.022744531476134484,
          -0.05254576905852928,
          0.043636674754991944,
          0.05187815718733274,
          -0.01353061432564305,
          0.04902242334233209,
          -0.0071653838102980535,
          -0.0372649551208026,
          0.0391732825683977,
          -0.0038907510806154085,
          -0.002492335713248894,
          -0.01850324605384265,
          -0.024910964564878874,
          0.03874964680602943,
          0.007124602108902787,
          -0.028664885150433618,
          -0.036816564456039994,
          -0.044445937344920056,
          0.009764378737314717,
          -0.028750976923479662,
          0.0261228458289627,
          0.053219249541118056,
          0.022355974059728455,
          -0.050873998230038804,
          -0.011077197899199023,
          0.0513970737410673,
          0.03943172859748332,
          -0.028382256444584,
          -0.024101935513275694,
          0.02101916743870596,
          0.003496989155000667,
          -0.004931252362856407,
          0.05248754381436091,
          -0.028040562811967342,
          0.004879729934603924,
          -0.0022245200680471207,
          0.04722358579970878,
          0.050826938317734494,
          -0.050674782088671745,
          0.04218876655845086,
          0.03044657150963594,
          0.0080823055746171,
          -0.025598801319212668,
          0.05239019180313712,
          0.04847351138530037,
          0.03795608614978629,
          0.02882732049809423,
          -0.022330008494852227,
          0.01933198853068757,
          -0.023591261755001237,
          -0.0031092240989630225,
          -0.04772621301279445,
          -0.009322698439908263,
          -0.00013532350501784042,
          0.0016364229118894448,
          -0.026030704270970012,
          0.04453705443545389,
          0.02455571293632777,
          -0.016981052234614623,
          -0.014892130617024954,
          0.030443681133030212,
          0.03460626466867677,
          -0.032660308099492844,
          -0.015146475936354452,
          -0.033751839291101975,
          -0.012250374339582185,
          -0.012714854360808811,
          0.026461973323501965,
          -0.002460187371594164,
          -0.024366881172040968,
          0.01258125529301926,
          -0.012570283936909595,
          0.0236096106954289,
          -0.021593718061067236,
          -0.04606918938253205,
          0.028327634924921685,
          0.03487974506140863,
          0.043012553371522336,
          0.0460638616513576,
          0.007841962048662781,
          -0.0433919133506357,
          -0.00513139110855443,
          0.030618894627431607,
          -0.0442805123084717,
          -0.014629578167228948,
          -0.016217569976445707,
          -0.024642439257675435,
          -0.028443939460585335,
          0.009323130774944243,
          -0.05143882796679071,
          0.001433816631546121,
          -0.024315157356382466,
          -0.031569744268253215,
          -0.016522618324265884,
          0.011072696770357103,
          -0.04799635940036352,
          -0.02127966791058438,
          -0.005096149486158516,
          -0.016047014962547748,
          -0.04191152652713239,
          -0.003515050762204556,
          0.010492829244089305,
          -0.006961300622607853,
          0.03561763448686518,
          0.011009555594216583,
          0.021745163552441597,
          0.04271821442710808,
          -0.03578375557837755,
          0.05001499881933882,
          -0.0404667362784712,
          -0.005748268410553865,
          -0.003669463949074787,
          -0.0014063863991375305,
          0.03301829743783899,
          0.003153393369761345,
          -0.01846367747612947,
          -0.010942294156588307,
          -0.03757867986343202,
          0.02020978688695585,
          -0.02663198311804338,
          0.005814578381802738,
          0.011494802232824983,
          -0.026479382028993415,
          -0.013862576106604976,
          0.009705769187490295,
          0.046887633759943356,
          0.01818305097282109,
          -0.021789271548488896,
          -0.045055402279600434,
          -0.03854873376942037,
          0.033680906451328346,
          -0.019576412405518807,
          0.024374540545206498,
          -0.02754015527218639,
          -0.03536687518467752,
          0.029886103797652382,
          -0.051017435700613574,
          -0.03625669438277776,
          -0.04324254909338563,
          -0.013610874719961539,
          -0.005125389967875112,
          -0.03928508996341454,
          -0.0070500168675193845,
          0.017222498702173,
          -0.040624909114960736,
          -0.05223905999272181,
          0.00021159185522467557,
          -0.004689834816437881,
          0.026299626152715506,
          0.008098337683289335,
          0.01415793067556288,
          -0.05103053370459083,
          -0.04273786661705859,
          -0.04332212711987955,
          -0.0016403110618481414,
          -0.03529008757188346,
          0.026209637721989205,
          -0.015795383518693112,
          0.03302403373685661,
          0.05062806173472253,
          -0.03868513110984247,
          0.0022618577098466428,
          -0.04678799369782742,
          -0.03279150850254966,
          0.04909313505512356,
          0.008885620757621202,
          -0.042869967106184535,
          0.014679973861786693,
          0.01447360626473847,
          0.03817937445223661,
          -0.01224892544729266,
          0.017222462589387158,
          0.02350421479589566,
          -0.023766149607391516,
          0.009246191667600403,
          0.04409641393735293
        ],
        [
          -0.031091305721149248,
          0.05202559306749988,
          0.03547443086806194,
          -0.020723518801956813,
          0.03331753355583541,
          0.022432019989897693,
          0.014617191668738082,
          -0.03648672594096087,
          -0.03413712085085079,
          0.011372315714737374,
          -0.020221034282333586,
          0.010834214704947569,
          0.04713517973958285,
          0.002473664921299435,
          0.023025848105694285,
          0.011526931536605087,
          0.0008120467141445431,
          -0.03595514845596042,
          -0.008446490562202452,
          -0.012489762577938678,
          -0.014680779884000498,
          -0.002762077369365779,
          0.005958597640199731,
          -0.04991418564356798,
          0.008507892334150524,
          -0.0061345288990391125,
          0.04665277997806656,
          -0.04893814701963327,
          0.002761070513582225,
          -0.04334650617931563,
          -0.026164172848208697,
          -0.03168734884327703,
          -0.001861329531050265,
          -0.01252107401023694,
          -0.04511430162418262,
          -0.021238909187088387,
          -0.0027094943618942145,
          0.043221873976251296,
          -0.03362480717222654,
          0.010686576175621116,
          0.03597285772842716,
          -0.017939736837123462,
          0.043587610644084215,
          0.049755075563339864,
          -0.03632913747245647,
          0.04669932979055022,
          0.0447173780025157,
          -0.0076402382904171085,
          -0.045473326903547544,
          0.0007870037772404078,
          0.0527197579177853,
          -0.033399262092246966,
          0.043799014357865075,
          0.027299341719400932,
          -0.04681935020909988,
          -0.05151083214136111,
          -0.026376516843675254,
          0.051500237038957467,
          -0.009949664488821204,
          -0.006678877449591141,
          -0.02397936138996235,
          -0.029502178666068166,
          0.020347943920774457,
          0.009176638526256359,
          -0.0019669521898265344,
          0.0305783246417583,
          0.03455312216579589,
          0.01880063397751688,
          -0.023881448552861822,
          0.005860198029243864,
          -0.02082373068711305,
          0.005771064690062497,
          -0.017943962478735087,
          0.004111851643600349,
          0.026245860796781827,
          0.010018445299039376,
          -0.04417673427695565,
          -0.024740180520831115,
          -0.04845905442437375,
          0.0362077760906214,
          -0.002666332546593166,
          -0.05134545128939208,
          0.00768752891483605,
          -0.03579837882614354,
          -0.0429849703367273,
          -0.010241262816670248,
          0.005247729490946125,
          0.05329672357298249,
          0.014078065838995525,
          -0.039140025457800875,
          0.03323221375042365,
          -0.03856986261686558,
          0.01017565003944253,
          -0.03447104324334575,
          -0.013178958578355165,
          -0.044665129413412975,
          0.042224769631448694,
          -0.03623248696525372,
          0.04935067593985876,
          0.02509217473862646,
          0.01217458449474813,
          0.05100079830859582,
          -0.030754854912761156,
          -0.025272981377221802,
          0.015301326805792213,
          -0.0301995833351537,
          0.01283673730614587,
          -0.011482829733588364,
          -0.043760266590375144,
          0.05187338505479404,
          -0.04879999679281095,
          -0.038686023853941126,
          -0.04039683836036157,
          -0.03205122692453747,
          -0.0002280492378501522,
          0.042182924178242945,
          0.037073817866105994,
          -0.03835061173041123,
          0.02546404040028817,
          -0.04149691032454786,
          0.04394639475776993,
          -0.04813872221094181,
          -0.03713381084722563,
          -0.05239687186898653,
          0.04493143511686774,
          -0.051086921548578634,
          -0.04434942266673943,
          0.024089231604242225,
          -0.03751957027459283,
          -0.045523471969251696,
          0.041889783846903485,
          0.03205881711010929,
          -0.017425156875214794,
          -0.04108610289052832,
          0.0353083724622706,
          -0.004798145814821129,
          -0.049058106647975615,
          -0.008537346961259028,
          -0.0241560768346994,
          0.04452994583986939,
          0.028647728243834814,
          0.03779974437066868,
          0.006586918496201474,
          -0.036488997519324794,
          0.007275420039853813,
          -0.052821392654137364,
          -0.018530079832422747,
          0.045178193456169795,
          -0.03678719630681069,
          -0.025093624482895014,
          0.02054173743826856,
          0.03177850969074072,
          0.03651032311161657,
          0.0012531953610479527,
          0.030270116757761433,
          0.04884844667431541,
          -0.03544676352296464,
          0.028573282221218802,
          0.038311526747438256,
          -0.021749124444368266,
          0.031510479238787366,
          -0.026473010182754643,
          -0.0340103355956724,
          0.02062600306475288,
          0.024001427211562204,
          -0.05023999891527784,
          -0.03420012680113625,
          -0.05097944878204871,
          0.01283975745842231,
          -0.0163091077384727,
          -0.04728572944634197,
          0.01543542069689903,
          -0.016746988656306826,
          -0.04727648831679177,
          0.04496259309512209,
          -0.02441543591060581,
          0.007403273160222877,
          0.03130969372674597,
          0.020268280346985818,
          0.013816057787188212,
          -0.042579791201227304,
          0.02798509596252019,
          -0.023719902631617353,
          -0.001462093065260957,
          0.04828129692426756,
          -0.013451921348330377,
          0.05134564205003716,
          0.02622352969250562,
          -0.028848244929530198,
          -0.022323521491178392,
          0.053236926993575524,
          0.04888599182345768,
          -0.011742174536439996,
          -0.019677030674082368,
          0.04585316727305925,
          -0.029711787228611373,
          0.014127418218024533,
          0.03912296852272649,
          -0.04693582569390821,
          0.015996131290904374,
          0.007510500970853784,
          0.0012192798358043704,
          -0.012016420041628227,
          0.04522919356527607,
          0.019209523943603153,
          0.02043308765802241,
          0.0006355480197975638,
          -0.030777249690372148,
          0.01210501364339098,
          0.04327630736881512,
          -0.03109895553244348,
          -0.02561194789557881,
          -0.020248645141144155,
          -0.013403599984261641,
          0.035438501729764565,
          0.04683451859335081,
          -0.05109487404323238,
          -0.014804549217162496,
          -0.050134304602775195,
          -0.04414472209690444,
          -0.006879234194775091,
          0.02679444618656104,
          -0.021420329587797195,
          0.04058973752550772,
          0.034511658270298964,
          0.012327520217796336,
          -0.02462214762512759,
          0.01123222100684148,
          0.04236702866145471,
          -0.03375050433388752,
          0.04077004450458998,
          -0.018434684678916513,
          0.051182092558509716,
          0.04072699212532243,
          0.01720290069489023,
          0.02303873675858647,
          0.01453755169131133,
          0.03956629784462239,
          -0.03160671950140341,
          0.026488768815267162,
          0.042918128215659726,
          0.042087693290016895,
          -0.043676685674753205,
          0.045767189915964485,
          -0.05165591057139676,
          -0.03127610740074403,
          -0.046497933009984255,
          0.021453921708784202,
          -0.0401198447534686,
          0.05127374158112148,
          -0.008638227726236205,
          0.028881689565131326,
          0.04388408079977952,
          0.0038463908586214833,
          -0.041862915736937616,
          0.026897170498532644,
          0.005589827131373948,
          -0.05116008821157622,
          -0.0017586138435908933,
          0.019768127377396083,
          0.00704546120587098,
          0.029887325692560602,
          -0.04928153813700699,
          0.02936075535482581,
          -0.03606909002638581,
          0.013899007040011417,
          0.043123574605446115,
          -0.008883606667012602,
          -0.024913361797374873,
          -0.026873376579898436,
          -0.017791563495409203,
          0.04842080375743455,
          0.04151681680379345,
          0.050983186284320095,
          0.014517905410298671,
          0.007576702771076961,
          0.04520423310805882,
          0.047634815654200684,
          0.03617284478283485,
          0.02794422048103447,
          0.04285002133892067,
          -0.0033494673310187754,
          0.0312533123283566,
          -0.010182101584263229,
          0.013580051852321176,
          -0.0385896348033417,
          -0.015300136526797261,
          -0.016082434888851617,
          0.04444441174960742,
          0.006776029803806842,
          0.018959063160588294,
          -0.004414555404065601,
          -0.0058869725295126385,
          0.045750374853054054,
          0.005326912967252978,
          0.014982488544457172,
          0.04386409780491759,
          -0.03521376316762782,
          0.009765823432526714,
          0.0332027337304155,
          -0.0073747892333117385,
          -0.012401562647057433,
          -0.01147240171757052,
          -0.025885803605469358,
          0.04280936686820597,
          -0.022059008125122768,
          0.04878106510175995,
          -0.035419244998276964,
          -0.026425306898889032,
          0.023623710514617084,
          -0.04979052723602559,
          -0.03551210196158362,
          -0.016335313834722153,
          -0.026420877272940995,
          -0.022301937170014958,
          -0.00684653832086245,
          0.01046488206470173,
          -0.0018277109764316994,
          0.01830881309111181,
          -0.029005803038313134,
          -0.017068738935345173,
          0.045717850512535234,
          0.007493459082000439,
          -0.013597204958975448,
          -0.016246524299023953,
          0.009794774615651156,
          -0.021249554868676968,
          0.02049043092680536,
          0.03594380517774754,
          0.016283533587391524,
          -0.003753348824615447,
          0.006546416331760847,
          -0.04717170042059389,
          -0.014262611830896891,
          -0.020236485211987704,
          0.05228076231856117,
          -0.008587698038072683,
          0.03004646996810536,
          -0.03807373003601609,
          0.033907159930077105,
          0.019999147394916202,
          0.030359592711072067,
          0.003018841077176565,
          -0.017384192076902914,
          -0.049453226545582034,
          0.05195990051024842,
          -0.03857856702442047,
          -0.04640766150810522,
          0.003244310980358949,
          -0.03998112558863699,
          -0.008295901294066576,
          0.006419283114011839,
          -0.05102466659205549,
          -0.04264319597396211,
          -0.01744270882717194,
          0.0137644907098056,
          0.05252116887349194,
          -0.01248516092690014,
          -0.03998110041563114,
          0.007708458589357362,
          -0.038738877271926674,
          0.013465440829942802,
          -0.021154598761545858,
          -0.019293129917596546,
          0.023157461085792794,
          -0.03185817360099833,
          0.0339686793343175,
          0.022918678182067994,
          -0.009533495289563128,
          0.0003278393195456883,
          -0.02442908345603965,
          0.031651709095612185,
          0.022659540559067257,
          0.0507004208154467,
          0.027478515025784838,
          -0.037151497314037246,
          0.0008550547363837974,
          0.003388982036424979,
          -0.04861159002327823,
          -0.0020548567370833226,
          0.036437710870407244,
          0.039237874305051226,
          -0.05272094656051108,
          -0.0457875359602437,
          0.04297805201014314,
          0.011974063400418677,
          -0.04347128592982217,
          -0.03563509827502358,
          -0.013501156636254355,
          -0.041874887065583545,
          0.017446053746770634,
          -0.03380411464272312,
          -0.0000026308627253555343,
          0.015760332586949515,
          -0.031940887365283714,
          0.01608337930829053,
          0.01193495685434127,
          -0.04649889864392687,
          0.030276771260501534,
          -0.007936681714318362,
          -0.003075252546979919,
          0.021171747393737776,
          0.02178697852942285,
          0.04885545127018573,
          -0.040014803210517966,
          0.030491810231116037,
          -0.0009860241625681452,
          0.045649569800000095,
          0.023454727063179137,
          -0.040360455085252114,
          -0.046287066100618966,
          -0.018529945189941062,
          0.03830366573234044,
          -0.052436782065211116,
          0.03115577680589945,
          -0.05217168245244046,
          -0.021549750076191695,
          -0.022914746902678553,
          -0.008706253913910732,
          0.0034408613764628643,
          -0.05200604851567561,
          -0.04425619049515647,
          -0.02138643213561392,
          0.031195317015239185,
          0.017613684842735074,
          -0.04636310013759403,
          0.01730175911732165,
          -0.018825482269268504,
          0.052631471967237185,
          -0.009357572847612098,
          0.04888262594019306,
          0.005527733630051715,
          0.04724809314129947,
          0.02075752742389454,
          -0.0105901946504403,
          0.03745678881208115,
          0.021386475335752737,
          0.018488672148418695,
          0.05269985062726978,
          -0.04600674319897995,
          -0.0457304397056364,
          0.009255966159323496,
          -0.05048290188580299,
          -0.04243673354026145,
          0.03658075108599625,
          0.008078183473102933,
          -0.02569951115370536,
          0.007894008678745335,
          0.038147518545643355,
          0.025636569451776985,
          -0.034671867603242604,
          -0.0347166440232519,
          0.031681416765174865,
          -0.03248338253768794,
          0.03884987711984407,
          -0.04551689652928051,
          -0.038508330192436956,
          -0.0067677251797168365,
          -0.004002037036884635,
          -0.03735372504755764,
          0.02279533120649375,
          0.011483907964526084,
          -0.033691861998923205,
          -0.019438110634964475,
          0.02774929413699497,
          -0.04820714521639285,
          -0.029120591659473446,
          0.05262913072027878,
          -0.001308546279377128,
          0.03692817544486645,
          0.05201751373471456,
          -0.04834871515174286,
          0.010644553099671564,
          -0.03345473872275606,
          0.00681980814799684,
          -0.049331017773404595,
          0.02004062410102839,
          -0.014268711185786685,
          -0.02795724945684692,
          0.01887915624979718,
          0.016731678509554718,
          0.00020682528309655393,
          0.0221115996273169,
          0.024286518140428683,
          -0.00877835821002343,
          0.009344331962178001,
          0.016727702325312403,
          -0.02543229938690607,
          -0.00021294909176867045,
          0.016005676751415024,
          0.05167253380771994,
          0.004540668392716443,
          0.039625679541496345,
          0.00647722876635592,
          0.007220732769854598,
          0.03240847849141356,
          -0.04985650090495681,
          -0.015223460808469171,
          -0.012936197665215131,
          -0.007487912107146643,
          0.013442333293339123,
          -0.009315981823658576,
          0.022178542450729224,
          -0.03105227066769014,
          0.0169909525654975,
          0.002752157534548656,
          -0.051036494076621655,
          -0.029951770469102284,
          0.04155044926040951,
          -0.023762994637083448,
          0.044779126322222064,
          -0.03540594063645027
        ],
        [
          0.042799078567541185,
          -0.030156743360052453,
          -0.012906849283011912,
          0.047966298621151066,
          0.015174216138026433,
          -0.02325701628233382,
          -0.02607508053997451,
          0.026995026089339937,
          0.013562401827207029,
          -0.033705125067972234,
          0.004310126982888296,
          0.01492055431129128,
          0.000161447729003265,
          -0.04573488276172664,
          -0.046826524203682524,
          -0.0032862325743888234,
          -0.011639678061877656,
          -0.03310900610773993,
          0.004804812513665834,
          -0.009996161714049007,
          0.04605219796160023,
          -0.02659068351665844,
          0.05271374568475953,
          0.04224379046926856,
          0.012612692900463721,
          -0.00524972482758628,
          -0.021219664813081695,
          0.00214661563538466,
          -0.032684010535952324,
          0.0475106955506344,
          -0.05318855717179546,
          -0.036513633247411574,
          -0.04278071144351222,
          0.022396023341643142,
          0.005417761524762108,
          -0.020404007062786344,
          0.03604582191727211,
          -0.013226852345949367,
          0.002741128246979991,
          0.04568180549203465,
          0.049303687542991775,
          -0.047142992159689034,
          0.0005998755282964414,
          0.01654477200362813,
          0.01538504153085049,
          0.01668207308264994,
          -0.047773284961032614,
          0.0037658304180153645,
          -0.051473509484064484,
          0.0198715725175295,
          0.04407242213717093,
          0.040177284786780544,
          -0.05190251633582085,
          -0.03562972090676533,
          0.0334809257872562,
          0.0107503778758673,
          0.01903877381768535,
          -0.012773333446542863,
          -0.036833194251025526,
          -0.05129479073126399,
          -0.03616546382705273,
          0.05224524261900315,
          0.032777756651314736,
          -0.03307390933396307,
          -0.03200168266630035,
          0.038178929577623665,
          0.026717048712018847,
          -0.049800361273699335,
          0.00007274277109119255,
          -0.003726421515235499,
          0.034705078480030536,
          0.002909429054102661,
          0.043044523021286314,
          0.02624140655378279,
          -0.006723478721871556,
          0.036235344671179476,
          0.042354500495247784,
          -0.023834617556362632,
          0.036750382917174265,
          0.020831847059685864,
          -0.0032978007699288148,
          -0.020851713024559224,
          -0.006401018803231869,
          0.008857655266779813,
          -0.03505741430182386,
          -0.02345991016534296,
          0.010084821341594176,
          0.027768373254424984,
          0.04673898408811766,
          0.044280468242952876,
          0.052968594368511694,
          -0.023851634855213032,
          -0.05195729073396774,
          0.004647820074126183,
          0.029121840321991346,
          0.04727032167811667,
          0.03705722994821267,
          0.033689116918462894,
          0.03686616749178618,
          0.049684378561760716,
          -0.03178910343135431,
          0.027581199648074695,
          0.0032889375473813447,
          0.023487104304220078,
          0.01324869184321971,
          0.015286327744974432,
          0.015801806404953104,
          0.00286976046165104,
          -0.03782026762964911,
          -0.012041819012134396,
          -0.037445473406821125,
          -0.020941741065668203,
          -0.024151374520816806,
          -0.05022274191623713,
          -0.02328299201840494,
          0.035841119276078665,
          0.04396822121970776,
          0.019478730525014924,
          0.007241066180196489,
          -0.02912726591922337,
          0.03144827964853522,
          -0.04364707891735721,
          0.045468075705766414,
          -0.02203902176166561,
          0.009957950187625492,
          -0.05259681939289187,
          0.00258836677044254,
          -0.03485184268839643,
          -0.05199354681483494,
          -0.04729545918806584,
          0.03101195939075859,
          0.024657215204941126,
          -0.03268651043257492,
          0.013095696327455464,
          0.04387857835256053,
          0.03738135088363312,
          -0.00575348267437369,
          0.05247958020644902,
          0.030236538535565956,
          -0.0400619389260789,
          -0.007627082385819216,
          -0.029124882716161257,
          0.02813398121442955,
          -0.033707672610947,
          0.003716298386113696,
          -0.0525658279214745,
          0.04630659939123856,
          -0.046448209595465216,
          -0.04263109405678365,
          0.016706077565530057,
          0.04627650706071181,
          -0.04438121316861509,
          0.027744776333295074,
          -0.008472846812320871,
          -0.02312118618391511,
          -0.010158904732328533,
          -0.031628210597577845,
          0.02252540577379032,
          0.009827490993114127,
          -0.012195309489350298,
          0.025670452469356363,
          -0.01290719171164757,
          0.05106761939690596,
          0.0458084816611052,
          0.03922379847844807,
          -0.009522334230548844,
          -0.021982176254766814,
          0.04686026886616623,
          -0.0021828138293012596,
          0.03938795138815788,
          -0.043274553242576834,
          0.04639200521123241,
          0.04005507994667587,
          0.005982968993642742,
          0.028778430644913464,
          0.005828344515879503,
          -0.03476535726654386,
          -0.015258847369888313,
          0.05233813281371609,
          -0.04992655427099895,
          -0.01805338833110213,
          0.039373873447909574,
          -0.024424354438254425,
          -0.032856010310825585,
          -0.041783230667128,
          0.031645569250124184,
          -0.027436954486946444,
          0.026963490785895813,
          -0.049485261217136006,
          0.018792191963100058,
          0.04886649894747801,
          -0.044894365238842764,
          -0.014008521775262375,
          -0.031042556174056775,
          0.029988030407700737,
          -0.01950522313029277,
          -0.025998806446271814,
          -0.05281382709490409,
          0.002562350335607613,
          -0.021948363300556297,
          0.03473722877481264,
          0.006509585745898765,
          0.05051781209031674,
          -0.02141644941918673,
          0.013578247810128266,
          0.026722119279784313,
          -0.03488667936652695,
          -0.00135242812756352,
          0.014105261943991365,
          -0.04177560972443031,
          -0.004813800966396292,
          0.013397794272352177,
          0.019893942570071575,
          0.03516139756382569,
          0.00039012778506378437,
          0.034045805065821645,
          0.005035674125666996,
          -0.019935007199177058,
          -0.050867141891104944,
          -0.049606856681674985,
          0.024461391539991693,
          0.05224175427029713,
          0.02086630777151237,
          0.050260862231055574,
          0.011248112743597877,
          -0.010836485197145593,
          0.012645108539968369,
          -0.027449016160032577,
          -0.030646937259314853,
          0.023874191365307818,
          -0.021083563076852725,
          -0.00323207022078379,
          -0.03419295300872311,
          -0.010698565706640656,
          -0.0505856086093368,
          0.019490335719163934,
          0.029912404010824952,
          0.035110641293817295,
          0.011970621448074046,
          -0.04020882554434837,
          -0.034723697532139386,
          0.02617757146705671,
          -0.013526960753000099,
          0.04213606251275779,
          0.02737581000896208,
          0.03145968091968488,
          -0.020049145458922727,
          -0.01629865799441248,
          0.035002520543268564,
          -0.006637983871353944,
          -0.03732568842987914,
          0.04883990568005439,
          0.021519669487940096,
          -0.02392010837000821,
          0.012931961120431242,
          0.0419442036779314,
          0.03770781232845875,
          0.05301733952377367,
          -0.044194169456441126,
          -0.04087499614876976,
          0.010358096630958115,
          -0.01244537722556737,
          0.026009266388613842,
          -0.04445874997072879,
          0.03161633503050654,
          -0.025296032520200545,
          -0.023601857808723873,
          0.007785730024925411,
          0.025856228867949194,
          0.013771678492770098,
          0.015453373892028053,
          0.010769815763962666,
          -0.018316721182897566,
          0.03744310283389398,
          0.021229638771933557,
          0.037672841395348204,
          0.026256261564809313,
          -0.008305253141131428,
          -0.03905387379195145,
          0.0005693938745772645,
          0.03291182748983321,
          -0.035377693001964215,
          0.03720592737495729,
          -0.04861422094258552,
          -0.03561905676136711,
          -0.05240698751507497,
          -0.03479254392803699,
          -0.024168285463010412,
          0.0032437293122417497,
          0.018485922884137567,
          -0.021526115068751506,
          -0.033417821820647835,
          0.0015104546524837602,
          -0.009513369896086137,
          0.03966285666495733,
          -0.003873669348356749,
          -0.011468762263241342,
          -0.04670409139251501,
          -0.020063405218647506,
          0.002404570832160992,
          0.05039563406757138,
          -0.04738143577704545,
          -0.01627848303291615,
          0.018186344710955336,
          -0.01534705594246531,
          -0.02416084776359297,
          0.025510186809865682,
          0.004727378809604619,
          -0.04612883633162233,
          0.05002065604711062,
          -0.028376770420563767,
          0.04292433666986788,
          0.05103607738124004,
          0.009548180434395058,
          -0.048779721278175724,
          -0.007002137724272645,
          -0.006026803321271223,
          -0.03163772797158878,
          0.014617434695634752,
          -0.0394347153635476,
          0.03563591122264498,
          -0.01092652544385133,
          -0.023858006054465544,
          -0.04589294173664806,
          0.033147533102016236,
          -0.045548947924321126,
          -0.01491007638543044,
          -0.013784721511691652,
          0.027710205261535944,
          -0.0008372772297191252,
          -0.0017234665255248338,
          -0.029076288882673995,
          -0.030035454483126982,
          0.0015062316132769572,
          -0.04482066882031093,
          -0.005354819705914369,
          0.041869142491574765,
          -0.024723761626620922,
          -0.0391433164864536,
          0.005009420509485917,
          -0.010173079925872056,
          0.03223780482801094,
          0.0002685042158079463,
          -0.023463022707459234,
          0.010273308062092552,
          -0.0033097895081143514,
          -0.041382543560644414,
          0.04952311177824079,
          -0.04791720160865882,
          -0.05134101217088601,
          0.04246728896260164,
          -0.039889766735445475,
          0.045289709260063545,
          -0.05329128619613768,
          -0.03471050603766222,
          0.038118848864044916,
          0.013617670548982145,
          0.021808026604464396,
          -0.0475248853484999,
          -0.032959189795039014,
          0.043409084737975466,
          0.026477053207633633,
          -0.034015497111630634,
          0.019547754964012037,
          -0.0032516601979113826,
          0.026044189060105413,
          -0.05191856965440653,
          -0.0016716569429786516,
          0.044711918447619764,
          0.028600505064528943,
          0.045727803934547874,
          -0.04671424440960883,
          -0.007174637842806332,
          0.024387091085760173,
          0.04740965455983626,
          -0.03399864684523448,
          -0.041181685880817234,
          -0.04513021058347564,
          0.03707099139856284,
          0.00873145091851103,
          0.032978595135039764,
          -0.008620022243277662,
          -0.021191386426414736,
          0.03612714970728958,
          0.050386868089854875,
          -0.03468600216132165,
          0.016931778136366277,
          -0.02934151867293473,
          0.042542131740100214,
          -0.03953788601786023,
          -0.020923664177817405,
          0.0026807883865314075,
          0.004200830571736248,
          0.01361783997936475,
          0.031877193705227014,
          0.022169460991780417,
          -0.015685139578541323,
          -0.035943348374286525,
          0.041031816611061166,
          0.022591887567904017,
          0.025616185636452873,
          0.04352805542007597,
          0.04432277109720926,
          0.02937398072831103,
          -0.008353323514750582,
          -0.04609291682175483,
          0.01888609526374703,
          0.01685911000794367,
          -0.01926184860279018,
          -0.005062444232726445,
          0.00292421466164912,
          -0.005780152867673858,
          -0.022981288301847924,
          -0.02045046670757097,
          -0.05032322270451444,
          -0.031641485341403985,
          -0.0022627515416378946,
          0.03080442591108522,
          -0.026724651653501668,
          0.04959256514318708,
          -0.04171916127403181,
          -0.05108637526846536,
          0.003167122744015498,
          0.00824693857814909,
          0.020335831294644512,
          -0.0014013554139769133,
          0.03524750833663846,
          0.01079298934913027,
          0.020772169076771346,
          0.05031283818172727,
          0.011167507575955877,
          -0.02955435301211606,
          -0.046292162136844846,
          -0.008443472543647534,
          -0.03235336356796872,
          -0.02906423996084713,
          0.04206436423102368,
          -0.04839408632875657,
          -0.04336649081647294,
          0.05064654575526049,
          0.052423251151130584,
          0.024477492602127168,
          0.04092052310172701,
          0.010108442496632241,
          -0.024624457893463507,
          -0.04654766294419395,
          0.031784944282475754,
          0.005184690937280519,
          0.025633278574945,
          0.010788471254324713,
          -0.049144411203871044,
          -0.02419938876541183,
          -0.004450620766446185,
          -0.019347892175318893,
          0.04838019228288018,
          0.022233409171732277,
          0.05284578477127877,
          -0.020643312334989707,
          -0.033865365918170784,
          0.031898234873502636,
          0.01572963477465575,
          0.04587643090005402,
          -0.010827295516162119,
          0.007649420457484118,
          0.023979965789699974,
          0.021739440508414285,
          0.02472090923522254,
          -0.014868842014378917,
          0.044686496214371256,
          0.04575401490872325,
          0.03677898030954548,
          -0.03844697509486101,
          -0.00458305671459264,
          -0.020185425639652605,
          -0.018321498964855056,
          0.008378762383089607,
          0.02128766494950759,
          -0.021572663403233983,
          -0.022697346642620575,
          -0.00534873817598519,
          0.052403415573288634,
          -0.009603046878662766,
          -0.020705544308345508,
          -0.03364643142073597,
          -0.038751514140016555,
          0.052437703110148635,
          -0.017308473732249995,
          -0.036294454228977834,
          -0.007960122837760849,
          -0.02861646820371801,
          0.040623086267605524,
          -0.029806341021321327,
          0.0020687632638798524,
          0.01627433769355761,
          -0.04048936321366779,
          -0.04153831948096404,
          0.04720581972361299,
          -0.02432184290596854,
          -0.03240923649246487,
          -0.03516368218956061,
          0.024044105883988663,
          0.005941244448169948,
          0.03562099920499731,
          -0.03295175210494198,
          0.008081788381732425,
          0.031194247449310358,
          0.02215925764367245,
          -0.02446130326392947,
          -0.01717695974054033,
          0.007413684126981124,
          0.04290082918502184,
          0.04148125190336601
        ],
        [
          0.031114498594305297,
          -0.04080612966905192,
          0.023120770240414985,
          -0.05300568122281843,
          0.043802663345095395,
          0.050006012699065835,
          -0.006120722552369186,
          -0.012375433553409056,
          -0.01896148910237064,
          -0.022754636215725658,
          -0.04640304558502834,
          -0.038478815746546075,
          0.010684191562782806,
          0.016741614006714693,
          -0.033020689370642634,
          0.0005199389893716072,
          0.024792559668067735,
          0.03602664387114262,
          0.023984534543503883,
          0.0173052118120654,
          -0.04301391343850294,
          0.0034999848762423506,
          0.0457706256429338,
          -0.025412327031490583,
          0.016669916321234338,
          -0.016055982804582362,
          0.03486011298329594,
          0.04033845424065527,
          -0.019126751841769617,
          -0.0029161269902573447,
          -0.033354229571676886,
          0.026404523756622122,
          0.01249125164406748,
          0.0433617478360971,
          0.003771216150812717,
          -0.020205312205198278,
          -0.03348451080272121,
          -0.028081587914185344,
          -0.0029738757073591673,
          0.0362033280232998,
          0.022946403485912505,
          -0.04381989718315544,
          -0.004850805569863567,
          -0.04046019578570268,
          -0.03181423635652776,
          0.022447045952008943,
          -0.044979503549686474,
          0.006143933721714861,
          -0.010092179959825306,
          -0.022162401994595946,
          -0.01248106814460418,
          -0.006506619273454641,
          -0.03099892207840428,
          0.01829611352078081,
          0.017726098068534032,
          0.020787320613437247,
          -0.03895120645534521,
          -0.03222729829557764,
          0.02740384758489042,
          -0.044387890106452145,
          0.041177874998910124,
          -0.03702984805787579,
          -0.02596507155207581,
          -0.05021311792637273,
          0.04101603453762996,
          0.04150897314087133,
          0.005504624346288188,
          -0.02051583955946062,
          -0.04916154617723097,
          -0.02896125506792039,
          0.020215550752276656,
          -0.03687804297980139,
          0.01484762679126287,
          -0.034391072378006045,
          0.050763730219882675,
          -0.027957095818032327,
          0.017972262789624265,
          0.025008593154149283,
          0.04823386350199415,
          0.017013659445411073,
          -0.0016956573842426912,
          -0.05096566525859213,
          0.01274671339191054,
          -0.04714819595211694,
          0.0032742680888867017,
          -0.027595321366941004,
          0.041766970282527655,
          0.031413566247395934,
          0.04539267507955794,
          -0.009655550117543639,
          0.005478439821961583,
          -0.009829871956785932,
          0.04292882287065414,
          -0.025487218274092092,
          0.045217327500081825,
          0.01905868142615431,
          -0.024340226462032034,
          0.001391694883335069,
          -0.020112414010247052,
          -0.00453925095732731,
          -0.029819364872038776,
          0.00752310250743103,
          0.011822558993180111,
          -0.040631832067505654,
          0.01377003390017438,
          0.00006994661639524033,
          0.01218247464382687,
          -0.005902390037691451,
          0.035824454706048045,
          -0.03015355904261435,
          -0.027880443236646565,
          -0.02418853031230684,
          0.026175680843834093,
          0.042257372006932414,
          -0.01489578619940657,
          -0.00319075469127344,
          0.04211293107024461,
          -0.02096862073716465,
          0.019781587539485574,
          -0.003160678644866888,
          -0.028675238820685227,
          0.022636383352275725,
          -0.021456510280592957,
          -0.05242230248346452,
          -0.02709592276215726,
          -0.03877489826318156,
          -0.01550266722188912,
          0.02915132787591764,
          0.0228104567796444,
          -0.009434387024562788,
          -0.0037907524206137557,
          -0.04939047255587877,
          -0.03090490841121473,
          -0.023833803963908287,
          -0.006359594787646149,
          0.004597509225907887,
          0.003923308397448378,
          -0.03042839417050113,
          0.020570802926798692,
          -0.02882003063041492,
          0.008227114851651129,
          -0.042105491215980846,
          0.03599709135260981,
          0.009384489420229073,
          0.014473468344987092,
          -0.04128757632110916,
          -0.005821576701102141,
          0.021170174279777826,
          0.04042249972748667,
          -0.007734863009652485,
          -0.044208892497257034,
          -0.03412464574854105,
          -0.04790436277941674,
          0.021734217164810752,
          -0.0420913102436559,
          -0.03316548640643518,
          -0.048631704802544744,
          -0.034145718386444986,
          -0.0037294037425764305,
          0.0028817099432453352,
          -0.015310876846550976,
          0.0016129107985666993,
          -0.04627008772712182,
          0.048447754167865384,
          0.020427348620031673,
          -0.0006060297671255825,
          -0.032001591347908774,
          0.014689284743175077,
          -0.01860666949267243,
          0.051787448785724374,
          0.010088738649731031,
          -0.052366535397985116,
          0.027857711720704448,
          0.027852382870450724,
          -0.021494779114374966,
          0.0439918187018906,
          0.010498957908211749,
          0.02695475395845352,
          -0.03166546582927091,
          -0.012240405402115875,
          0.04936505380874818,
          -0.011564195768278813,
          0.01289096124741512,
          -0.04923135767463322,
          0.051450067165129766,
          0.016561612037162096,
          0.0480786483414928,
          0.04995771776317169,
          0.039071242637340006,
          -0.03745012861067181,
          0.02476909116485077,
          0.03412080340632462,
          -0.04832756697645374,
          0.05288648002782623,
          0.0004333783557861323,
          -0.026460677384130035,
          -0.04600230951227829,
          -0.008949991215063529,
          0.02457358870301156,
          -0.023633058184210937,
          -0.04928834199316624,
          -0.05025197942959772,
          0.010108262499107097,
          0.05289523860161836,
          -0.03592735526014047,
          -0.021321047548673023,
          0.021349925155020426,
          0.028235130563964303,
          -0.04907653526939465,
          -0.004156493143199858,
          0.03999590653749436,
          0.03649226018272624,
          -0.03436546063914505,
          -0.0068293677731588115,
          -0.01009823945359364,
          -0.04865648643619197,
          -0.016638448962437057,
          -0.01091068335477173,
          0.00364563457220291,
          -0.049499113649811084,
          -0.004986560887560061,
          0.04189607130124063,
          -0.042151724083404805,
          -0.039689923149193465,
          0.004148848811306322,
          -0.04176994304875996,
          -0.019203705120014142,
          0.03839724551207977,
          -0.01609911127982862,
          0.010267637134535643,
          -0.029738023010449012,
          -0.017242921720904275,
          -0.002946240555464198,
          0.0524480076769883,
          0.004942071276768882,
          -0.008700603065139019,
          0.008139512112648916,
          0.025657490387630037,
          0.04086200582427692,
          -0.0018569821430584443,
          0.0033874049162243157,
          -0.04267005586289598,
          0.013177305131380197,
          -0.01970615602601365,
          0.033863901176425626,
          -0.04786474845575672,
          0.04908847601146844,
          0.04991405209375639,
          0.02117994201262305,
          0.05167163890305898,
          -0.025059611948563765,
          0.034888048260703304,
          0.03460066039200036,
          -0.01650718879792129,
          -0.05124978872623724,
          0.013241526415707871,
          0.03327792397402766,
          -0.04384180776249102,
          -0.04374379876517152,
          -0.04740971552044425,
          -0.03059817005920835,
          -0.0013773010107668605,
          -0.03140224914108254,
          0.009908093608635548,
          0.01111037858545925,
          -0.005832598270132054,
          0.013480642225514662,
          0.0465215744620369,
          -0.04579594131707499,
          -0.0044596901494642445,
          -0.04851602242086617,
          0.003153161719933207,
          -0.0005501193079348661,
          -0.0339549400327372,
          0.007717821961176445,
          0.025981280634955865,
          -0.006869909567589189,
          -0.02834191190961346,
          0.026157167459826342,
          -0.03411653400892855,
          -0.0006752908546864848,
          0.007316752548695307,
          -0.047378037305599495,
          -0.0474003688128049,
          0.02771452600891153,
          0.010412584537104613,
          0.028245174259506314,
          0.039588634651046575,
          0.047611361992638664,
          0.04042234299441373,
          0.03108626255035745,
          -0.04797899619319944,
          -0.0064055371220912705,
          -0.002369932087034534,
          0.023351813844733227,
          0.047367313024301486,
          0.031905794047701067,
          -0.01777243545059212,
          0.032032259214441805,
          0.020592902995427414,
          0.03086376079801977,
          -0.04779195957025811,
          0.016675106251185557,
          -0.0251794352562854,
          -0.04544899923622218,
          -0.015071546981873636,
          0.031618738500837906,
          -0.04941960494941827,
          -0.02456967122695645,
          -0.04638199750213367,
          -0.0315371180377469,
          -0.04348368177438884,
          0.027272690958891403,
          0.004067210014358357,
          -0.036234399129564256,
          -0.003408716985702533,
          0.04505183968558996,
          -0.01314812765612218,
          0.015504223136582923,
          -0.03315286330377611,
          -0.01984519242010356,
          0.0350230081770961,
          -0.021276568119021864,
          0.03784324683799704,
          0.0021229708672559616,
          0.015403918540425459,
          -0.007144663310365914,
          0.05098578198022224,
          -0.04466742761582155,
          -0.05269612956744654,
          0.046791825850728844,
          -0.04562337611886742,
          0.04301270690288852,
          0.018290731025505675,
          0.004751184596787645,
          0.0022261523976049896,
          -0.013013356226998217,
          0.005107505315245242,
          0.010416652622748428,
          0.04582847759108475,
          0.016777244025923194,
          -0.016186536903194253,
          0.03841289624862894,
          -0.006214256993544587,
          -0.018939063185922478,
          0.018744438302265163,
          0.03369041578080051,
          -0.0014991970788606147,
          -0.015226925607335793,
          0.05138172598107837,
          -0.05175841554096829,
          0.03164394672066761,
          -0.029123158738726392,
          -0.018787972599509508,
          0.0013012220768536178,
          0.03623736516015902,
          -0.049476246393991306,
          0.011279112690023558,
          -0.017570669696219694,
          -0.015021573217078664,
          -0.024071339781225207,
          0.03717967987015827,
          -0.027617421032622824,
          0.03902856206161981,
          0.009082275016657558,
          0.013902915993251722,
          -0.05130655898600434,
          0.023705666512774837,
          -0.014823849563383812,
          0.013755815632935589,
          0.00304106030157305,
          -0.005832218867996359,
          0.011109669441539202,
          -0.021454732478853447,
          0.029067702370858015,
          0.035960757197284456,
          0.038984577360338425,
          -0.015107862272732772,
          0.0162018656372603,
          0.01419048560267985,
          0.04173846056687405,
          -0.04878079000510023,
          -0.04302944322323329,
          0.04299039128576586,
          -0.03634778450828234,
          0.04581375120512094,
          -0.05079327297224956,
          -0.03365802418489237,
          0.04654681885022433,
          -0.05070529689395145,
          -0.006748305763733136,
          -0.030940654429129216,
          0.04084281613600805,
          0.0325027862311935,
          0.04978089217564564,
          0.0023340423239871784,
          0.009178656088632131,
          0.04237100274881885,
          -0.03879126331617402,
          0.03251492130878854,
          0.004471367753588235,
          0.03794224487999838,
          0.04722815584128292,
          -0.05088907121005248,
          0.04640048058187707,
          -0.012725003151559501,
          0.009860289910074356,
          0.0369586464535833,
          -0.046723773935256986,
          -0.02557348128618076,
          0.04517567584647497,
          0.03946327159580712,
          0.01446455612960304,
          0.0341936491003193,
          0.000163598855726229,
          -0.027111426416441986,
          -0.038435963474347225,
          0.013654667880861582,
          -0.03889525955465318,
          0.023114592019986953,
          -0.02318622467334584,
          -0.020974734673784457,
          0.025636312288562547,
          -0.010504627755035573,
          0.03767742014632448,
          -0.03685067138917107,
          -0.051606985678060865,
          -0.04787223800563289,
          -0.05047706202590103,
          0.027350080746958088,
          0.02949703294339059,
          -0.018135306379618892,
          0.02169973546823885,
          0.052031425745686366,
          0.011707714207681968,
          -0.036479787016411275,
          0.009035290281699157,
          0.041801357240386694,
          -0.05160741159461613,
          0.009347151529821972,
          -0.008142963838609569,
          0.045170865432607205,
          -0.038307780030527656,
          0.005093906163803568,
          -0.007041228952775498,
          0.029240211009797915,
          0.030621419636531335,
          -0.027016972663516683,
          0.04723615413980625,
          -0.0071406309079494095,
          0.035343822903905746,
          -0.03752801980869074,
          0.012548136395961355,
          0.021062097089343926,
          -0.01944783722042434,
          -0.04804150840734188,
          -0.002021153474860469,
          0.047961595114938395,
          -0.03744732487004331,
          0.02287459567820544,
          -0.03776025291094949,
          -0.04736873862002784,
          -0.04561029558014889,
          -0.026519830504862604,
          0.04263697273962192,
          -0.030051541123516618,
          -0.007289526103948741,
          -0.03975768594002662,
          -0.04591282715976393,
          -0.043851899258807815,
          0.014091470343720264,
          -0.0024877738950488237,
          -0.04718358388571893,
          -0.011051169406111717,
          -0.008959372401318296,
          -0.013308938537689663,
          0.013267066725553799,
          0.0015870393048861551,
          -0.02258591714695406,
          -0.052087760529700905,
          0.0278952528531126,
          -0.03624485082808395,
          -0.042466261337520995,
          -0.033199563625883874,
          0.03294585215049757,
          0.010932281570023933,
          0.04974774750455818,
          -0.01424803185621548,
          -0.046744177602581066,
          -0.02924822241479492,
          -0.014291857973394198,
          0.028279308036893058,
          0.0312503638896788,
          -0.0101796289360926,
          -0.01904644374296155,
          0.03838522812212145,
          0.027248971745445397,
          0.011049143790287343,
          0.021364628944546406,
          0.03690614771251148,
          -0.033003262567106145,
          -0.04779674489091419,
          0.047590672241371486,
          0.03003820772986972,
          0.03933322638534224,
          0.008925716164124546,
          -0.050105763880393374,
          0.020935109664089478,
          0.0383276302326691,
          0.021698689640929334,
          0.0016161074876055235,
          0.021756035432915207
        ],
        [
          -0.0005075059015281165,
          -0.04689398768655584,
          -0.005549462860890279,
          0.04629144126511796,
          0.02534992287360977,
          0.024024221942277664,
          -0.002128084803512964,
          -0.021963336418999363,
          -0.015547752529531032,
          -0.00859213775150156,
          -0.0011801270788061849,
          0.03407410852151058,
          0.00215101800515904,
          0.016202549539774787,
          0.029360817125027226,
          0.03759013977449833,
          0.0072648387877414,
          -0.017683395864587833,
          0.01822883237757147,
          0.02921433898375955,
          -0.044062411713594464,
          -0.0178705378630742,
          -0.004104868433357645,
          -0.019915826178490956,
          0.033017943426054575,
          -0.042044343868278385,
          -0.03753683493210454,
          -0.009617629810836512,
          0.03535497150123882,
          -0.01283769146732624,
          0.03374987800361434,
          0.04088977891087002,
          0.03661364003050084,
          -0.004021288826600367,
          0.025028696106908655,
          0.03452708039718974,
          -0.02886369967620242,
          0.051070947877661164,
          0.03463147431359806,
          -0.020421010767508595,
          -0.02805666459233924,
          -0.007990824158901224,
          0.015338282673592335,
          -0.04156535928099685,
          -0.043683527471138905,
          -0.013816512853831786,
          0.03730803828846528,
          -0.017161466869233487,
          0.04712273061969547,
          0.050971310093162386,
          -0.046185005235239183,
          0.0033471762373064695,
          0.027340048687836516,
          0.015869377555931412,
          -0.04369129504715482,
          0.043829183831832826,
          -0.01532099262361705,
          0.01789406773822643,
          -0.009689437985393297,
          -0.01753914415983099,
          0.044202645899762326,
          0.05006917293191996,
          -0.049658872816247736,
          0.00723283848945851,
          -0.02905009305070494,
          -0.029839410537333275,
          0.042417054920771816,
          -0.02636092952847312,
          -0.0074543959124414765,
          -0.000018396787585015524,
          -0.041763216307081234,
          0.049201033774997766,
          -0.04674000641841243,
          -0.048076340064028854,
          -0.010661583682299915,
          0.04784476099605378,
          -0.04376674009531921,
          0.03627789237560882,
          -0.036837248268906074,
          0.027293256775453998,
          -0.034052701523823455,
          0.02561799534539357,
          -0.01894604284096071,
          0.018523179888232155,
          0.01862761293455047,
          0.0204302759750018,
          -0.042150142114397285,
          -0.011158909055010885,
          -0.004142155122576724,
          0.0068232946895155225,
          0.04916373007141268,
          -0.0021825170242848932,
          0.03136576231048582,
          0.014612391898022565,
          -0.012273782666476525,
          -0.04736113688609152,
          -0.010285870708423702,
          0.010364938221017594,
          -0.002449882933369402,
          -0.0315254337270427,
          0.009342610927228599,
          0.027545812986059164,
          -0.022411798267132306,
          0.03801207018723939,
          0.0006804120496904011,
          -0.03297618160949919,
          0.022295053892560847,
          0.04690198381699081,
          -0.01683697115981981,
          0.029862067851550007,
          -0.0020500538634801533,
          0.015237994860185502,
          -0.0006282886822814837,
          0.03182149802521454,
          -0.019369133071457895,
          -0.022014862478513957,
          0.023465966758375867,
          -0.04841750494237805,
          0.04742250351010546,
          0.018913917937481477,
          0.011086317046363325,
          0.04300384697892338,
          0.036817443838446665,
          0.03878153171741237,
          -0.0514991600372774,
          -0.04024754058019356,
          0.01250438469035379,
          -0.03385876971182923,
          0.006909499159801519,
          -0.023146333793983592,
          -0.024348529756757685,
          0.04996215707792725,
          -0.05025056353853033,
          0.033767360545513096,
          -0.051341179544041736,
          0.020614585368070665,
          0.017195116105353483,
          0.021817199878805232,
          0.017216561628613604,
          0.021796397123902977,
          0.007187944102799081,
          -0.015348824412685915,
          -0.03981922397533569,
          0.04563577224154107,
          -0.014833841759123532,
          0.010826448371502605,
          -0.046648702400718445,
          -0.000699016542204603,
          -0.008226260750755577,
          -0.027891240715464897,
          0.01719580053457798,
          -0.023204955962348263,
          0.011412445072642363,
          0.02633066012351135,
          0.002494298485459367,
          0.044235800104743074,
          0.003136500994977237,
          0.051784659714552865,
          -0.04510898508036871,
          0.005215559031196562,
          -0.02419241196811108,
          0.051031606315197604,
          -0.023514146865803588,
          0.039894038340099525,
          0.011761508484699333,
          0.02632290286873455,
          -0.03710522780096489,
          0.051765989820101214,
          0.009331116200694704,
          -0.010769197356349638,
          0.007892447158583712,
          -0.015054802708016974,
          0.03529549306590689,
          0.00995976616252518,
          -0.012929539596845304,
          0.014936620795877147,
          -0.0017663049431078952,
          -0.039510602754324116,
          -0.005331014657051058,
          0.048662365854556536,
          -0.019429393866091747,
          0.01815239042223098,
          -0.046282476094321075,
          0.023925354562753482,
          -0.019206886776872895,
          -0.04692748362089992,
          -0.008483553452950933,
          0.02094952929670705,
          0.0190833781813894,
          -0.04363487778535012,
          0.002740328266163253,
          -0.04488865661648919,
          -0.05303977727403525,
          0.03057322535037011,
          -0.00407025833083758,
          0.02174188572836064,
          0.03787134163852929,
          -0.03379433424915696,
          0.0489802547906961,
          -0.024446913142450434,
          0.014474271312931048,
          0.029722787721695416,
          0.03617978217573022,
          0.027739268823089566,
          0.04750316777957707,
          -0.02228789308177686,
          0.01584792918426908,
          -0.0007531939649188926,
          -0.04987293861951972,
          -0.011680368169650842,
          0.03689901558185324,
          0.014021774072595151,
          -0.0016339372054944704,
          -0.05067836811757657,
          -0.04368483967457418,
          0.02677860072090208,
          -0.027234558330907828,
          0.02575725885727387,
          -0.003992090300536349,
          -0.01053443904886237,
          -0.015298961703152774,
          0.009307687810568652,
          -0.011781920951274536,
          0.04021221122306588,
          -0.033152764914432004,
          0.008322704685442524,
          0.017756721583511426,
          0.05076650416055024,
          0.017404423818009093,
          -0.024598942813787942,
          -0.006464222796926196,
          0.018412601248349845,
          0.05062352154592264,
          -0.022000816820153594,
          -0.0044556205418521035,
          -0.015299087512426066,
          0.025488671770812602,
          0.01774950693627519,
          -0.04992091914762221,
          -0.03007066611413285,
          -0.03767206881690515,
          -0.03661182127345658,
          -0.02087991508694239,
          -0.022396637044203558,
          0.04880613243117797,
          -0.04164352701324127,
          0.04754827029897772,
          0.04473060092006298,
          -0.047224750019814736,
          0.018074113865515527,
          -0.018057781229537884,
          0.020884674844967446,
          0.03911242062460495,
          0.02712122546082066,
          -0.014704633360965304,
          0.03705080423669314,
          0.014936631258383102,
          0.014662101725851473,
          -0.03447325956310282,
          -0.05078445660502942,
          -0.027134774862265,
          -0.030751592316552636,
          -0.050669775161087324,
          0.046651161891888844,
          -0.028252412771435705,
          0.019787793521652688,
          0.048115522316060866,
          0.05109085555769761,
          -0.02484799925285247,
          -0.029482869677960176,
          0.02802754315999817,
          -0.02137574030842564,
          -0.0024986751253416404,
          -0.027260976056032914,
          0.001478048525342262,
          0.008456439798460759,
          -0.02629978330348899,
          0.019214649592525536,
          -0.045091987429632815,
          0.023734778790763092,
          0.03824153554018901,
          -0.029277412972476134,
          0.00419070441935395,
          -0.019582064183439093,
          -0.0056896592736105644,
          -0.000873691409508084,
          0.03177211159835411,
          -0.049359038239112966,
          -0.02573830156578995,
          -0.0429899047763178,
          0.03798162471975964,
          -0.0029646840642138924,
          0.03502942259419757,
          -0.011925440677170667,
          -0.020678894678379262,
          -0.038777021161726065,
          0.0337177063194423,
          0.00494815090446358,
          -0.00511302592659519,
          -0.04102629555982235,
          -0.037057532237018936,
          -0.043181654508636674,
          -0.02093207789847912,
          0.028245186857093565,
          -0.006296221478565722,
          0.03853207285223854,
          -0.04020855414037552,
          0.018883154547706043,
          -0.010240405062798356,
          0.04010667437145098,
          0.005081348063966472,
          -0.006388266636737192,
          0.024740381626042154,
          0.04590593346550123,
          -0.0381272689256113,
          -0.008118377824189438,
          -0.02925550367911529,
          -0.030853288399648845,
          -0.04015933221104278,
          0.014288909181240197,
          -0.034542537319389624,
          -0.00028962318758683965,
          -0.021863141289560045,
          0.029851629375378868,
          -0.03256457337712203,
          0.02746581567286076,
          -0.017584815111750935,
          -0.013343499022286424,
          0.009145294845201556,
          -0.006617616657062035,
          -0.038159860313192906,
          0.041493211614252304,
          0.04411233619733174,
          -0.021785799886202193,
          0.01566696966439703,
          -0.023148803066987016,
          0.008372216814353715,
          0.028718862112994157,
          -0.023730393158764313,
          0.047914499201539305,
          0.02964097929472865,
          -0.012989568585381098,
          -0.0364658049631444,
          0.010792018762877062,
          -0.028444773219106073,
          0.039213272580607465,
          -0.02448856903613401,
          -0.0069408735872399634,
          0.0379502675208133,
          0.03967324155060118,
          0.011518645620661608,
          0.022397388446866787,
          0.02695939540128384,
          0.048075583726367485,
          -0.015540229621870795,
          0.04524729219071127,
          0.0002938695027296078,
          0.03358775685724998,
          -0.03295534135992565,
          0.04676272721373837,
          -0.03723503908143339,
          -0.033773675008989854,
          -0.01600532183989464,
          -0.0018372227453021463,
          -0.05202626333753708,
          0.04546691155915977,
          0.040466505748521384,
          -0.040461980107688075,
          0.017860496861466815,
          -0.006694573132912883,
          0.029938093691665505,
          -0.0227574903029393,
          0.033725821904922064,
          0.03375694212239498,
          0.0032917467347183603,
          -0.04147741225546311,
          -0.000919763667017931,
          -0.01929421706526529,
          0.02649652368438735,
          -0.009925726903649647,
          -0.027117621605163563,
          0.0005117519316973989,
          0.017299865806614658,
          -0.02341050925604189,
          0.030153047081481095,
          -0.005514199124529668,
          0.05269348892919223,
          -0.0527590124285603,
          0.031328807245380216,
          0.016976406454379186,
          -0.0012532116420133589,
          0.006119295856947376,
          0.03493864683960556,
          -0.038838851527023675,
          -0.0473742997564093,
          0.000697676941962788,
          0.002960093568816254,
          0.012973899060293352,
          0.031093556438493222,
          -0.03538905248540119,
          0.046434803545619074,
          0.05083523393742696,
          0.04165931751833222,
          0.040537592134604054,
          -0.015453131164518075,
          -0.046984798135070914,
          -0.01903481571516473,
          -0.004763054346152468,
          0.011814216577252266,
          -0.027225689284564498,
          0.05268619587745845,
          0.02957265704742217,
          -0.03753844669429061,
          -0.006159859874869072,
          -0.0470455583025819,
          -0.03215269525008439,
          0.01998296150092225,
          0.03749716414736295,
          -0.04488266033369237,
          0.028421182303045738,
          -0.05103390597390474,
          0.010285850308777225,
          -0.0380216766177342,
          0.03678541705641975,
          -0.008883626819327316,
          -0.05012220251721188,
          0.043507553155365884,
          -0.0012853691974961967,
          -0.038900316242962904,
          0.039260761640385715,
          0.05140052289466902,
          -0.011864806076142258,
          0.0034020696291507313,
          -0.02328889346619672,
          -0.006997350279766604,
          0.03937326940698033,
          0.014294355034077309,
          -0.0038998563711749967,
          0.02752576923123307,
          -0.03348007651008721,
          0.050644638136670465,
          -0.013314793288865099,
          -0.05299549040232651,
          0.03755392269800142,
          0.019069018576375656,
          0.048938732250823735,
          -0.023758769233318412,
          -0.021827993249807772,
          0.04344544241179904,
          -0.039244025419817,
          0.0509748407858715,
          -0.050995655185161484,
          -0.023227819007028746,
          0.00043544131683536747,
          0.016277353532862308,
          0.015955835575385068,
          -0.02018277974993084,
          -0.004848571783782196,
          0.008765931042512472,
          -0.04531367471570618,
          0.02252080927391064,
          0.022593940965981912,
          0.05299731516654123,
          0.04376139184232059,
          -0.03073510949693537,
          -0.049508441832596534,
          -0.0059804679706042495,
          -0.051545765947132484,
          -0.03781637535897189,
          0.010090613138965168,
          -0.020881164393258104,
          -0.009048329953320522,
          0.03209364507825949,
          -0.03081001609398192,
          0.009914136787987462,
          -0.008323046957440853,
          0.050365056840302465,
          0.014092887968421834,
          -0.012262190768725877,
          0.026641835694457022,
          0.015308870836612606,
          -0.05190418038416996,
          0.013478796261494766,
          0.0447921514660979,
          -0.030952814054174153,
          0.026635518606560774,
          -0.004780313613083202,
          -0.03885127445662871,
          -0.0011902695430377926,
          0.020595238347917703,
          0.03288222588476434,
          0.014663995411549726,
          0.03777355063825414,
          0.0029897910979098754,
          -0.015478551058210248,
          0.006523452823818327,
          0.04982805418379414,
          -0.03161209477514159,
          0.0140609556343593,
          -0.01959871283428175,
          -0.010257220537222134,
          -0.030981628697284318,
          0.023703300333680743,
          -0.024518376766706467,
          -0.03680788235432012,
          0.049695149503039895,
          -0.01834714222917372,
          -0.03736856436208415,
          0.018570104341709234,
          -0.018362120400627322,
          -0.01328832416080469,
          -0.018092429406182158
        ],
        [
          0.04650137693412448,
          -0.04695687922466818,
          -0.02560621583902257,
          -0.03358925480142914,
          0.04658796314445848,
          -0.05052822710056677,
          -0.034111881572286486,
          0.03582945858802485,
          -0.043321772689484506,
          -0.02801760909859102,
          0.024962646918961592,
          -0.012424345976923433,
          0.014922504332725852,
          -0.015122370860306057,
          0.03731836421075681,
          0.006580659735756115,
          0.00043437439369056887,
          -0.015308136185370922,
